digraph Tree {
node [shape=box, style="filled, rounded", color="black", fontname=helvetica] ;
edge [fontname=helvetica] ;
0 [label="char_freq_%21 <= 0.08\nentropy = 0.967\nsamples = 3910\nvalue = [2369, 1541]", fillcolor="#f6d3ba"] ;
1 [label="word_freq_remove <= 0.045\nentropy = 0.617\nsamples = 2253\nvalue = [1909, 344]", fillcolor="#ea985d"] ;
0 -> 1 [labeldistance=2.5, labelangle=45, headlabel="True"] ;
2 [label="char_freq_%24 <= 0.087\nentropy = 0.464\nsamples = 2094\nvalue = [1888, 206]", fillcolor="#e88f4f"] ;
1 -> 2 ;
3 [label="word_freq_george <= 0.005\nentropy = 0.363\nsamples = 1976\nvalue = [1839, 137]", fillcolor="#e78a48"] ;
2 -> 3 ;
4 [label="word_freq_hp <= 0.02\nentropy = 0.454\nsamples = 1439\nvalue = [1302, 137]", fillcolor="#e88e4e"] ;
3 -> 4 ;
5 [label="capital_run_length_longest <= 10.5\nentropy = 0.579\nsamples = 948\nvalue = [817, 131]", fillcolor="#e99559"] ;
4 -> 5 ;
6 [label="word_freq_receive <= 0.23\nentropy = 0.302\nsamples = 595\nvalue = [563, 32]", fillcolor="#e68844"] ;
5 -> 6 ;
7 [label="word_freq_free <= 0.275\nentropy = 0.275\nsamples = 591\nvalue = [563, 28]", fillcolor="#e68743"] ;
6 -> 7 ;
8 [label="capital_run_length_average <= 1.551\nentropy = 0.229\nsamples = 565\nvalue = [544, 21]", fillcolor="#e68641"] ;
7 -> 8 ;
9 [label="word_freq_all <= 0.16\nentropy = 0.321\nsamples = 343\nvalue = [323, 20]", fillcolor="#e78945"] ;
8 -> 9 ;
10 [label="capital_run_length_total <= 29.5\nentropy = 0.371\nsamples = 280\nvalue = [260, 20]", fillcolor="#e78b48"] ;
9 -> 10 ;
11 [label="word_freq_you <= 4.65\nentropy = 0.28\nsamples = 227\nvalue = [216, 11]", fillcolor="#e68743"] ;
10 -> 11 ;
12 [label="word_freq_your <= 10.1\nentropy = 0.181\nsamples = 183\nvalue = [178, 5]", fillcolor="#e6853f"] ;
11 -> 12 ;
13 [label="word_freq_our <= 6.97\nentropy = 0.152\nsamples = 182\nvalue = [178, 4]", fillcolor="#e6843d"] ;
12 -> 13 ;
14 [label="capital_run_length_average <= 1.541\nentropy = 0.123\nsamples = 179\nvalue = [176, 3]", fillcolor="#e5833c"] ;
13 -> 14 ;
15 [label="capital_run_length_total <= 6.5\nentropy = 0.09\nsamples = 176\nvalue = [174, 2]", fillcolor="#e5823b"] ;
14 -> 15 ;
16 [label="entropy = 0.0\nsamples = 72\nvalue = [72, 0]", fillcolor="#e58139"] ;
15 -> 16 ;
17 [label="word_freq_you <= 0.27\nentropy = 0.137\nsamples = 104\nvalue = [102, 2]", fillcolor="#e6833d"] ;
15 -> 17 ;
18 [label="capital_run_length_average <= 1.283\nentropy = 0.208\nsamples = 61\nvalue = [59, 2]", fillcolor="#e68540"] ;
17 -> 18 ;
19 [label="capital_run_length_average <= 1.258\nentropy = 0.292\nsamples = 39\nvalue = [37, 2]", fillcolor="#e68844"] ;
18 -> 19 ;
20 [label="capital_run_length_total <= 7.5\nentropy = 0.176\nsamples = 38\nvalue = [37, 1]", fillcolor="#e6843e"] ;
19 -> 20 ;
21 [label="capital_run_length_average <= 1.083\nentropy = 0.414\nsamples = 12\nvalue = [11, 1]", fillcolor="#e78c4b"] ;
20 -> 21 ;
22 [label="word_freq_edu <= 1.56\nentropy = 0.65\nsamples = 6\nvalue = [5, 1]", fillcolor="#ea9a61"] ;
21 -> 22 ;
23 [label="word_freq_will <= 1.085\nentropy = 0.811\nsamples = 4\nvalue = [3, 1]", fillcolor="#eeab7b"] ;
22 -> 23 ;
24 [label="word_freq_re <= 3.125\nentropy = 0.918\nsamples = 3\nvalue = [2, 1]", fillcolor="#f2c09c"] ;
23 -> 24 ;
25 [label="word_freq_meeting <= 2.63\nentropy = 1.0\nsamples = 2\nvalue = [1, 1]", fillcolor="#ffffff"] ;
24 -> 25 ;
26 [label="entropy = 0.0\nsamples = 1\nvalue = [0, 1]", fillcolor="#399de5"] ;
25 -> 26 ;
27 [label="entropy = 0.0\nsamples = 1\nvalue = [1, 0]", fillcolor="#e58139"] ;
25 -> 27 ;
28 [label="entropy = 0.0\nsamples = 1\nvalue = [1, 0]", fillcolor="#e58139"] ;
24 -> 28 ;
29 [label="entropy = 0.0\nsamples = 1\nvalue = [1, 0]", fillcolor="#e58139"] ;
23 -> 29 ;
30 [label="entropy = 0.0\nsamples = 2\nvalue = [2, 0]", fillcolor="#e58139"] ;
22 -> 30 ;
31 [label="entropy = 0.0\nsamples = 6\nvalue = [6, 0]", fillcolor="#e58139"] ;
21 -> 31 ;
32 [label="entropy = 0.0\nsamples = 26\nvalue = [26, 0]", fillcolor="#e58139"] ;
20 -> 32 ;
33 [label="entropy = 0.0\nsamples = 1\nvalue = [0, 1]", fillcolor="#399de5"] ;
19 -> 33 ;
34 [label="entropy = 0.0\nsamples = 22\nvalue = [22, 0]", fillcolor="#e58139"] ;
18 -> 34 ;
35 [label="entropy = 0.0\nsamples = 43\nvalue = [43, 0]", fillcolor="#e58139"] ;
17 -> 35 ;
36 [label="word_freq_will <= 0.57\nentropy = 0.918\nsamples = 3\nvalue = [2, 1]", fillcolor="#f2c09c"] ;
14 -> 36 ;
37 [label="entropy = 0.0\nsamples = 2\nvalue = [2, 0]", fillcolor="#e58139"] ;
36 -> 37 ;
38 [label="entropy = 0.0\nsamples = 1\nvalue = [0, 1]", fillcolor="#399de5"] ;
36 -> 38 ;
39 [label="word_freq_our <= 8.01\nentropy = 0.918\nsamples = 3\nvalue = [2, 1]", fillcolor="#f2c09c"] ;
13 -> 39 ;
40 [label="entropy = 0.0\nsamples = 1\nvalue = [0, 1]", fillcolor="#399de5"] ;
39 -> 40 ;
41 [label="entropy = 0.0\nsamples = 2\nvalue = [2, 0]", fillcolor="#e58139"] ;
39 -> 41 ;
42 [label="entropy = 0.0\nsamples = 1\nvalue = [0, 1]", fillcolor="#399de5"] ;
12 -> 42 ;
43 [label="word_freq_you <= 4.78\nentropy = 0.575\nsamples = 44\nvalue = [38, 6]", fillcolor="#e99558"] ;
11 -> 43 ;
44 [label="entropy = 0.0\nsamples = 2\nvalue = [0, 2]", fillcolor="#399de5"] ;
43 -> 44 ;
45 [label="word_freq_re <= 0.4\nentropy = 0.454\nsamples = 42\nvalue = [38, 4]", fillcolor="#e88e4e"] ;
43 -> 45 ;
46 [label="word_freq_you <= 11.805\nentropy = 0.667\nsamples = 23\nvalue = [19, 4]", fillcolor="#ea9c63"] ;
45 -> 46 ;
47 [label="word_freq_your <= 1.22\nentropy = 0.454\nsamples = 21\nvalue = [19, 2]", fillcolor="#e88e4e"] ;
46 -> 47 ;
48 [label="entropy = 0.0\nsamples = 16\nvalue = [16, 0]", fillcolor="#e58139"] ;
47 -> 48 ;
49 [label="word_freq_edu <= 0.6\nentropy = 0.971\nsamples = 5\nvalue = [3, 2]", fillcolor="#f6d5bd"] ;
47 -> 49 ;
50 [label="char_freq_%3B <= 0.179\nentropy = 0.918\nsamples = 3\nvalue = [1, 2]", fillcolor="#9ccef2"] ;
49 -> 50 ;
51 [label="entropy = 0.0\nsamples = 2\nvalue = [0, 2]", fillcolor="#399de5"] ;
50 -> 51 ;
52 [label="entropy = 0.0\nsamples = 1\nvalue = [1, 0]", fillcolor="#e58139"] ;
50 -> 52 ;
53 [label="entropy = 0.0\nsamples = 2\nvalue = [2, 0]", fillcolor="#e58139"] ;
49 -> 53 ;
54 [label="entropy = 0.0\nsamples = 2\nvalue = [0, 2]", fillcolor="#399de5"] ;
46 -> 54 ;
55 [label="entropy = 0.0\nsamples = 19\nvalue = [19, 0]", fillcolor="#e58139"] ;
45 -> 55 ;
56 [label="word_freq_mail <= 0.675\nentropy = 0.657\nsamples = 53\nvalue = [44, 9]", fillcolor="#ea9b61"] ;
10 -> 56 ;
57 [label="capital_run_length_average <= 1.327\nentropy = 0.577\nsamples = 51\nvalue = [44, 7]", fillcolor="#e99558"] ;
56 -> 57 ;
58 [label="word_freq_edu <= 0.055\nentropy = 0.811\nsamples = 28\nvalue = [21, 7]", fillcolor="#eeab7b"] ;
57 -> 58 ;
59 [label="capital_run_length_total <= 32.5\nentropy = 0.977\nsamples = 17\nvalue = [10, 7]", fillcolor="#f7d9c4"] ;
58 -> 59 ;
60 [label="entropy = 0.0\nsamples = 3\nvalue = [0, 3]", fillcolor="#399de5"] ;
59 -> 60 ;
61 [label="word_freq_your <= 1.085\nentropy = 0.863\nsamples = 14\nvalue = [10, 4]", fillcolor="#efb388"] ;
59 -> 61 ;
62 [label="word_freq_data <= 1.53\nentropy = 0.971\nsamples = 10\nvalue = [6, 4]", fillcolor="#f6d5bd"] ;
61 -> 62 ;
63 [label="word_freq_you <= 1.125\nentropy = 0.985\nsamples = 7\nvalue = [3, 4]", fillcolor="#cee6f8"] ;
62 -> 63 ;
64 [label="entropy = 0.0\nsamples = 3\nvalue = [0, 3]", fillcolor="#399de5"] ;
63 -> 64 ;
65 [label="word_freq_your <= 1.015\nentropy = 0.811\nsamples = 4\nvalue = [3, 1]", fillcolor="#eeab7b"] ;
63 -> 65 ;
66 [label="entropy = 0.0\nsamples = 3\nvalue = [3, 0]", fillcolor="#e58139"] ;
65 -> 66 ;
67 [label="entropy = 0.0\nsamples = 1\nvalue = [0, 1]", fillcolor="#399de5"] ;
65 -> 67 ;
68 [label="entropy = 0.0\nsamples = 3\nvalue = [3, 0]", fillcolor="#e58139"] ;
62 -> 68 ;
69 [label="entropy = 0.0\nsamples = 4\nvalue = [4, 0]", fillcolor="#e58139"] ;
61 -> 69 ;
70 [label="entropy = 0.0\nsamples = 11\nvalue = [11, 0]", fillcolor="#e58139"] ;
58 -> 70 ;
71 [label="entropy = 0.0\nsamples = 23\nvalue = [23, 0]", fillcolor="#e58139"] ;
57 -> 71 ;
72 [label="entropy = 0.0\nsamples = 2\nvalue = [0, 2]", fillcolor="#399de5"] ;
56 -> 72 ;
73 [label="entropy = 0.0\nsamples = 63\nvalue = [63, 0]", fillcolor="#e58139"] ;
9 -> 73 ;
74 [label="word_freq_your <= 4.25\nentropy = 0.042\nsamples = 222\nvalue = [221, 1]", fillcolor="#e5823a"] ;
8 -> 74 ;
75 [label="entropy = 0.0\nsamples = 220\nvalue = [220, 0]", fillcolor="#e58139"] ;
74 -> 75 ;
76 [label="word_freq_your <= 6.23\nentropy = 1.0\nsamples = 2\nvalue = [1, 1]", fillcolor="#ffffff"] ;
74 -> 76 ;
77 [label="entropy = 0.0\nsamples = 1\nvalue = [0, 1]", fillcolor="#399de5"] ;
76 -> 77 ;
78 [label="entropy = 0.0\nsamples = 1\nvalue = [1, 0]", fillcolor="#e58139"] ;
76 -> 78 ;
79 [label="word_freq_our <= 2.105\nentropy = 0.84\nsamples = 26\nvalue = [19, 7]", fillcolor="#efaf82"] ;
7 -> 79 ;
80 [label="capital_run_length_total <= 113.0\nentropy = 0.667\nsamples = 23\nvalue = [19, 4]", fillcolor="#ea9c63"] ;
79 -> 80 ;
81 [label="word_freq_free <= 8.845\nentropy = 0.454\nsamples = 21\nvalue = [19, 2]", fillcolor="#e88e4e"] ;
80 -> 81 ;
82 [label="capital_run_length_average <= 1.915\nentropy = 0.286\nsamples = 20\nvalue = [19, 1]", fillcolor="#e68843"] ;
81 -> 82 ;
83 [label="entropy = 0.0\nsamples = 17\nvalue = [17, 0]", fillcolor="#e58139"] ;
82 -> 83 ;
84 [label="capital_run_length_longest <= 6.0\nentropy = 0.918\nsamples = 3\nvalue = [2, 1]", fillcolor="#f2c09c"] ;
82 -> 84 ;
85 [label="entropy = 0.0\nsamples = 1\nvalue = [0, 1]", fillcolor="#399de5"] ;
84 -> 85 ;
86 [label="entropy = 0.0\nsamples = 2\nvalue = [2, 0]", fillcolor="#e58139"] ;
84 -> 86 ;
87 [label="entropy = 0.0\nsamples = 1\nvalue = [0, 1]", fillcolor="#399de5"] ;
81 -> 87 ;
88 [label="entropy = 0.0\nsamples = 2\nvalue = [0, 2]", fillcolor="#399de5"] ;
80 -> 88 ;
89 [label="entropy = 0.0\nsamples = 3\nvalue = [0, 3]", fillcolor="#399de5"] ;
79 -> 89 ;
90 [label="entropy = 0.0\nsamples = 4\nvalue = [0, 4]", fillcolor="#399de5"] ;
6 -> 90 ;
91 [label="word_freq_our <= 0.85\nentropy = 0.856\nsamples = 353\nvalue = [254, 99]", fillcolor="#efb286"] ;
5 -> 91 ;
92 [label="word_freq_re <= 0.355\nentropy = 0.78\nsamples = 329\nvalue = [253, 76]", fillcolor="#eda774"] ;
91 -> 92 ;
93 [label="word_freq_edu <= 0.045\nentropy = 0.87\nsamples = 261\nvalue = [185, 76]", fillcolor="#f0b58a"] ;
92 -> 93 ;
94 [label="word_freq_money <= 0.01\nentropy = 0.956\nsamples = 170\nvalue = [106, 64]", fillcolor="#f5cdb1"] ;
93 -> 94 ;
95 [label="word_freq_will <= 1.6\nentropy = 0.914\nsamples = 158\nvalue = [106, 52]", fillcolor="#f2bf9a"] ;
94 -> 95 ;
96 [label="word_freq_over <= 0.76\nentropy = 0.965\nsamples = 128\nvalue = [78, 50]", fillcolor="#f6d2b8"] ;
95 -> 96 ;
97 [label="word_freq_free <= 0.155\nentropy = 0.943\nsamples = 122\nvalue = [78, 44]", fillcolor="#f4c8a9"] ;
96 -> 97 ;
98 [label="word_freq_all <= 0.415\nentropy = 0.882\nsamples = 103\nvalue = [72, 31]", fillcolor="#f0b78e"] ;
97 -> 98 ;
99 [label="char_freq_%3B <= 0.731\nentropy = 0.94\nsamples = 87\nvalue = [56, 31]", fillcolor="#f3c7a7"] ;
98 -> 99 ;
100 [label="word_freq_font <= 0.1\nentropy = 0.972\nsamples = 77\nvalue = [46, 31]", fillcolor="#f7d6be"] ;
99 -> 100 ;
101 [label="word_freq_1999 <= 0.055\nentropy = 0.928\nsamples = 70\nvalue = [46, 24]", fillcolor="#f3c3a0"] ;
100 -> 101 ;
102 [label="word_freq_technology <= 0.225\nentropy = 0.967\nsamples = 61\nvalue = [37, 24]", fillcolor="#f6d3b9"] ;
101 -> 102 ;
103 [label="char_freq_%23 <= 0.004\nentropy = 0.924\nsamples = 56\nvalue = [37, 19]", fillcolor="#f2c29f"] ;
102 -> 103 ;
104 [label="capital_run_length_average <= 2.49\nentropy = 0.968\nsamples = 48\nvalue = [29, 19]", fillcolor="#f6d4bb"] ;
103 -> 104 ;
105 [label="word_freq_pm <= 0.16\nentropy = 0.779\nsamples = 26\nvalue = [20, 6]", fillcolor="#eda774"] ;
104 -> 105 ;
106 [label="char_freq_%28 <= 0.05\nentropy = 0.65\nsamples = 24\nvalue = [20, 4]", fillcolor="#ea9a61"] ;
105 -> 106 ;
107 [label="capital_run_length_total <= 78.0\nentropy = 0.985\nsamples = 7\nvalue = [3, 4]", fillcolor="#cee6f8"] ;
106 -> 107 ;
108 [label="word_freq_you <= 3.785\nentropy = 0.811\nsamples = 4\nvalue = [3, 1]", fillcolor="#eeab7b"] ;
107 -> 108 ;
109 [label="entropy = 0.0\nsamples = 3\nvalue = [3, 0]", fillcolor="#e58139"] ;
108 -> 109 ;
110 [label="entropy = 0.0\nsamples = 1\nvalue = [0, 1]", fillcolor="#399de5"] ;
108 -> 110 ;
111 [label="entropy = 0.0\nsamples = 3\nvalue = [0, 3]", fillcolor="#399de5"] ;
107 -> 111 ;
112 [label="entropy = 0.0\nsamples = 17\nvalue = [17, 0]", fillcolor="#e58139"] ;
106 -> 112 ;
113 [label="entropy = 0.0\nsamples = 2\nvalue = [0, 2]", fillcolor="#399de5"] ;
105 -> 113 ;
114 [label="capital_run_length_average <= 5.536\nentropy = 0.976\nsamples = 22\nvalue = [9, 13]", fillcolor="#c2e1f7"] ;
104 -> 114 ;
115 [label="word_freq_mail <= 0.595\nentropy = 0.874\nsamples = 17\nvalue = [5, 12]", fillcolor="#8bc6f0"] ;
114 -> 115 ;
116 [label="capital_run_length_average <= 3.636\nentropy = 0.961\nsamples = 13\nvalue = [5, 8]", fillcolor="#b5daf5"] ;
115 -> 116 ;
117 [label="capital_run_length_average <= 2.65\nentropy = 0.985\nsamples = 7\nvalue = [4, 3]", fillcolor="#f8e0ce"] ;
116 -> 117 ;
118 [label="entropy = 0.0\nsamples = 1\nvalue = [0, 1]", fillcolor="#399de5"] ;
117 -> 118 ;
119 [label="word_freq_650 <= 4.165\nentropy = 0.918\nsamples = 6\nvalue = [4, 2]", fillcolor="#f2c09c"] ;
117 -> 119 ;
120 [label="capital_run_length_longest <= 17.0\nentropy = 0.722\nsamples = 5\nvalue = [4, 1]", fillcolor="#eca06a"] ;
119 -> 120 ;
121 [label="capital_run_length_average <= 2.9\nentropy = 1.0\nsamples = 2\nvalue = [1, 1]", fillcolor="#ffffff"] ;
120 -> 121 ;
122 [label="entropy = 0.0\nsamples = 1\nvalue = [1, 0]", fillcolor="#e58139"] ;
121 -> 122 ;
123 [label="entropy = 0.0\nsamples = 1\nvalue = [0, 1]", fillcolor="#399de5"] ;
121 -> 123 ;
124 [label="entropy = 0.0\nsamples = 3\nvalue = [3, 0]", fillcolor="#e58139"] ;
120 -> 124 ;
125 [label="entropy = 0.0\nsamples = 1\nvalue = [0, 1]", fillcolor="#399de5"] ;
119 -> 125 ;
126 [label="word_freq_report <= 3.2\nentropy = 0.65\nsamples = 6\nvalue = [1, 5]", fillcolor="#61b1ea"] ;
116 -> 126 ;
127 [label="entropy = 0.0\nsamples = 5\nvalue = [0, 5]", fillcolor="#399de5"] ;
126 -> 127 ;
128 [label="entropy = 0.0\nsamples = 1\nvalue = [1, 0]", fillcolor="#e58139"] ;
126 -> 128 ;
129 [label="entropy = 0.0\nsamples = 4\nvalue = [0, 4]", fillcolor="#399de5"] ;
115 -> 129 ;
130 [label="char_freq_%21 <= 0.008\nentropy = 0.722\nsamples = 5\nvalue = [4, 1]", fillcolor="#eca06a"] ;
114 -> 130 ;
131 [label="entropy = 0.0\nsamples = 4\nvalue = [4, 0]", fillcolor="#e58139"] ;
130 -> 131 ;
132 [label="entropy = 0.0\nsamples = 1\nvalue = [0, 1]", fillcolor="#399de5"] ;
130 -> 132 ;
133 [label="entropy = 0.0\nsamples = 8\nvalue = [8, 0]", fillcolor="#e58139"] ;
103 -> 133 ;
134 [label="entropy = 0.0\nsamples = 5\nvalue = [0, 5]", fillcolor="#399de5"] ;
102 -> 134 ;
135 [label="entropy = 0.0\nsamples = 9\nvalue = [9, 0]", fillcolor="#e58139"] ;
101 -> 135 ;
136 [label="entropy = 0.0\nsamples = 7\nvalue = [0, 7]", fillcolor="#399de5"] ;
100 -> 136 ;
137 [label="entropy = 0.0\nsamples = 10\nvalue = [10, 0]", fillcolor="#e58139"] ;
99 -> 137 ;
138 [label="entropy = 0.0\nsamples = 16\nvalue = [16, 0]", fillcolor="#e58139"] ;
98 -> 138 ;
139 [label="word_freq_free <= 0.96\nentropy = 0.9\nsamples = 19\nvalue = [6, 13]", fillcolor="#94caf1"] ;
97 -> 139 ;
140 [label="char_freq_%28 <= 0.005\nentropy = 0.414\nsamples = 12\nvalue = [1, 11]", fillcolor="#4ba6e7"] ;
139 -> 140 ;
141 [label="entropy = 0.0\nsamples = 1\nvalue = [1, 0]", fillcolor="#e58139"] ;
140 -> 141 ;
142 [label="entropy = 0.0\nsamples = 11\nvalue = [0, 11]", fillcolor="#399de5"] ;
140 -> 142 ;
143 [label="capital_run_length_total <= 31.5\nentropy = 0.863\nsamples = 7\nvalue = [5, 2]", fillcolor="#efb388"] ;
139 -> 143 ;
144 [label="entropy = 0.0\nsamples = 2\nvalue = [0, 2]", fillcolor="#399de5"] ;
143 -> 144 ;
145 [label="entropy = 0.0\nsamples = 5\nvalue = [5, 0]", fillcolor="#e58139"] ;
143 -> 145 ;
146 [label="entropy = 0.0\nsamples = 6\nvalue = [0, 6]", fillcolor="#399de5"] ;
96 -> 146 ;
147 [label="word_freq_you <= 2.2\nentropy = 0.353\nsamples = 30\nvalue = [28, 2]", fillcolor="#e78a47"] ;
95 -> 147 ;
148 [label="entropy = 0.0\nsamples = 28\nvalue = [28, 0]", fillcolor="#e58139"] ;
147 -> 148 ;
149 [label="entropy = 0.0\nsamples = 2\nvalue = [0, 2]", fillcolor="#399de5"] ;
147 -> 149 ;
150 [label="entropy = 0.0\nsamples = 12\nvalue = [0, 12]", fillcolor="#399de5"] ;
94 -> 150 ;
151 [label="word_freq_650 <= 0.23\nentropy = 0.563\nsamples = 91\nvalue = [79, 12]", fillcolor="#e99457"] ;
93 -> 151 ;
152 [label="word_freq_original <= 0.42\nentropy = 0.169\nsamples = 80\nvalue = [78, 2]", fillcolor="#e6843e"] ;
151 -> 152 ;
153 [label="char_freq_%28 <= 0.351\nentropy = 0.098\nsamples = 79\nvalue = [78, 1]", fillcolor="#e5833c"] ;
152 -> 153 ;
154 [label="entropy = 0.0\nsamples = 73\nvalue = [73, 0]", fillcolor="#e58139"] ;
153 -> 154 ;
155 [label="capital_run_length_average <= 3.143\nentropy = 0.65\nsamples = 6\nvalue = [5, 1]", fillcolor="#ea9a61"] ;
153 -> 155 ;
156 [label="entropy = 0.0\nsamples = 5\nvalue = [5, 0]", fillcolor="#e58139"] ;
155 -> 156 ;
157 [label="entropy = 0.0\nsamples = 1\nvalue = [0, 1]", fillcolor="#399de5"] ;
155 -> 157 ;
158 [label="entropy = 0.0\nsamples = 1\nvalue = [0, 1]", fillcolor="#399de5"] ;
152 -> 158 ;
159 [label="word_freq_you <= 1.445\nentropy = 0.439\nsamples = 11\nvalue = [1, 10]", fillcolor="#4da7e8"] ;
151 -> 159 ;
160 [label="entropy = 0.0\nsamples = 10\nvalue = [0, 10]", fillcolor="#399de5"] ;
159 -> 160 ;
161 [label="entropy = 0.0\nsamples = 1\nvalue = [1, 0]", fillcolor="#e58139"] ;
159 -> 161 ;
162 [label="entropy = 0.0\nsamples = 68\nvalue = [68, 0]", fillcolor="#e58139"] ;
92 -> 162 ;
163 [label="char_freq_%21 <= 0.068\nentropy = 0.25\nsamples = 24\nvalue = [1, 23]", fillcolor="#42a1e6"] ;
91 -> 163 ;
164 [label="entropy = 0.0\nsamples = 23\nvalue = [0, 23]", fillcolor="#399de5"] ;
163 -> 164 ;
165 [label="entropy = 0.0\nsamples = 1\nvalue = [1, 0]", fillcolor="#e58139"] ;
163 -> 165 ;
166 [label="word_freq_receive <= 0.985\nentropy = 0.095\nsamples = 491\nvalue = [485, 6]", fillcolor="#e5833b"] ;
4 -> 166 ;
167 [label="word_freq_free <= 2.295\nentropy = 0.068\nsamples = 489\nvalue = [485, 4]", fillcolor="#e5823b"] ;
166 -> 167 ;
168 [label="word_freq_hpl <= 0.395\nentropy = 0.054\nsamples = 488\nvalue = [485, 3]", fillcolor="#e5823a"] ;
167 -> 168 ;
169 [label="word_freq_hpl <= 0.385\nentropy = 0.097\nsamples = 241\nvalue = [238, 3]", fillcolor="#e5833b"] ;
168 -> 169 ;
170 [label="char_freq_%3B <= 0.253\nentropy = 0.07\nsamples = 240\nvalue = [238, 2]", fillcolor="#e5823b"] ;
169 -> 170 ;
171 [label="word_freq_data <= 0.965\nentropy = 0.039\nsamples = 237\nvalue = [236, 1]", fillcolor="#e5823a"] ;
170 -> 171 ;
172 [label="entropy = 0.0\nsamples = 227\nvalue = [227, 0]", fillcolor="#e58139"] ;
171 -> 172 ;
173 [label="word_freq_data <= 1.09\nentropy = 0.469\nsamples = 10\nvalue = [9, 1]", fillcolor="#e88f4f"] ;
171 -> 173 ;
174 [label="entropy = 0.0\nsamples = 1\nvalue = [0, 1]", fillcolor="#399de5"] ;
173 -> 174 ;
175 [label="entropy = 0.0\nsamples = 9\nvalue = [9, 0]", fillcolor="#e58139"] ;
173 -> 175 ;
176 [label="word_freq_data <= 0.025\nentropy = 0.918\nsamples = 3\nvalue = [2, 1]", fillcolor="#f2c09c"] ;
170 -> 176 ;
177 [label="entropy = 0.0\nsamples = 2\nvalue = [2, 0]", fillcolor="#e58139"] ;
176 -> 177 ;
178 [label="entropy = 0.0\nsamples = 1\nvalue = [0, 1]", fillcolor="#399de5"] ;
176 -> 178 ;
179 [label="entropy = 0.0\nsamples = 1\nvalue = [0, 1]", fillcolor="#399de5"] ;
169 -> 179 ;
180 [label="entropy = 0.0\nsamples = 247\nvalue = [247, 0]", fillcolor="#e58139"] ;
168 -> 180 ;
181 [label="entropy = 0.0\nsamples = 1\nvalue = [0, 1]", fillcolor="#399de5"] ;
167 -> 181 ;
182 [label="entropy = 0.0\nsamples = 2\nvalue = [0, 2]", fillcolor="#399de5"] ;
166 -> 182 ;
183 [label="entropy = 0.0\nsamples = 537\nvalue = [537, 0]", fillcolor="#e58139"] ;
3 -> 183 ;
184 [label="word_freq_hp <= 0.24\nentropy = 0.979\nsamples = 118\nvalue = [49, 69]", fillcolor="#c6e3f7"] ;
2 -> 184 ;
185 [label="capital_run_length_longest <= 9.5\nentropy = 0.857\nsamples = 96\nvalue = [27, 69]", fillcolor="#86c3ef"] ;
184 -> 185 ;
186 [label="word_freq_email <= 0.19\nentropy = 0.672\nsamples = 17\nvalue = [14, 3]", fillcolor="#eb9c63"] ;
185 -> 186 ;
187 [label="entropy = 0.0\nsamples = 14\nvalue = [14, 0]", fillcolor="#e58139"] ;
186 -> 187 ;
188 [label="entropy = 0.0\nsamples = 3\nvalue = [0, 3]", fillcolor="#399de5"] ;
186 -> 188 ;
189 [label="word_freq_edu <= 0.265\nentropy = 0.645\nsamples = 79\nvalue = [13, 66]", fillcolor="#60b0ea"] ;
185 -> 189 ;
190 [label="capital_run_length_average <= 3.928\nentropy = 0.529\nsamples = 75\nvalue = [9, 66]", fillcolor="#54aae9"] ;
189 -> 190 ;
191 [label="word_freq_000 <= 0.075\nentropy = 0.722\nsamples = 45\nvalue = [9, 36]", fillcolor="#6ab6ec"] ;
190 -> 191 ;
192 [label="word_freq_our <= 0.23\nentropy = 0.943\nsamples = 25\nvalue = [9, 16]", fillcolor="#a8d4f4"] ;
191 -> 192 ;
193 [label="capital_run_length_average <= 2.365\nentropy = 0.998\nsamples = 17\nvalue = [9, 8]", fillcolor="#fcf1e9"] ;
192 -> 193 ;
194 [label="entropy = 0.0\nsamples = 5\nvalue = [5, 0]", fillcolor="#e58139"] ;
193 -> 194 ;
195 [label="capital_run_length_total <= 140.0\nentropy = 0.918\nsamples = 12\nvalue = [4, 8]", fillcolor="#9ccef2"] ;
193 -> 195 ;
196 [label="entropy = 0.0\nsamples = 8\nvalue = [0, 8]", fillcolor="#399de5"] ;
195 -> 196 ;
197 [label="entropy = 0.0\nsamples = 4\nvalue = [4, 0]", fillcolor="#e58139"] ;
195 -> 197 ;
198 [label="entropy = 0.0\nsamples = 8\nvalue = [0, 8]", fillcolor="#399de5"] ;
192 -> 198 ;
199 [label="entropy = 0.0\nsamples = 20\nvalue = [0, 20]", fillcolor="#399de5"] ;
191 -> 199 ;
200 [label="entropy = 0.0\nsamples = 30\nvalue = [0, 30]", fillcolor="#399de5"] ;
190 -> 200 ;
201 [label="entropy = 0.0\nsamples = 4\nvalue = [4, 0]", fillcolor="#e58139"] ;
189 -> 201 ;
202 [label="entropy = 0.0\nsamples = 22\nvalue = [22, 0]", fillcolor="#e58139"] ;
184 -> 202 ;
203 [label="word_freq_george <= 0.08\nentropy = 0.563\nsamples = 159\nvalue = [21, 138]", fillcolor="#57ace9"] ;
1 -> 203 ;
204 [label="word_freq_hp <= 0.15\nentropy = 0.38\nsamples = 149\nvalue = [11, 138]", fillcolor="#49a5e7"] ;
203 -> 204 ;
205 [label="word_freq_data <= 0.21\nentropy = 0.257\nsamples = 139\nvalue = [6, 133]", fillcolor="#42a1e6"] ;
204 -> 205 ;
206 [label="char_freq_%28 <= 0.566\nentropy = 0.159\nsamples = 129\nvalue = [3, 126]", fillcolor="#3e9fe6"] ;
205 -> 206 ;
207 [label="capital_run_length_longest <= 9.5\nentropy = 0.116\nsamples = 128\nvalue = [2, 126]", fillcolor="#3c9fe5"] ;
206 -> 207 ;
208 [label="word_freq_remove <= 0.585\nentropy = 0.684\nsamples = 11\nvalue = [2, 9]", fillcolor="#65b3eb"] ;
207 -> 208 ;
209 [label="entropy = 0.0\nsamples = 2\nvalue = [2, 0]", fillcolor="#e58139"] ;
208 -> 209 ;
210 [label="entropy = 0.0\nsamples = 9\nvalue = [0, 9]", fillcolor="#399de5"] ;
208 -> 210 ;
211 [label="entropy = 0.0\nsamples = 117\nvalue = [0, 117]", fillcolor="#399de5"] ;
207 -> 211 ;
212 [label="entropy = 0.0\nsamples = 1\nvalue = [1, 0]", fillcolor="#e58139"] ;
206 -> 212 ;
213 [label="word_freq_all <= 0.09\nentropy = 0.881\nsamples = 10\nvalue = [3, 7]", fillcolor="#8ec7f0"] ;
205 -> 213 ;
214 [label="word_freq_mail <= 0.45\nentropy = 0.811\nsamples = 4\nvalue = [3, 1]", fillcolor="#eeab7b"] ;
213 -> 214 ;
215 [label="entropy = 0.0\nsamples = 3\nvalue = [3, 0]", fillcolor="#e58139"] ;
214 -> 215 ;
216 [label="entropy = 0.0\nsamples = 1\nvalue = [0, 1]", fillcolor="#399de5"] ;
214 -> 216 ;
217 [label="entropy = 0.0\nsamples = 6\nvalue = [0, 6]", fillcolor="#399de5"] ;
213 -> 217 ;
218 [label="word_freq_address <= 0.11\nentropy = 1.0\nsamples = 10\nvalue = [5, 5]", fillcolor="#ffffff"] ;
204 -> 218 ;
219 [label="word_freq_free <= 0.31\nentropy = 0.65\nsamples = 6\nvalue = [5, 1]", fillcolor="#ea9a61"] ;
218 -> 219 ;
220 [label="entropy = 0.0\nsamples = 5\nvalue = [5, 0]", fillcolor="#e58139"] ;
219 -> 220 ;
221 [label="entropy = 0.0\nsamples = 1\nvalue = [0, 1]", fillcolor="#399de5"] ;
219 -> 221 ;
222 [label="entropy = 0.0\nsamples = 4\nvalue = [0, 4]", fillcolor="#399de5"] ;
218 -> 222 ;
223 [label="entropy = 0.0\nsamples = 10\nvalue = [10, 0]", fillcolor="#e58139"] ;
203 -> 223 ;
224 [label="char_freq_%24 <= 0.007\nentropy = 0.852\nsamples = 1657\nvalue = [460, 1197]", fillcolor="#85c3ef"] ;
0 -> 224 [labeldistance=2.5, labelangle=-45, headlabel="False"] ;
225 [label="word_freq_remove <= 0.07\nentropy = 1.0\nsamples = 866\nvalue = [429, 437]", fillcolor="#fbfdff"] ;
224 -> 225 ;
226 [label="capital_run_length_average <= 2.755\nentropy = 0.964\nsamples = 690\nvalue = [422, 268]", fillcolor="#f6d1b7"] ;
225 -> 226 ;
227 [label="word_freq_free <= 0.195\nentropy = 0.767\nsamples = 465\nvalue = [361, 104]", fillcolor="#eca572"] ;
226 -> 227 ;
228 [label="char_freq_%21 <= 0.817\nentropy = 0.606\nsamples = 391\nvalue = [333, 58]", fillcolor="#ea975b"] ;
227 -> 228 ;
229 [label="word_freq_your <= 0.615\nentropy = 0.456\nsamples = 334\nvalue = [302, 32]", fillcolor="#e88e4e"] ;
228 -> 229 ;
230 [label="word_freq_mail <= 5.1\nentropy = 0.153\nsamples = 227\nvalue = [222, 5]", fillcolor="#e6843d"] ;
229 -> 230 ;
231 [label="word_freq_000 <= 1.285\nentropy = 0.128\nsamples = 226\nvalue = [222, 4]", fillcolor="#e5833d"] ;
230 -> 231 ;
232 [label="word_freq_money <= 0.15\nentropy = 0.102\nsamples = 225\nvalue = [222, 3]", fillcolor="#e5833c"] ;
231 -> 232 ;
233 [label="word_freq_you <= 2.515\nentropy = 0.074\nsamples = 221\nvalue = [219, 2]", fillcolor="#e5823b"] ;
232 -> 233 ;
234 [label="entropy = 0.0\nsamples = 155\nvalue = [155, 0]", fillcolor="#e58139"] ;
233 -> 234 ;
235 [label="word_freq_you <= 2.545\nentropy = 0.196\nsamples = 66\nvalue = [64, 2]", fillcolor="#e6853f"] ;
233 -> 235 ;
236 [label="capital_run_length_average <= 1.533\nentropy = 1.0\nsamples = 2\nvalue = [1, 1]", fillcolor="#ffffff"] ;
235 -> 236 ;
237 [label="entropy = 0.0\nsamples = 1\nvalue = [0, 1]", fillcolor="#399de5"] ;
236 -> 237 ;
238 [label="entropy = 0.0\nsamples = 1\nvalue = [1, 0]", fillcolor="#e58139"] ;
236 -> 238 ;
239 [label="capital_run_length_average <= 2.293\nentropy = 0.116\nsamples = 64\nvalue = [63, 1]", fillcolor="#e5833c"] ;
235 -> 239 ;
240 [label="entropy = 0.0\nsamples = 56\nvalue = [56, 0]", fillcolor="#e58139"] ;
239 -> 240 ;
241 [label="char_freq_%21 <= 0.525\nentropy = 0.544\nsamples = 8\nvalue = [7, 1]", fillcolor="#e99355"] ;
239 -> 241 ;
242 [label="entropy = 0.0\nsamples = 7\nvalue = [7, 0]", fillcolor="#e58139"] ;
241 -> 242 ;
243 [label="entropy = 0.0\nsamples = 1\nvalue = [0, 1]", fillcolor="#399de5"] ;
241 -> 243 ;
244 [label="capital_run_length_total <= 142.5\nentropy = 0.811\nsamples = 4\nvalue = [3, 1]", fillcolor="#eeab7b"] ;
232 -> 244 ;
245 [label="entropy = 0.0\nsamples = 3\nvalue = [3, 0]", fillcolor="#e58139"] ;
244 -> 245 ;
246 [label="entropy = 0.0\nsamples = 1\nvalue = [0, 1]", fillcolor="#399de5"] ;
244 -> 246 ;
247 [label="entropy = 0.0\nsamples = 1\nvalue = [0, 1]", fillcolor="#399de5"] ;
231 -> 247 ;
248 [label="entropy = 0.0\nsamples = 1\nvalue = [0, 1]", fillcolor="#399de5"] ;
230 -> 248 ;
249 [label="word_freq_business <= 0.07\nentropy = 0.815\nsamples = 107\nvalue = [80, 27]", fillcolor="#eeac7c"] ;
229 -> 249 ;
250 [label="char_freq_%28 <= 0.141\nentropy = 0.654\nsamples = 95\nvalue = [79, 16]", fillcolor="#ea9b61"] ;
249 -> 250 ;
251 [label="word_freq_our <= 0.32\nentropy = 0.818\nsamples = 63\nvalue = [47, 16]", fillcolor="#eeac7c"] ;
250 -> 251 ;
252 [label="word_freq_you <= 1.025\nentropy = 0.559\nsamples = 46\nvalue = [40, 6]", fillcolor="#e99457"] ;
251 -> 252 ;
253 [label="capital_run_length_average <= 2.083\nentropy = 1.0\nsamples = 8\nvalue = [4, 4]", fillcolor="#ffffff"] ;
252 -> 253 ;
254 [label="capital_run_length_average <= 1.424\nentropy = 0.722\nsamples = 5\nvalue = [4, 1]", fillcolor="#eca06a"] ;
253 -> 254 ;
255 [label="entropy = 0.0\nsamples = 1\nvalue = [0, 1]", fillcolor="#399de5"] ;
254 -> 255 ;
256 [label="entropy = 0.0\nsamples = 4\nvalue = [4, 0]", fillcolor="#e58139"] ;
254 -> 256 ;
257 [label="entropy = 0.0\nsamples = 3\nvalue = [0, 3]", fillcolor="#399de5"] ;
253 -> 257 ;
258 [label="word_freq_people <= 1.025\nentropy = 0.297\nsamples = 38\nvalue = [36, 2]", fillcolor="#e68844"] ;
252 -> 258 ;
259 [label="word_freq_your <= 2.39\nentropy = 0.179\nsamples = 37\nvalue = [36, 1]", fillcolor="#e6843e"] ;
258 -> 259 ;
260 [label="entropy = 0.0\nsamples = 30\nvalue = [30, 0]", fillcolor="#e58139"] ;
259 -> 260 ;
261 [label="word_freq_your <= 2.59\nentropy = 0.592\nsamples = 7\nvalue = [6, 1]", fillcolor="#e9965a"] ;
259 -> 261 ;
262 [label="entropy = 0.0\nsamples = 1\nvalue = [0, 1]", fillcolor="#399de5"] ;
261 -> 262 ;
263 [label="entropy = 0.0\nsamples = 6\nvalue = [6, 0]", fillcolor="#e58139"] ;
261 -> 263 ;
264 [label="entropy = 0.0\nsamples = 1\nvalue = [0, 1]", fillcolor="#399de5"] ;
258 -> 264 ;
265 [label="word_freq_you <= 4.165\nentropy = 0.977\nsamples = 17\nvalue = [7, 10]", fillcolor="#c4e2f7"] ;
251 -> 265 ;
266 [label="word_freq_1999 <= 0.32\nentropy = 0.863\nsamples = 14\nvalue = [4, 10]", fillcolor="#88c4ef"] ;
265 -> 266 ;
267 [label="word_freq_will <= 0.485\nentropy = 0.65\nsamples = 12\nvalue = [2, 10]", fillcolor="#61b1ea"] ;
266 -> 267 ;
268 [label="entropy = 0.0\nsamples = 8\nvalue = [0, 8]", fillcolor="#399de5"] ;
267 -> 268 ;
269 [label="capital_run_length_average <= 1.708\nentropy = 1.0\nsamples = 4\nvalue = [2, 2]", fillcolor="#ffffff"] ;
267 -> 269 ;
270 [label="entropy = 0.0\nsamples = 2\nvalue = [2, 0]", fillcolor="#e58139"] ;
269 -> 270 ;
271 [label="entropy = 0.0\nsamples = 2\nvalue = [0, 2]", fillcolor="#399de5"] ;
269 -> 271 ;
272 [label="entropy = 0.0\nsamples = 2\nvalue = [2, 0]", fillcolor="#e58139"] ;
266 -> 272 ;
273 [label="entropy = 0.0\nsamples = 3\nvalue = [3, 0]", fillcolor="#e58139"] ;
265 -> 273 ;
274 [label="entropy = 0.0\nsamples = 32\nvalue = [32, 0]", fillcolor="#e58139"] ;
250 -> 274 ;
275 [label="word_freq_hp <= 0.915\nentropy = 0.414\nsamples = 12\nvalue = [1, 11]", fillcolor="#4ba6e7"] ;
249 -> 275 ;
276 [label="entropy = 0.0\nsamples = 11\nvalue = [0, 11]", fillcolor="#399de5"] ;
275 -> 276 ;
277 [label="entropy = 0.0\nsamples = 1\nvalue = [1, 0]", fillcolor="#e58139"] ;
275 -> 277 ;
278 [label="capital_run_length_total <= 14.5\nentropy = 0.994\nsamples = 57\nvalue = [31, 26]", fillcolor="#fbebdf"] ;
228 -> 278 ;
279 [label="capital_run_length_total <= 2.5\nentropy = 0.65\nsamples = 24\nvalue = [20, 4]", fillcolor="#ea9a61"] ;
278 -> 279 ;
280 [label="entropy = 0.0\nsamples = 2\nvalue = [0, 2]", fillcolor="#399de5"] ;
279 -> 280 ;
281 [label="char_freq_%21 <= 0.847\nentropy = 0.439\nsamples = 22\nvalue = [20, 2]", fillcolor="#e88e4d"] ;
279 -> 281 ;
282 [label="entropy = 0.0\nsamples = 1\nvalue = [0, 1]", fillcolor="#399de5"] ;
281 -> 282 ;
283 [label="char_freq_%21 <= 1.746\nentropy = 0.276\nsamples = 21\nvalue = [20, 1]", fillcolor="#e68743"] ;
281 -> 283 ;
284 [label="entropy = 0.0\nsamples = 16\nvalue = [16, 0]", fillcolor="#e58139"] ;
283 -> 284 ;
285 [label="char_freq_%21 <= 1.82\nentropy = 0.722\nsamples = 5\nvalue = [4, 1]", fillcolor="#eca06a"] ;
283 -> 285 ;
286 [label="entropy = 0.0\nsamples = 1\nvalue = [0, 1]", fillcolor="#399de5"] ;
285 -> 286 ;
287 [label="entropy = 0.0\nsamples = 4\nvalue = [4, 0]", fillcolor="#e58139"] ;
285 -> 287 ;
288 [label="word_freq_meeting <= 0.875\nentropy = 0.918\nsamples = 33\nvalue = [11, 22]", fillcolor="#9ccef2"] ;
278 -> 288 ;
289 [label="word_freq_your <= 0.985\nentropy = 0.837\nsamples = 30\nvalue = [8, 22]", fillcolor="#81c1ee"] ;
288 -> 289 ;
290 [label="capital_run_length_average <= 1.326\nentropy = 0.946\nsamples = 22\nvalue = [8, 14]", fillcolor="#aad5f4"] ;
289 -> 290 ;
291 [label="entropy = 0.0\nsamples = 3\nvalue = [3, 0]", fillcolor="#e58139"] ;
290 -> 291 ;
292 [label="word_freq_hp <= 2.17\nentropy = 0.831\nsamples = 19\nvalue = [5, 14]", fillcolor="#80c0ee"] ;
290 -> 292 ;
293 [label="word_freq_your <= 0.865\nentropy = 0.672\nsamples = 17\nvalue = [3, 14]", fillcolor="#63b2eb"] ;
292 -> 293 ;
294 [label="word_freq_will <= 2.445\nentropy = 0.544\nsamples = 16\nvalue = [2, 14]", fillcolor="#55abe9"] ;
293 -> 294 ;
295 [label="word_freq_george <= 1.25\nentropy = 0.353\nsamples = 15\nvalue = [1, 14]", fillcolor="#47a4e7"] ;
294 -> 295 ;
296 [label="entropy = 0.0\nsamples = 14\nvalue = [0, 14]", fillcolor="#399de5"] ;
295 -> 296 ;
297 [label="entropy = 0.0\nsamples = 1\nvalue = [1, 0]", fillcolor="#e58139"] ;
295 -> 297 ;
298 [label="entropy = 0.0\nsamples = 1\nvalue = [1, 0]", fillcolor="#e58139"] ;
294 -> 298 ;
299 [label="entropy = 0.0\nsamples = 1\nvalue = [1, 0]", fillcolor="#e58139"] ;
293 -> 299 ;
300 [label="entropy = 0.0\nsamples = 2\nvalue = [2, 0]", fillcolor="#e58139"] ;
292 -> 300 ;
301 [label="entropy = 0.0\nsamples = 8\nvalue = [0, 8]", fillcolor="#399de5"] ;
289 -> 301 ;
302 [label="entropy = 0.0\nsamples = 3\nvalue = [3, 0]", fillcolor="#e58139"] ;
288 -> 302 ;
303 [label="char_freq_%21 <= 0.46\nentropy = 0.957\nsamples = 74\nvalue = [28, 46]", fillcolor="#b2d9f5"] ;
227 -> 303 ;
304 [label="word_freq_1999 <= 0.12\nentropy = 0.926\nsamples = 41\nvalue = [27, 14]", fillcolor="#f2c2a0"] ;
303 -> 304 ;
305 [label="char_freq_%21 <= 0.362\nentropy = 0.993\nsamples = 31\nvalue = [17, 14]", fillcolor="#fae9dc"] ;
304 -> 305 ;
306 [label="char_freq_%21 <= 0.117\nentropy = 0.98\nsamples = 24\nvalue = [10, 14]", fillcolor="#c6e3f8"] ;
305 -> 306 ;
307 [label="entropy = 0.0\nsamples = 5\nvalue = [5, 0]", fillcolor="#e58139"] ;
306 -> 307 ;
308 [label="word_freq_address <= 0.515\nentropy = 0.831\nsamples = 19\nvalue = [5, 14]", fillcolor="#80c0ee"] ;
306 -> 308 ;
309 [label="word_freq_all <= 1.12\nentropy = 0.672\nsamples = 17\nvalue = [3, 14]", fillcolor="#63b2eb"] ;
308 -> 309 ;
310 [label="entropy = 0.0\nsamples = 12\nvalue = [0, 12]", fillcolor="#399de5"] ;
309 -> 310 ;
311 [label="word_freq_free <= 1.315\nentropy = 0.971\nsamples = 5\nvalue = [3, 2]", fillcolor="#f6d5bd"] ;
309 -> 311 ;
312 [label="entropy = 0.0\nsamples = 3\nvalue = [3, 0]", fillcolor="#e58139"] ;
311 -> 312 ;
313 [label="entropy = 0.0\nsamples = 2\nvalue = [0, 2]", fillcolor="#399de5"] ;
311 -> 313 ;
314 [label="entropy = 0.0\nsamples = 2\nvalue = [2, 0]", fillcolor="#e58139"] ;
308 -> 314 ;
315 [label="entropy = 0.0\nsamples = 7\nvalue = [7, 0]", fillcolor="#e58139"] ;
305 -> 315 ;
316 [label="entropy = 0.0\nsamples = 10\nvalue = [10, 0]", fillcolor="#e58139"] ;
304 -> 316 ;
317 [label="capital_run_length_total <= 41.5\nentropy = 0.196\nsamples = 33\nvalue = [1, 32]", fillcolor="#3fa0e6"] ;
303 -> 317 ;
318 [label="capital_run_length_total <= 34.0\nentropy = 0.722\nsamples = 5\nvalue = [1, 4]", fillcolor="#6ab6ec"] ;
317 -> 318 ;
319 [label="entropy = 0.0\nsamples = 4\nvalue = [0, 4]", fillcolor="#399de5"] ;
318 -> 319 ;
320 [label="entropy = 0.0\nsamples = 1\nvalue = [1, 0]", fillcolor="#e58139"] ;
318 -> 320 ;
321 [label="entropy = 0.0\nsamples = 28\nvalue = [0, 28]", fillcolor="#399de5"] ;
317 -> 321 ;
322 [label="char_freq_%21 <= 0.498\nentropy = 0.843\nsamples = 225\nvalue = [61, 164]", fillcolor="#83c1ef"] ;
226 -> 322 ;
323 [label="word_freq_your <= 1.08\nentropy = 0.997\nsamples = 107\nvalue = [50, 57]", fillcolor="#e7f3fc"] ;
322 -> 323 ;
324 [label="word_freq_free <= 0.91\nentropy = 0.944\nsamples = 72\nvalue = [46, 26]", fillcolor="#f4c8a9"] ;
323 -> 324 ;
325 [label="word_freq_000 <= 0.2\nentropy = 0.841\nsamples = 63\nvalue = [46, 17]", fillcolor="#efb082"] ;
324 -> 325 ;
326 [label="word_freq_address <= 0.41\nentropy = 0.761\nsamples = 59\nvalue = [46, 13]", fillcolor="#eca571"] ;
325 -> 326 ;
327 [label="char_freq_%28 <= 0.1\nentropy = 0.677\nsamples = 56\nvalue = [46, 10]", fillcolor="#eb9c64"] ;
326 -> 327 ;
328 [label="word_freq_your <= 0.47\nentropy = 0.946\nsamples = 22\nvalue = [14, 8]", fillcolor="#f4c9aa"] ;
327 -> 328 ;
329 [label="word_freq_will <= 0.11\nentropy = 0.764\nsamples = 18\nvalue = [14, 4]", fillcolor="#eca572"] ;
328 -> 329 ;
330 [label="word_freq_you <= 1.465\nentropy = 0.946\nsamples = 11\nvalue = [7, 4]", fillcolor="#f4c9aa"] ;
329 -> 330 ;
331 [label="entropy = 0.0\nsamples = 3\nvalue = [0, 3]", fillcolor="#399de5"] ;
330 -> 331 ;
332 [label="word_freq_3d <= 0.405\nentropy = 0.544\nsamples = 8\nvalue = [7, 1]", fillcolor="#e99355"] ;
330 -> 332 ;
333 [label="entropy = 0.0\nsamples = 7\nvalue = [7, 0]", fillcolor="#e58139"] ;
332 -> 333 ;
334 [label="entropy = 0.0\nsamples = 1\nvalue = [0, 1]", fillcolor="#399de5"] ;
332 -> 334 ;
335 [label="entropy = 0.0\nsamples = 7\nvalue = [7, 0]", fillcolor="#e58139"] ;
329 -> 335 ;
336 [label="entropy = 0.0\nsamples = 4\nvalue = [0, 4]", fillcolor="#399de5"] ;
328 -> 336 ;
337 [label="char_freq_%5B <= 0.144\nentropy = 0.323\nsamples = 34\nvalue = [32, 2]", fillcolor="#e78945"] ;
327 -> 337 ;
338 [label="entropy = 0.0\nsamples = 31\nvalue = [31, 0]", fillcolor="#e58139"] ;
337 -> 338 ;
339 [label="char_freq_%21 <= 0.223\nentropy = 0.918\nsamples = 3\nvalue = [1, 2]", fillcolor="#9ccef2"] ;
337 -> 339 ;
340 [label="entropy = 0.0\nsamples = 1\nvalue = [1, 0]", fillcolor="#e58139"] ;
339 -> 340 ;
341 [label="entropy = 0.0\nsamples = 2\nvalue = [0, 2]", fillcolor="#399de5"] ;
339 -> 341 ;
342 [label="entropy = 0.0\nsamples = 3\nvalue = [0, 3]", fillcolor="#399de5"] ;
326 -> 342 ;
343 [label="entropy = 0.0\nsamples = 4\nvalue = [0, 4]", fillcolor="#399de5"] ;
325 -> 343 ;
344 [label="entropy = 0.0\nsamples = 9\nvalue = [0, 9]", fillcolor="#399de5"] ;
324 -> 344 ;
345 [label="word_freq_meeting <= 1.035\nentropy = 0.513\nsamples = 35\nvalue = [4, 31]", fillcolor="#53aae8"] ;
323 -> 345 ;
346 [label="char_freq_%21 <= 0.443\nentropy = 0.33\nsamples = 33\nvalue = [2, 31]", fillcolor="#46a3e7"] ;
345 -> 346 ;
347 [label="entropy = 0.0\nsamples = 30\nvalue = [0, 30]", fillcolor="#399de5"] ;
346 -> 347 ;
348 [label="word_freq_technology <= 0.675\nentropy = 0.918\nsamples = 3\nvalue = [2, 1]", fillcolor="#f2c09c"] ;
346 -> 348 ;
349 [label="entropy = 0.0\nsamples = 2\nvalue = [2, 0]", fillcolor="#e58139"] ;
348 -> 349 ;
350 [label="entropy = 0.0\nsamples = 1\nvalue = [0, 1]", fillcolor="#399de5"] ;
348 -> 350 ;
351 [label="entropy = 0.0\nsamples = 2\nvalue = [2, 0]", fillcolor="#e58139"] ;
345 -> 351 ;
352 [label="word_freq_re <= 1.17\nentropy = 0.447\nsamples = 118\nvalue = [11, 107]", fillcolor="#4da7e8"] ;
322 -> 352 ;
353 [label="word_freq_you <= 1.4\nentropy = 0.303\nsamples = 111\nvalue = [6, 105]", fillcolor="#44a3e6"] ;
352 -> 353 ;
354 [label="capital_run_length_total <= 19.5\nentropy = 0.529\nsamples = 50\nvalue = [6, 44]", fillcolor="#54aae9"] ;
353 -> 354 ;
355 [label="entropy = 0.0\nsamples = 2\nvalue = [2, 0]", fillcolor="#e58139"] ;
354 -> 355 ;
356 [label="word_freq_email <= 0.275\nentropy = 0.414\nsamples = 48\nvalue = [4, 44]", fillcolor="#4ba6e7"] ;
354 -> 356 ;
357 [label="word_freq_make <= 0.68\nentropy = 0.267\nsamples = 44\nvalue = [2, 42]", fillcolor="#42a2e6"] ;
356 -> 357 ;
358 [label="word_freq_1999 <= 1.475\nentropy = 0.159\nsamples = 43\nvalue = [1, 42]", fillcolor="#3e9fe6"] ;
357 -> 358 ;
359 [label="entropy = 0.0\nsamples = 40\nvalue = [0, 40]", fillcolor="#399de5"] ;
358 -> 359 ;
360 [label="char_freq_%28 <= 0.439\nentropy = 0.918\nsamples = 3\nvalue = [1, 2]", fillcolor="#9ccef2"] ;
358 -> 360 ;
361 [label="entropy = 0.0\nsamples = 1\nvalue = [1, 0]", fillcolor="#e58139"] ;
360 -> 361 ;
362 [label="entropy = 0.0\nsamples = 2\nvalue = [0, 2]", fillcolor="#399de5"] ;
360 -> 362 ;
363 [label="entropy = 0.0\nsamples = 1\nvalue = [1, 0]", fillcolor="#e58139"] ;
357 -> 363 ;
364 [label="word_freq_address <= 0.215\nentropy = 1.0\nsamples = 4\nvalue = [2, 2]", fillcolor="#ffffff"] ;
356 -> 364 ;
365 [label="entropy = 0.0\nsamples = 2\nvalue = [2, 0]", fillcolor="#e58139"] ;
364 -> 365 ;
366 [label="entropy = 0.0\nsamples = 2\nvalue = [0, 2]", fillcolor="#399de5"] ;
364 -> 366 ;
367 [label="entropy = 0.0\nsamples = 61\nvalue = [0, 61]", fillcolor="#399de5"] ;
353 -> 367 ;
368 [label="capital_run_length_total <= 115.0\nentropy = 0.863\nsamples = 7\nvalue = [5, 2]", fillcolor="#efb388"] ;
352 -> 368 ;
369 [label="entropy = 0.0\nsamples = 5\nvalue = [5, 0]", fillcolor="#e58139"] ;
368 -> 369 ;
370 [label="entropy = 0.0\nsamples = 2\nvalue = [0, 2]", fillcolor="#399de5"] ;
368 -> 370 ;
371 [label="word_freq_edu <= 0.115\nentropy = 0.241\nsamples = 176\nvalue = [7, 169]", fillcolor="#41a1e6"] ;
225 -> 371 ;
372 [label="word_freq_labs <= 0.615\nentropy = 0.159\nsamples = 172\nvalue = [4, 168]", fillcolor="#3e9fe6"] ;
371 -> 372 ;
373 [label="word_freq_pm <= 0.83\nentropy = 0.092\nsamples = 170\nvalue = [2, 168]", fillcolor="#3b9ee5"] ;
372 -> 373 ;
374 [label="word_freq_remove <= 2.9\nentropy = 0.052\nsamples = 169\nvalue = [1, 168]", fillcolor="#3a9ee5"] ;
373 -> 374 ;
375 [label="entropy = 0.0\nsamples = 165\nvalue = [0, 165]", fillcolor="#399de5"] ;
374 -> 375 ;
376 [label="word_freq_remove <= 3.575\nentropy = 0.811\nsamples = 4\nvalue = [1, 3]", fillcolor="#7bbeee"] ;
374 -> 376 ;
377 [label="entropy = 0.0\nsamples = 1\nvalue = [1, 0]", fillcolor="#e58139"] ;
376 -> 377 ;
378 [label="entropy = 0.0\nsamples = 3\nvalue = [0, 3]", fillcolor="#399de5"] ;
376 -> 378 ;
379 [label="entropy = 0.0\nsamples = 1\nvalue = [1, 0]", fillcolor="#e58139"] ;
373 -> 379 ;
380 [label="entropy = 0.0\nsamples = 2\nvalue = [2, 0]", fillcolor="#e58139"] ;
372 -> 380 ;
381 [label="char_freq_%21 <= 0.141\nentropy = 0.811\nsamples = 4\nvalue = [3, 1]", fillcolor="#eeab7b"] ;
371 -> 381 ;
382 [label="entropy = 0.0\nsamples = 1\nvalue = [0, 1]", fillcolor="#399de5"] ;
381 -> 382 ;
383 [label="entropy = 0.0\nsamples = 3\nvalue = [3, 0]", fillcolor="#e58139"] ;
381 -> 383 ;
384 [label="capital_run_length_average <= 2.293\nentropy = 0.239\nsamples = 791\nvalue = [31, 760]", fillcolor="#41a1e6"] ;
224 -> 384 ;
385 [label="word_freq_your <= 0.4\nentropy = 0.678\nsamples = 106\nvalue = [19, 87]", fillcolor="#64b2eb"] ;
384 -> 385 ;
386 [label="word_freq_free <= 0.13\nentropy = 0.934\nsamples = 20\nvalue = [13, 7]", fillcolor="#f3c5a4"] ;
385 -> 386 ;
387 [label="word_freq_internet <= 3.03\nentropy = 0.391\nsamples = 13\nvalue = [12, 1]", fillcolor="#e78c49"] ;
386 -> 387 ;
388 [label="entropy = 0.0\nsamples = 12\nvalue = [12, 0]", fillcolor="#e58139"] ;
387 -> 388 ;
389 [label="entropy = 0.0\nsamples = 1\nvalue = [0, 1]", fillcolor="#399de5"] ;
387 -> 389 ;
390 [label="capital_run_length_longest <= 11.5\nentropy = 0.592\nsamples = 7\nvalue = [1, 6]", fillcolor="#5aade9"] ;
386 -> 390 ;
391 [label="entropy = 0.0\nsamples = 1\nvalue = [1, 0]", fillcolor="#e58139"] ;
390 -> 391 ;
392 [label="entropy = 0.0\nsamples = 6\nvalue = [0, 6]", fillcolor="#399de5"] ;
390 -> 392 ;
393 [label="word_freq_hp <= 0.145\nentropy = 0.365\nsamples = 86\nvalue = [6, 80]", fillcolor="#48a4e7"] ;
385 -> 393 ;
394 [label="word_freq_all <= 0.045\nentropy = 0.276\nsamples = 84\nvalue = [4, 80]", fillcolor="#43a2e6"] ;
393 -> 394 ;
395 [label="capital_run_length_total <= 80.5\nentropy = 0.477\nsamples = 39\nvalue = [4, 35]", fillcolor="#50a8e8"] ;
394 -> 395 ;
396 [label="entropy = 0.0\nsamples = 25\nvalue = [0, 25]", fillcolor="#399de5"] ;
395 -> 396 ;
397 [label="word_freq_re <= 0.115\nentropy = 0.863\nsamples = 14\nvalue = [4, 10]", fillcolor="#88c4ef"] ;
395 -> 397 ;
398 [label="char_freq_%28 <= 0.057\nentropy = 0.65\nsamples = 12\nvalue = [2, 10]", fillcolor="#61b1ea"] ;
397 -> 398 ;
399 [label="entropy = 0.0\nsamples = 9\nvalue = [0, 9]", fillcolor="#399de5"] ;
398 -> 399 ;
400 [label="capital_run_length_average <= 1.678\nentropy = 0.918\nsamples = 3\nvalue = [2, 1]", fillcolor="#f2c09c"] ;
398 -> 400 ;
401 [label="entropy = 0.0\nsamples = 1\nvalue = [0, 1]", fillcolor="#399de5"] ;
400 -> 401 ;
402 [label="entropy = 0.0\nsamples = 2\nvalue = [2, 0]", fillcolor="#e58139"] ;
400 -> 402 ;
403 [label="entropy = 0.0\nsamples = 2\nvalue = [2, 0]", fillcolor="#e58139"] ;
397 -> 403 ;
404 [label="entropy = 0.0\nsamples = 45\nvalue = [0, 45]", fillcolor="#399de5"] ;
394 -> 404 ;
405 [label="entropy = 0.0\nsamples = 2\nvalue = [2, 0]", fillcolor="#e58139"] ;
393 -> 405 ;
406 [label="word_freq_hp <= 1.195\nentropy = 0.127\nsamples = 685\nvalue = [12, 673]", fillcolor="#3d9fe5"] ;
384 -> 406 ;
407 [label="char_freq_%24 <= 0.104\nentropy = 0.092\nsamples = 680\nvalue = [8, 672]", fillcolor="#3b9ee5"] ;
406 -> 407 ;
408 [label="word_freq_1999 <= 0.2\nentropy = 0.267\nsamples = 132\nvalue = [6, 126]", fillcolor="#42a2e6"] ;
407 -> 408 ;
409 [label="word_freq_re <= 0.52\nentropy = 0.199\nsamples = 129\nvalue = [4, 125]", fillcolor="#3fa0e6"] ;
408 -> 409 ;
410 [label="word_freq_edu <= 0.235\nentropy = 0.118\nsamples = 126\nvalue = [2, 124]", fillcolor="#3c9fe5"] ;
409 -> 410 ;
411 [label="word_freq_your <= 3.835\nentropy = 0.067\nsamples = 125\nvalue = [1, 124]", fillcolor="#3b9ee5"] ;
410 -> 411 ;
412 [label="entropy = 0.0\nsamples = 117\nvalue = [0, 117]", fillcolor="#399de5"] ;
411 -> 412 ;
413 [label="char_freq_%24 <= 0.053\nentropy = 0.544\nsamples = 8\nvalue = [1, 7]", fillcolor="#55abe9"] ;
411 -> 413 ;
414 [label="entropy = 0.0\nsamples = 1\nvalue = [1, 0]", fillcolor="#e58139"] ;
413 -> 414 ;
415 [label="entropy = 0.0\nsamples = 7\nvalue = [0, 7]", fillcolor="#399de5"] ;
413 -> 415 ;
416 [label="entropy = 0.0\nsamples = 1\nvalue = [1, 0]", fillcolor="#e58139"] ;
410 -> 416 ;
417 [label="word_freq_free <= 0.43\nentropy = 0.918\nsamples = 3\nvalue = [2, 1]", fillcolor="#f2c09c"] ;
409 -> 417 ;
418 [label="entropy = 0.0\nsamples = 2\nvalue = [2, 0]", fillcolor="#e58139"] ;
417 -> 418 ;
419 [label="entropy = 0.0\nsamples = 1\nvalue = [0, 1]", fillcolor="#399de5"] ;
417 -> 419 ;
420 [label="word_freq_you <= 1.8\nentropy = 0.918\nsamples = 3\nvalue = [2, 1]", fillcolor="#f2c09c"] ;
408 -> 420 ;
421 [label="entropy = 0.0\nsamples = 1\nvalue = [0, 1]", fillcolor="#399de5"] ;
420 -> 421 ;
422 [label="entropy = 0.0\nsamples = 2\nvalue = [2, 0]", fillcolor="#e58139"] ;
420 -> 422 ;
423 [label="word_freq_edu <= 0.2\nentropy = 0.035\nsamples = 548\nvalue = [2, 546]", fillcolor="#3a9de5"] ;
407 -> 423 ;
424 [label="word_freq_1999 <= 0.57\nentropy = 0.019\nsamples = 543\nvalue = [1, 542]", fillcolor="#399de5"] ;
423 -> 424 ;
425 [label="entropy = 0.0\nsamples = 524\nvalue = [0, 524]", fillcolor="#399de5"] ;
424 -> 425 ;
426 [label="word_freq_1999 <= 0.835\nentropy = 0.297\nsamples = 19\nvalue = [1, 18]", fillcolor="#44a2e6"] ;
424 -> 426 ;
427 [label="entropy = 0.0\nsamples = 1\nvalue = [1, 0]", fillcolor="#e58139"] ;
426 -> 427 ;
428 [label="entropy = 0.0\nsamples = 18\nvalue = [0, 18]", fillcolor="#399de5"] ;
426 -> 428 ;
429 [label="word_freq_edu <= 0.285\nentropy = 0.722\nsamples = 5\nvalue = [1, 4]", fillcolor="#6ab6ec"] ;
423 -> 429 ;
430 [label="entropy = 0.0\nsamples = 1\nvalue = [1, 0]", fillcolor="#e58139"] ;
429 -> 430 ;
431 [label="entropy = 0.0\nsamples = 4\nvalue = [0, 4]", fillcolor="#399de5"] ;
429 -> 431 ;
432 [label="word_freq_remove <= 0.415\nentropy = 0.722\nsamples = 5\nvalue = [4, 1]", fillcolor="#eca06a"] ;
406 -> 432 ;
433 [label="entropy = 0.0\nsamples = 4\nvalue = [4, 0]", fillcolor="#e58139"] ;
432 -> 433 ;
434 [label="entropy = 0.0\nsamples = 1\nvalue = [0, 1]", fillcolor="#399de5"] ;
432 -> 434 ;
}