digraph Tree {
node [shape=box, style="filled, rounded", color="black", fontname=helvetica] ;
edge [fontname=helvetica] ;
0 [label="total sulfur dioxide <= 106.016\nentropy = 0.997\nsamples = 1279\nvalue = [595, 684]", fillcolor="#e5f2fc"] ;
1 [label="alcohol <= 12.446\nentropy = 0.988\nsamples = 1197\nvalue = [521, 676]", fillcolor="#d2e9f9"] ;
0 -> 1 [labeldistance=2.5, labelangle=45, headlabel="True"] ;
2 [label="alcohol <= 11.499\nentropy = 0.995\nsamples = 1128\nvalue = [515, 613]", fillcolor="#dfeffb"] ;
1 -> 2 ;
3 [label="alcohol <= 10.478\nentropy = 0.999\nsamples = 970\nvalue = [503, 467]", fillcolor="#fdf6f1"] ;
2 -> 3 ;
4 [label="volatile acidity <= 0.796\nentropy = 0.968\nsamples = 661\nvalue = [400, 261]", fillcolor="#f6d3ba"] ;
3 -> 4 ;
5 [label="sulphates <= 0.503\nentropy = 0.979\nsamples = 611\nvalue = [358, 253]", fillcolor="#f7dac5"] ;
4 -> 5 ;
6 [label="alcohol <= 9.769\nentropy = 0.669\nsamples = 80\nvalue = [66, 14]", fillcolor="#eb9c63"] ;
5 -> 6 ;
7 [label="density <= 0.996\nentropy = 0.491\nsamples = 56\nvalue = [50, 6]", fillcolor="#e89051"] ;
6 -> 7 ;
8 [label="entropy = 0.0\nsamples = 8\nvalue = [8, 0]", fillcolor="#e58139"] ;
7 -> 8 ;
9 [label="alcohol <= 9.647\nentropy = 0.544\nsamples = 48\nvalue = [42, 6]", fillcolor="#e99355"] ;
7 -> 9 ;
10 [label="density <= 1.0\nentropy = 0.433\nsamples = 45\nvalue = [41, 4]", fillcolor="#e88d4c"] ;
9 -> 10 ;
11 [label="alcohol <= 9.203\nentropy = 0.469\nsamples = 40\nvalue = [36, 4]", fillcolor="#e88f4f"] ;
10 -> 11 ;
12 [label="volatile acidity <= 0.507\nentropy = 0.918\nsamples = 6\nvalue = [4, 2]", fillcolor="#f2c09c"] ;
11 -> 12 ;
13 [label="entropy = 0.0\nsamples = 2\nvalue = [0, 2]", fillcolor="#399de5"] ;
12 -> 13 ;
14 [label="entropy = 0.0\nsamples = 4\nvalue = [4, 0]", fillcolor="#e58139"] ;
12 -> 14 ;
15 [label="citric acid <= 0.106\nentropy = 0.323\nsamples = 34\nvalue = [32, 2]", fillcolor="#e78945"] ;
11 -> 15 ;
16 [label="entropy = 0.0\nsamples = 10\nvalue = [10, 0]", fillcolor="#e58139"] ;
15 -> 16 ;
17 [label="alcohol <= 9.539\nentropy = 0.414\nsamples = 24\nvalue = [22, 2]", fillcolor="#e78c4b"] ;
15 -> 17 ;
18 [label="citric acid <= 0.193\nentropy = 0.276\nsamples = 21\nvalue = [20, 1]", fillcolor="#e68743"] ;
17 -> 18 ;
19 [label="density <= 0.997\nentropy = 0.65\nsamples = 6\nvalue = [5, 1]", fillcolor="#ea9a61"] ;
18 -> 19 ;
20 [label="entropy = 0.0\nsamples = 4\nvalue = [4, 0]", fillcolor="#e58139"] ;
19 -> 20 ;
21 [label="residual sugar <= 2.725\nentropy = 1.0\nsamples = 2\nvalue = [1, 1]", fillcolor="#ffffff"] ;
19 -> 21 ;
22 [label="entropy = 0.0\nsamples = 1\nvalue = [0, 1]", fillcolor="#399de5"] ;
21 -> 22 ;
23 [label="entropy = 0.0\nsamples = 1\nvalue = [1, 0]", fillcolor="#e58139"] ;
21 -> 23 ;
24 [label="entropy = 0.0\nsamples = 15\nvalue = [15, 0]", fillcolor="#e58139"] ;
18 -> 24 ;
25 [label="citric acid <= 0.251\nentropy = 0.918\nsamples = 3\nvalue = [2, 1]", fillcolor="#f2c09c"] ;
17 -> 25 ;
26 [label="entropy = 0.0\nsamples = 1\nvalue = [0, 1]", fillcolor="#399de5"] ;
25 -> 26 ;
27 [label="entropy = 0.0\nsamples = 2\nvalue = [2, 0]", fillcolor="#e58139"] ;
25 -> 27 ;
28 [label="entropy = 0.0\nsamples = 5\nvalue = [5, 0]", fillcolor="#e58139"] ;
10 -> 28 ;
29 [label="sulphates <= 0.478\nentropy = 0.918\nsamples = 3\nvalue = [1, 2]", fillcolor="#9ccef2"] ;
9 -> 29 ;
30 [label="entropy = 0.0\nsamples = 2\nvalue = [0, 2]", fillcolor="#399de5"] ;
29 -> 30 ;
31 [label="entropy = 0.0\nsamples = 1\nvalue = [1, 0]", fillcolor="#e58139"] ;
29 -> 31 ;
32 [label="residual sugar <= 3.519\nentropy = 0.918\nsamples = 24\nvalue = [16, 8]", fillcolor="#f2c09c"] ;
6 -> 32 ;
33 [label="alcohol <= 9.866\nentropy = 0.845\nsamples = 22\nvalue = [16, 6]", fillcolor="#efb083"] ;
32 -> 33 ;
34 [label="residual sugar <= 1.679\nentropy = 0.811\nsamples = 4\nvalue = [1, 3]", fillcolor="#7bbeee"] ;
33 -> 34 ;
35 [label="entropy = 0.0\nsamples = 1\nvalue = [1, 0]", fillcolor="#e58139"] ;
34 -> 35 ;
36 [label="entropy = 0.0\nsamples = 3\nvalue = [0, 3]", fillcolor="#399de5"] ;
34 -> 36 ;
37 [label="citric acid <= 0.439\nentropy = 0.65\nsamples = 18\nvalue = [15, 3]", fillcolor="#ea9a61"] ;
33 -> 37 ;
38 [label="alcohol <= 10.017\nentropy = 0.523\nsamples = 17\nvalue = [15, 2]", fillcolor="#e89253"] ;
37 -> 38 ;
39 [label="chlorides <= 0.072\nentropy = 0.764\nsamples = 9\nvalue = [7, 2]", fillcolor="#eca572"] ;
38 -> 39 ;
40 [label="citric acid <= 0.367\nentropy = 0.971\nsamples = 5\nvalue = [3, 2]", fillcolor="#f6d5bd"] ;
39 -> 40 ;
41 [label="volatile acidity <= 0.631\nentropy = 0.918\nsamples = 3\nvalue = [1, 2]", fillcolor="#9ccef2"] ;
40 -> 41 ;
42 [label="entropy = 0.0\nsamples = 1\nvalue = [1, 0]", fillcolor="#e58139"] ;
41 -> 42 ;
43 [label="entropy = 0.0\nsamples = 2\nvalue = [0, 2]", fillcolor="#399de5"] ;
41 -> 43 ;
44 [label="entropy = 0.0\nsamples = 2\nvalue = [2, 0]", fillcolor="#e58139"] ;
40 -> 44 ;
45 [label="entropy = 0.0\nsamples = 4\nvalue = [4, 0]", fillcolor="#e58139"] ;
39 -> 45 ;
46 [label="entropy = 0.0\nsamples = 8\nvalue = [8, 0]", fillcolor="#e58139"] ;
38 -> 46 ;
47 [label="entropy = 0.0\nsamples = 1\nvalue = [0, 1]", fillcolor="#399de5"] ;
37 -> 47 ;
48 [label="entropy = 0.0\nsamples = 2\nvalue = [0, 2]", fillcolor="#399de5"] ;
32 -> 48 ;
49 [label="total sulfur dioxide <= 63.451\nentropy = 0.993\nsamples = 531\nvalue = [292, 239]", fillcolor="#fae8db"] ;
5 -> 49 ;
50 [label="fixed acidity <= 10.565\nentropy = 1.0\nsamples = 401\nvalue = [202, 199]", fillcolor="#fffdfc"] ;
49 -> 50 ;
51 [label="volatile acidity <= 0.5\nentropy = 0.996\nsamples = 338\nvalue = [182, 156]", fillcolor="#fbede3"] ;
50 -> 51 ;
52 [label="alcohol <= 9.625\nentropy = 0.988\nsamples = 124\nvalue = [54, 70]", fillcolor="#d2e9f9"] ;
51 -> 52 ;
53 [label="density <= 1.001\nentropy = 0.997\nsamples = 62\nvalue = [33, 29]", fillcolor="#fcf0e7"] ;
52 -> 53 ;
54 [label="free sulfur dioxide <= 2.146\nentropy = 0.993\nsamples = 60\nvalue = [33, 27]", fillcolor="#fae8db"] ;
53 -> 54 ;
55 [label="entropy = 0.0\nsamples = 2\nvalue = [0, 2]", fillcolor="#399de5"] ;
54 -> 55 ;
56 [label="density <= 0.997\nentropy = 0.986\nsamples = 58\nvalue = [33, 25]", fillcolor="#f9e0cf"] ;
54 -> 56 ;
57 [label="residual sugar <= 2.382\nentropy = 0.831\nsamples = 19\nvalue = [14, 5]", fillcolor="#eeae80"] ;
56 -> 57 ;
58 [label="total sulfur dioxide <= 54.927\nentropy = 0.764\nsamples = 18\nvalue = [14, 4]", fillcolor="#eca572"] ;
57 -> 58 ;
59 [label="citric acid <= 0.638\nentropy = 0.672\nsamples = 17\nvalue = [14, 3]", fillcolor="#eb9c63"] ;
58 -> 59 ;
60 [label="density <= 0.996\nentropy = 0.544\nsamples = 16\nvalue = [14, 2]", fillcolor="#e99355"] ;
59 -> 60 ;
61 [label="total sulfur dioxide <= 40.597\nentropy = 0.764\nsamples = 9\nvalue = [7, 2]", fillcolor="#eca572"] ;
60 -> 61 ;
62 [label="sulphates <= 0.592\nentropy = 0.918\nsamples = 6\nvalue = [4, 2]", fillcolor="#f2c09c"] ;
61 -> 62 ;
63 [label="density <= 0.996\nentropy = 0.722\nsamples = 5\nvalue = [4, 1]", fillcolor="#eca06a"] ;
62 -> 63 ;
64 [label="entropy = 0.0\nsamples = 3\nvalue = [3, 0]", fillcolor="#e58139"] ;
63 -> 64 ;
65 [label="sulphates <= 0.55\nentropy = 1.0\nsamples = 2\nvalue = [1, 1]", fillcolor="#ffffff"] ;
63 -> 65 ;
66 [label="entropy = 0.0\nsamples = 1\nvalue = [1, 0]", fillcolor="#e58139"] ;
65 -> 66 ;
67 [label="entropy = 0.0\nsamples = 1\nvalue = [0, 1]", fillcolor="#399de5"] ;
65 -> 67 ;
68 [label="entropy = 0.0\nsamples = 1\nvalue = [0, 1]", fillcolor="#399de5"] ;
62 -> 68 ;
69 [label="entropy = 0.0\nsamples = 3\nvalue = [3, 0]", fillcolor="#e58139"] ;
61 -> 69 ;
70 [label="entropy = 0.0\nsamples = 7\nvalue = [7, 0]", fillcolor="#e58139"] ;
60 -> 70 ;
71 [label="entropy = 0.0\nsamples = 1\nvalue = [0, 1]", fillcolor="#399de5"] ;
59 -> 71 ;
72 [label="entropy = 0.0\nsamples = 1\nvalue = [0, 1]", fillcolor="#399de5"] ;
58 -> 72 ;
73 [label="entropy = 0.0\nsamples = 1\nvalue = [0, 1]", fillcolor="#399de5"] ;
57 -> 73 ;
74 [label="volatile acidity <= 0.267\nentropy = 1.0\nsamples = 39\nvalue = [19, 20]", fillcolor="#f5fafe"] ;
56 -> 74 ;
75 [label="citric acid <= 0.443\nentropy = 0.503\nsamples = 9\nvalue = [1, 8]", fillcolor="#52a9e8"] ;
74 -> 75 ;
76 [label="entropy = 0.0\nsamples = 7\nvalue = [0, 7]", fillcolor="#399de5"] ;
75 -> 76 ;
77 [label="total sulfur dioxide <= 57.386\nentropy = 1.0\nsamples = 2\nvalue = [1, 1]", fillcolor="#ffffff"] ;
75 -> 77 ;
78 [label="entropy = 0.0\nsamples = 1\nvalue = [1, 0]", fillcolor="#e58139"] ;
77 -> 78 ;
79 [label="entropy = 0.0\nsamples = 1\nvalue = [0, 1]", fillcolor="#399de5"] ;
77 -> 79 ;
80 [label="citric acid <= 0.506\nentropy = 0.971\nsamples = 30\nvalue = [18, 12]", fillcolor="#f6d5bd"] ;
74 -> 80 ;
81 [label="density <= 0.998\nentropy = 1.0\nsamples = 18\nvalue = [9, 9]", fillcolor="#ffffff"] ;
80 -> 81 ;
82 [label="citric acid <= 0.306\nentropy = 0.989\nsamples = 16\nvalue = [9, 7]", fillcolor="#f9e3d3"] ;
81 -> 82 ;
83 [label="citric acid <= 0.1\nentropy = 0.65\nsamples = 6\nvalue = [1, 5]", fillcolor="#61b1ea"] ;
82 -> 83 ;
84 [label="entropy = 0.0\nsamples = 1\nvalue = [1, 0]", fillcolor="#e58139"] ;
83 -> 84 ;
85 [label="entropy = 0.0\nsamples = 5\nvalue = [0, 5]", fillcolor="#399de5"] ;
83 -> 85 ;
86 [label="citric acid <= 0.4\nentropy = 0.722\nsamples = 10\nvalue = [8, 2]", fillcolor="#eca06a"] ;
82 -> 86 ;
87 [label="alcohol <= 9.429\nentropy = 0.971\nsamples = 5\nvalue = [3, 2]", fillcolor="#f6d5bd"] ;
86 -> 87 ;
88 [label="entropy = 0.0\nsamples = 3\nvalue = [3, 0]", fillcolor="#e58139"] ;
87 -> 88 ;
89 [label="entropy = 0.0\nsamples = 2\nvalue = [0, 2]", fillcolor="#399de5"] ;
87 -> 89 ;
90 [label="entropy = 0.0\nsamples = 5\nvalue = [5, 0]", fillcolor="#e58139"] ;
86 -> 90 ;
91 [label="entropy = 0.0\nsamples = 2\nvalue = [0, 2]", fillcolor="#399de5"] ;
81 -> 91 ;
92 [label="citric acid <= 0.577\nentropy = 0.811\nsamples = 12\nvalue = [9, 3]", fillcolor="#eeab7b"] ;
80 -> 92 ;
93 [label="sulphates <= 0.692\nentropy = 0.985\nsamples = 7\nvalue = [4, 3]", fillcolor="#f8e0ce"] ;
92 -> 93 ;
94 [label="entropy = 0.0\nsamples = 3\nvalue = [3, 0]", fillcolor="#e58139"] ;
93 -> 94 ;
95 [label="sulphates <= 1.112\nentropy = 0.811\nsamples = 4\nvalue = [1, 3]", fillcolor="#7bbeee"] ;
93 -> 95 ;
96 [label="entropy = 0.0\nsamples = 3\nvalue = [0, 3]", fillcolor="#399de5"] ;
95 -> 96 ;
97 [label="entropy = 0.0\nsamples = 1\nvalue = [1, 0]", fillcolor="#e58139"] ;
95 -> 97 ;
98 [label="entropy = 0.0\nsamples = 5\nvalue = [5, 0]", fillcolor="#e58139"] ;
92 -> 98 ;
99 [label="entropy = 0.0\nsamples = 2\nvalue = [0, 2]", fillcolor="#399de5"] ;
53 -> 99 ;
100 [label="pH <= 3.439\nentropy = 0.924\nsamples = 62\nvalue = [21, 41]", fillcolor="#9ecff2"] ;
52 -> 100 ;
101 [label="sulphates <= 0.969\nentropy = 0.848\nsamples = 51\nvalue = [14, 37]", fillcolor="#84c2ef"] ;
100 -> 101 ;
102 [label="sulphates <= 0.666\nentropy = 0.871\nsamples = 48\nvalue = [14, 34]", fillcolor="#8bc5f0"] ;
101 -> 102 ;
103 [label="pH <= 3.15\nentropy = 0.958\nsamples = 29\nvalue = [11, 18]", fillcolor="#b2d9f5"] ;
102 -> 103 ;
104 [label="entropy = 0.0\nsamples = 1\nvalue = [1, 0]", fillcolor="#e58139"] ;
103 -> 104 ;
105 [label="fixed acidity <= 9.665\nentropy = 0.94\nsamples = 28\nvalue = [10, 18]", fillcolor="#a7d3f3"] ;
103 -> 105 ;
106 [label="residual sugar <= 3.148\nentropy = 0.98\nsamples = 24\nvalue = [10, 14]", fillcolor="#c6e3f8"] ;
105 -> 106 ;
107 [label="total sulfur dioxide <= 37.186\nentropy = 0.994\nsamples = 22\nvalue = [10, 12]", fillcolor="#deeffb"] ;
106 -> 107 ;
108 [label="volatile acidity <= 0.488\nentropy = 0.845\nsamples = 11\nvalue = [3, 8]", fillcolor="#83c2ef"] ;
107 -> 108 ;
109 [label="sulphates <= 0.61\nentropy = 0.985\nsamples = 7\nvalue = [3, 4]", fillcolor="#cee6f8"] ;
108 -> 109 ;
110 [label="density <= 0.996\nentropy = 0.722\nsamples = 5\nvalue = [1, 4]", fillcolor="#6ab6ec"] ;
109 -> 110 ;
111 [label="entropy = 0.0\nsamples = 3\nvalue = [0, 3]", fillcolor="#399de5"] ;
110 -> 111 ;
112 [label="fixed acidity <= 7.364\nentropy = 1.0\nsamples = 2\nvalue = [1, 1]", fillcolor="#ffffff"] ;
110 -> 112 ;
113 [label="entropy = 0.0\nsamples = 1\nvalue = [1, 0]", fillcolor="#e58139"] ;
112 -> 113 ;
114 [label="entropy = 0.0\nsamples = 1\nvalue = [0, 1]", fillcolor="#399de5"] ;
112 -> 114 ;
115 [label="entropy = 0.0\nsamples = 2\nvalue = [2, 0]", fillcolor="#e58139"] ;
109 -> 115 ;
116 [label="entropy = 0.0\nsamples = 4\nvalue = [0, 4]", fillcolor="#399de5"] ;
108 -> 116 ;
117 [label="total sulfur dioxide <= 54.111\nentropy = 0.946\nsamples = 11\nvalue = [7, 4]", fillcolor="#f4c9aa"] ;
107 -> 117 ;
118 [label="sulphates <= 0.617\nentropy = 0.991\nsamples = 9\nvalue = [5, 4]", fillcolor="#fae6d7"] ;
117 -> 118 ;
119 [label="citric acid <= 0.181\nentropy = 0.65\nsamples = 6\nvalue = [5, 1]", fillcolor="#ea9a61"] ;
118 -> 119 ;
120 [label="fixed acidity <= 7.7\nentropy = 0.918\nsamples = 3\nvalue = [2, 1]", fillcolor="#f2c09c"] ;
119 -> 120 ;
121 [label="entropy = 0.0\nsamples = 2\nvalue = [2, 0]", fillcolor="#e58139"] ;
120 -> 121 ;
122 [label="entropy = 0.0\nsamples = 1\nvalue = [0, 1]", fillcolor="#399de5"] ;
120 -> 122 ;
123 [label="entropy = 0.0\nsamples = 3\nvalue = [3, 0]", fillcolor="#e58139"] ;
119 -> 123 ;
124 [label="entropy = 0.0\nsamples = 3\nvalue = [0, 3]", fillcolor="#399de5"] ;
118 -> 124 ;
125 [label="entropy = 0.0\nsamples = 2\nvalue = [2, 0]", fillcolor="#e58139"] ;
117 -> 125 ;
126 [label="entropy = 0.0\nsamples = 2\nvalue = [0, 2]", fillcolor="#399de5"] ;
106 -> 126 ;
127 [label="entropy = 0.0\nsamples = 4\nvalue = [0, 4]", fillcolor="#399de5"] ;
105 -> 127 ;
128 [label="fixed acidity <= 8.172\nentropy = 0.629\nsamples = 19\nvalue = [3, 16]", fillcolor="#5eafea"] ;
102 -> 128 ;
129 [label="entropy = 0.0\nsamples = 6\nvalue = [0, 6]", fillcolor="#399de5"] ;
128 -> 129 ;
130 [label="alcohol <= 10.111\nentropy = 0.779\nsamples = 13\nvalue = [3, 10]", fillcolor="#74baed"] ;
128 -> 130 ;
131 [label="residual sugar <= 2.208\nentropy = 0.918\nsamples = 9\nvalue = [3, 6]", fillcolor="#9ccef2"] ;
130 -> 131 ;
132 [label="citric acid <= 0.455\nentropy = 0.811\nsamples = 4\nvalue = [3, 1]", fillcolor="#eeab7b"] ;
131 -> 132 ;
133 [label="entropy = 0.0\nsamples = 3\nvalue = [3, 0]", fillcolor="#e58139"] ;
132 -> 133 ;
134 [label="entropy = 0.0\nsamples = 1\nvalue = [0, 1]", fillcolor="#399de5"] ;
132 -> 134 ;
135 [label="entropy = 0.0\nsamples = 5\nvalue = [0, 5]", fillcolor="#399de5"] ;
131 -> 135 ;
136 [label="entropy = 0.0\nsamples = 4\nvalue = [0, 4]", fillcolor="#399de5"] ;
130 -> 136 ;
137 [label="entropy = 0.0\nsamples = 3\nvalue = [0, 3]", fillcolor="#399de5"] ;
101 -> 137 ;
138 [label="free sulfur dioxide <= 15.883\nentropy = 0.946\nsamples = 11\nvalue = [7, 4]", fillcolor="#f4c9aa"] ;
100 -> 138 ;
139 [label="entropy = 0.0\nsamples = 4\nvalue = [4, 0]", fillcolor="#e58139"] ;
138 -> 139 ;
140 [label="volatile acidity <= 0.253\nentropy = 0.985\nsamples = 7\nvalue = [3, 4]", fillcolor="#cee6f8"] ;
138 -> 140 ;
141 [label="entropy = 0.0\nsamples = 2\nvalue = [0, 2]", fillcolor="#399de5"] ;
140 -> 141 ;
142 [label="fixed acidity <= 6.768\nentropy = 0.971\nsamples = 5\nvalue = [3, 2]", fillcolor="#f6d5bd"] ;
140 -> 142 ;
143 [label="entropy = 0.0\nsamples = 2\nvalue = [0, 2]", fillcolor="#399de5"] ;
142 -> 143 ;
144 [label="entropy = 0.0\nsamples = 3\nvalue = [3, 0]", fillcolor="#e58139"] ;
142 -> 144 ;
145 [label="alcohol <= 9.032\nentropy = 0.972\nsamples = 214\nvalue = [128, 86]", fillcolor="#f6d6be"] ;
51 -> 145 ;
146 [label="pH <= 3.449\nentropy = 0.684\nsamples = 11\nvalue = [2, 9]", fillcolor="#65b3eb"] ;
145 -> 146 ;
147 [label="sulphates <= 0.687\nentropy = 0.469\nsamples = 10\nvalue = [1, 9]", fillcolor="#4fa8e8"] ;
146 -> 147 ;
148 [label="entropy = 0.0\nsamples = 9\nvalue = [0, 9]", fillcolor="#399de5"] ;
147 -> 148 ;
149 [label="entropy = 0.0\nsamples = 1\nvalue = [1, 0]", fillcolor="#e58139"] ;
147 -> 149 ;
150 [label="entropy = 0.0\nsamples = 1\nvalue = [1, 0]", fillcolor="#e58139"] ;
146 -> 150 ;
151 [label="volatile acidity <= 0.566\nentropy = 0.958\nsamples = 203\nvalue = [126, 77]", fillcolor="#f5ceb2"] ;
145 -> 151 ;
152 [label="alcohol <= 10.254\nentropy = 0.956\nsamples = 45\nvalue = [17, 28]", fillcolor="#b1d8f5"] ;
151 -> 152 ;
153 [label="citric acid <= 0.076\nentropy = 0.974\nsamples = 42\nvalue = [17, 25]", fillcolor="#c0e0f7"] ;
152 -> 153 ;
154 [label="volatile acidity <= 0.53\nentropy = 0.469\nsamples = 10\nvalue = [1, 9]", fillcolor="#4fa8e8"] ;
153 -> 154 ;
155 [label="total sulfur dioxide <= 29.731\nentropy = 0.722\nsamples = 5\nvalue = [1, 4]", fillcolor="#6ab6ec"] ;
154 -> 155 ;
156 [label="entropy = 0.0\nsamples = 4\nvalue = [0, 4]", fillcolor="#399de5"] ;
155 -> 156 ;
157 [label="entropy = 0.0\nsamples = 1\nvalue = [1, 0]", fillcolor="#e58139"] ;
155 -> 157 ;
158 [label="entropy = 0.0\nsamples = 5\nvalue = [0, 5]", fillcolor="#399de5"] ;
154 -> 158 ;
159 [label="volatile acidity <= 0.512\nentropy = 1.0\nsamples = 32\nvalue = [16, 16]", fillcolor="#ffffff"] ;
153 -> 159 ;
160 [label="entropy = 0.0\nsamples = 3\nvalue = [0, 3]", fillcolor="#399de5"] ;
159 -> 160 ;
161 [label="citric acid <= 0.127\nentropy = 0.992\nsamples = 29\nvalue = [16, 13]", fillcolor="#fae7da"] ;
159 -> 161 ;
162 [label="entropy = 0.0\nsamples = 4\nvalue = [4, 0]", fillcolor="#e58139"] ;
161 -> 162 ;
163 [label="residual sugar <= 1.681\nentropy = 0.999\nsamples = 25\nvalue = [12, 13]", fillcolor="#f0f7fd"] ;
161 -> 163 ;
164 [label="entropy = 0.0\nsamples = 3\nvalue = [3, 0]", fillcolor="#e58139"] ;
163 -> 164 ;
165 [label="volatile acidity <= 0.532\nentropy = 0.976\nsamples = 22\nvalue = [9, 13]", fillcolor="#c2e1f7"] ;
163 -> 165 ;
166 [label="entropy = 0.0\nsamples = 7\nvalue = [0, 7]", fillcolor="#399de5"] ;
165 -> 166 ;
167 [label="citric acid <= 0.213\nentropy = 0.971\nsamples = 15\nvalue = [9, 6]", fillcolor="#f6d5bd"] ;
165 -> 167 ;
168 [label="citric acid <= 0.145\nentropy = 0.722\nsamples = 5\nvalue = [4, 1]", fillcolor="#eca06a"] ;
167 -> 168 ;
169 [label="entropy = 0.0\nsamples = 1\nvalue = [0, 1]", fillcolor="#399de5"] ;
168 -> 169 ;
170 [label="entropy = 0.0\nsamples = 4\nvalue = [4, 0]", fillcolor="#e58139"] ;
168 -> 170 ;
171 [label="citric acid <= 0.326\nentropy = 1.0\nsamples = 10\nvalue = [5, 5]", fillcolor="#ffffff"] ;
167 -> 171 ;
172 [label="pH <= 3.18\nentropy = 0.863\nsamples = 7\nvalue = [2, 5]", fillcolor="#88c4ef"] ;
171 -> 172 ;
173 [label="density <= 0.997\nentropy = 0.918\nsamples = 3\nvalue = [2, 1]", fillcolor="#f2c09c"] ;
172 -> 173 ;
174 [label="entropy = 0.0\nsamples = 2\nvalue = [2, 0]", fillcolor="#e58139"] ;
173 -> 174 ;
175 [label="entropy = 0.0\nsamples = 1\nvalue = [0, 1]", fillcolor="#399de5"] ;
173 -> 175 ;
176 [label="entropy = 0.0\nsamples = 4\nvalue = [0, 4]", fillcolor="#399de5"] ;
172 -> 176 ;
177 [label="entropy = 0.0\nsamples = 3\nvalue = [3, 0]", fillcolor="#e58139"] ;
171 -> 177 ;
178 [label="entropy = 0.0\nsamples = 3\nvalue = [0, 3]", fillcolor="#399de5"] ;
152 -> 178 ;
179 [label="total sulfur dioxide <= 41.892\nentropy = 0.893\nsamples = 158\nvalue = [109, 49]", fillcolor="#f1ba92"] ;
151 -> 179 ;
180 [label="alcohol <= 9.665\nentropy = 0.952\nsamples = 105\nvalue = [66, 39]", fillcolor="#f4cbae"] ;
179 -> 180 ;
181 [label="density <= 0.998\nentropy = 0.843\nsamples = 48\nvalue = [35, 13]", fillcolor="#efb083"] ;
180 -> 181 ;
182 [label="citric acid <= 0.146\nentropy = 0.75\nsamples = 42\nvalue = [33, 9]", fillcolor="#eca36f"] ;
181 -> 182 ;
183 [label="sulphates <= 0.669\nentropy = 0.857\nsamples = 32\nvalue = [23, 9]", fillcolor="#efb286"] ;
182 -> 183 ;
184 [label="volatile acidity <= 0.591\nentropy = 0.65\nsamples = 24\nvalue = [20, 4]", fillcolor="#ea9a61"] ;
183 -> 184 ;
185 [label="entropy = 0.0\nsamples = 1\nvalue = [0, 1]", fillcolor="#399de5"] ;
184 -> 185 ;
186 [label="pH <= 3.453\nentropy = 0.559\nsamples = 23\nvalue = [20, 3]", fillcolor="#e99457"] ;
184 -> 186 ;
187 [label="residual sugar <= 1.919\nentropy = 0.672\nsamples = 17\nvalue = [14, 3]", fillcolor="#eb9c63"] ;
186 -> 187 ;
188 [label="free sulfur dioxide <= 13.771\nentropy = 0.918\nsamples = 9\nvalue = [6, 3]", fillcolor="#f2c09c"] ;
187 -> 188 ;
189 [label="sulphates <= 0.588\nentropy = 0.592\nsamples = 7\nvalue = [6, 1]", fillcolor="#e9965a"] ;
188 -> 189 ;
190 [label="entropy = 0.0\nsamples = 4\nvalue = [4, 0]", fillcolor="#e58139"] ;
189 -> 190 ;
191 [label="free sulfur dioxide <= 3.925\nentropy = 0.918\nsamples = 3\nvalue = [2, 1]", fillcolor="#f2c09c"] ;
189 -> 191 ;
192 [label="entropy = 0.0\nsamples = 1\nvalue = [0, 1]", fillcolor="#399de5"] ;
191 -> 192 ;
193 [label="entropy = 0.0\nsamples = 2\nvalue = [2, 0]", fillcolor="#e58139"] ;
191 -> 193 ;
194 [label="entropy = 0.0\nsamples = 2\nvalue = [0, 2]", fillcolor="#399de5"] ;
188 -> 194 ;
195 [label="entropy = 0.0\nsamples = 8\nvalue = [8, 0]", fillcolor="#e58139"] ;
187 -> 195 ;
196 [label="entropy = 0.0\nsamples = 6\nvalue = [6, 0]", fillcolor="#e58139"] ;
186 -> 196 ;
197 [label="fixed acidity <= 6.759\nentropy = 0.954\nsamples = 8\nvalue = [3, 5]", fillcolor="#b0d8f5"] ;
183 -> 197 ;
198 [label="entropy = 0.0\nsamples = 3\nvalue = [3, 0]", fillcolor="#e58139"] ;
197 -> 198 ;
199 [label="entropy = 0.0\nsamples = 5\nvalue = [0, 5]", fillcolor="#399de5"] ;
197 -> 199 ;
200 [label="entropy = 0.0\nsamples = 10\nvalue = [10, 0]", fillcolor="#e58139"] ;
182 -> 200 ;
201 [label="alcohol <= 9.31\nentropy = 0.918\nsamples = 6\nvalue = [2, 4]", fillcolor="#9ccef2"] ;
181 -> 201 ;
202 [label="alcohol <= 9.253\nentropy = 0.918\nsamples = 3\nvalue = [2, 1]", fillcolor="#f2c09c"] ;
201 -> 202 ;
203 [label="entropy = 0.0\nsamples = 1\nvalue = [0, 1]", fillcolor="#399de5"] ;
202 -> 203 ;
204 [label="entropy = 0.0\nsamples = 2\nvalue = [2, 0]", fillcolor="#e58139"] ;
202 -> 204 ;
205 [label="entropy = 0.0\nsamples = 3\nvalue = [0, 3]", fillcolor="#399de5"] ;
201 -> 205 ;
206 [label="alcohol <= 9.84\nentropy = 0.994\nsamples = 57\nvalue = [31, 26]", fillcolor="#fbebdf"] ;
180 -> 206 ;
207 [label="total sulfur dioxide <= 19.908\nentropy = 0.811\nsamples = 20\nvalue = [15, 5]", fillcolor="#eeab7b"] ;
206 -> 207 ;
208 [label="free sulfur dioxide <= 4.585\nentropy = 0.811\nsamples = 4\nvalue = [1, 3]", fillcolor="#7bbeee"] ;
207 -> 208 ;
209 [label="entropy = 0.0\nsamples = 3\nvalue = [0, 3]", fillcolor="#399de5"] ;
208 -> 209 ;
210 [label="entropy = 0.0\nsamples = 1\nvalue = [1, 0]", fillcolor="#e58139"] ;
208 -> 210 ;
211 [label="sulphates <= 0.706\nentropy = 0.544\nsamples = 16\nvalue = [14, 2]", fillcolor="#e99355"] ;
207 -> 211 ;
212 [label="entropy = 0.0\nsamples = 11\nvalue = [11, 0]", fillcolor="#e58139"] ;
211 -> 212 ;
213 [label="residual sugar <= 2.036\nentropy = 0.971\nsamples = 5\nvalue = [3, 2]", fillcolor="#f6d5bd"] ;
211 -> 213 ;
214 [label="entropy = 0.0\nsamples = 3\nvalue = [3, 0]", fillcolor="#e58139"] ;
213 -> 214 ;
215 [label="entropy = 0.0\nsamples = 2\nvalue = [0, 2]", fillcolor="#399de5"] ;
213 -> 215 ;
216 [label="alcohol <= 10.32\nentropy = 0.987\nsamples = 37\nvalue = [16, 21]", fillcolor="#d0e8f9"] ;
206 -> 216 ;
217 [label="total sulfur dioxide <= 26.049\nentropy = 1.0\nsamples = 32\nvalue = [16, 16]", fillcolor="#ffffff"] ;
216 -> 217 ;
218 [label="free sulfur dioxide <= 6.819\nentropy = 0.75\nsamples = 14\nvalue = [11, 3]", fillcolor="#eca36f"] ;
217 -> 218 ;
219 [label="total sulfur dioxide <= 14.724\nentropy = 0.954\nsamples = 8\nvalue = [5, 3]", fillcolor="#f5cdb0"] ;
218 -> 219 ;
220 [label="entropy = 0.0\nsamples = 3\nvalue = [3, 0]", fillcolor="#e58139"] ;
219 -> 220 ;
221 [label="residual sugar <= 3.086\nentropy = 0.971\nsamples = 5\nvalue = [2, 3]", fillcolor="#bddef6"] ;
219 -> 221 ;
222 [label="fixed acidity <= 7.739\nentropy = 0.811\nsamples = 4\nvalue = [1, 3]", fillcolor="#7bbeee"] ;
221 -> 222 ;
223 [label="entropy = 0.0\nsamples = 3\nvalue = [0, 3]", fillcolor="#399de5"] ;
222 -> 223 ;
224 [label="entropy = 0.0\nsamples = 1\nvalue = [1, 0]", fillcolor="#e58139"] ;
222 -> 224 ;
225 [label="entropy = 0.0\nsamples = 1\nvalue = [1, 0]", fillcolor="#e58139"] ;
221 -> 225 ;
226 [label="entropy = 0.0\nsamples = 6\nvalue = [6, 0]", fillcolor="#e58139"] ;
218 -> 226 ;
227 [label="total sulfur dioxide <= 33.047\nentropy = 0.852\nsamples = 18\nvalue = [5, 13]", fillcolor="#85c3ef"] ;
217 -> 227 ;
228 [label="alcohol <= 10.261\nentropy = 0.98\nsamples = 12\nvalue = [5, 7]", fillcolor="#c6e3f8"] ;
227 -> 228 ;
229 [label="alcohol <= 10.178\nentropy = 0.946\nsamples = 11\nvalue = [4, 7]", fillcolor="#aad5f4"] ;
228 -> 229 ;
230 [label="alcohol <= 10.047\nentropy = 0.592\nsamples = 7\nvalue = [1, 6]", fillcolor="#5aade9"] ;
229 -> 230 ;
231 [label="sulphates <= 0.602\nentropy = 0.811\nsamples = 4\nvalue = [1, 3]", fillcolor="#7bbeee"] ;
230 -> 231 ;
232 [label="entropy = 0.0\nsamples = 3\nvalue = [0, 3]", fillcolor="#399de5"] ;
231 -> 232 ;
233 [label="entropy = 0.0\nsamples = 1\nvalue = [1, 0]", fillcolor="#e58139"] ;
231 -> 233 ;
234 [label="entropy = 0.0\nsamples = 3\nvalue = [0, 3]", fillcolor="#399de5"] ;
230 -> 234 ;
235 [label="volatile acidity <= 0.647\nentropy = 0.811\nsamples = 4\nvalue = [3, 1]", fillcolor="#eeab7b"] ;
229 -> 235 ;
236 [label="entropy = 0.0\nsamples = 1\nvalue = [0, 1]", fillcolor="#399de5"] ;
235 -> 236 ;
237 [label="entropy = 0.0\nsamples = 3\nvalue = [3, 0]", fillcolor="#e58139"] ;
235 -> 237 ;
238 [label="entropy = 0.0\nsamples = 1\nvalue = [1, 0]", fillcolor="#e58139"] ;
228 -> 238 ;
239 [label="entropy = 0.0\nsamples = 6\nvalue = [0, 6]", fillcolor="#399de5"] ;
227 -> 239 ;
240 [label="entropy = 0.0\nsamples = 5\nvalue = [0, 5]", fillcolor="#399de5"] ;
216 -> 240 ;
241 [label="residual sugar <= 3.64\nentropy = 0.699\nsamples = 53\nvalue = [43, 10]", fillcolor="#eb9e67"] ;
179 -> 241 ;
242 [label="alcohol <= 10.039\nentropy = 0.738\nsamples = 48\nvalue = [38, 10]", fillcolor="#eca26d"] ;
241 -> 242 ;
243 [label="alcohol <= 9.194\nentropy = 0.477\nsamples = 39\nvalue = [35, 4]", fillcolor="#e88f50"] ;
242 -> 243 ;
244 [label="entropy = 0.0\nsamples = 1\nvalue = [0, 1]", fillcolor="#399de5"] ;
243 -> 244 ;
245 [label="free sulfur dioxide <= 25.968\nentropy = 0.398\nsamples = 38\nvalue = [35, 3]", fillcolor="#e78c4a"] ;
243 -> 245 ;
246 [label="residual sugar <= 2.437\nentropy = 0.491\nsamples = 28\nvalue = [25, 3]", fillcolor="#e89051"] ;
245 -> 246 ;
247 [label="pH <= 3.396\nentropy = 0.267\nsamples = 22\nvalue = [21, 1]", fillcolor="#e68742"] ;
246 -> 247 ;
248 [label="entropy = 0.0\nsamples = 19\nvalue = [19, 0]", fillcolor="#e58139"] ;
247 -> 248 ;
249 [label="total sulfur dioxide <= 59.892\nentropy = 0.918\nsamples = 3\nvalue = [2, 1]", fillcolor="#f2c09c"] ;
247 -> 249 ;
250 [label="entropy = 0.0\nsamples = 2\nvalue = [2, 0]", fillcolor="#e58139"] ;
249 -> 250 ;
251 [label="entropy = 0.0\nsamples = 1\nvalue = [0, 1]", fillcolor="#399de5"] ;
249 -> 251 ;
252 [label="total sulfur dioxide <= 60.11\nentropy = 0.918\nsamples = 6\nvalue = [4, 2]", fillcolor="#f2c09c"] ;
246 -> 252 ;
253 [label="free sulfur dioxide <= 14.482\nentropy = 0.722\nsamples = 5\nvalue = [4, 1]", fillcolor="#eca06a"] ;
252 -> 253 ;
254 [label="residual sugar <= 3.102\nentropy = 1.0\nsamples = 2\nvalue = [1, 1]", fillcolor="#ffffff"] ;
253 -> 254 ;
255 [label="entropy = 0.0\nsamples = 1\nvalue = [0, 1]", fillcolor="#399de5"] ;
254 -> 255 ;
256 [label="entropy = 0.0\nsamples = 1\nvalue = [1, 0]", fillcolor="#e58139"] ;
254 -> 256 ;
257 [label="entropy = 0.0\nsamples = 3\nvalue = [3, 0]", fillcolor="#e58139"] ;
253 -> 257 ;
258 [label="entropy = 0.0\nsamples = 1\nvalue = [0, 1]", fillcolor="#399de5"] ;
252 -> 258 ;
259 [label="entropy = 0.0\nsamples = 10\nvalue = [10, 0]", fillcolor="#e58139"] ;
245 -> 259 ;
260 [label="residual sugar <= 2.07\nentropy = 0.918\nsamples = 9\nvalue = [3, 6]", fillcolor="#9ccef2"] ;
242 -> 260 ;
261 [label="total sulfur dioxide <= 47.108\nentropy = 0.918\nsamples = 3\nvalue = [2, 1]", fillcolor="#f2c09c"] ;
260 -> 261 ;
262 [label="entropy = 0.0\nsamples = 1\nvalue = [1, 0]", fillcolor="#e58139"] ;
261 -> 262 ;
263 [label="pH <= 3.301\nentropy = 1.0\nsamples = 2\nvalue = [1, 1]", fillcolor="#ffffff"] ;
261 -> 263 ;
264 [label="entropy = 0.0\nsamples = 1\nvalue = [0, 1]", fillcolor="#399de5"] ;
263 -> 264 ;
265 [label="entropy = 0.0\nsamples = 1\nvalue = [1, 0]", fillcolor="#e58139"] ;
263 -> 265 ;
266 [label="free sulfur dioxide <= 11.092\nentropy = 0.65\nsamples = 6\nvalue = [1, 5]", fillcolor="#61b1ea"] ;
260 -> 266 ;
267 [label="entropy = 0.0\nsamples = 3\nvalue = [0, 3]", fillcolor="#399de5"] ;
266 -> 267 ;
268 [label="sulphates <= 0.594\nentropy = 0.918\nsamples = 3\nvalue = [1, 2]", fillcolor="#9ccef2"] ;
266 -> 268 ;
269 [label="entropy = 0.0\nsamples = 1\nvalue = [1, 0]", fillcolor="#e58139"] ;
268 -> 269 ;
270 [label="entropy = 0.0\nsamples = 2\nvalue = [0, 2]", fillcolor="#399de5"] ;
268 -> 270 ;
271 [label="entropy = 0.0\nsamples = 5\nvalue = [5, 0]", fillcolor="#e58139"] ;
241 -> 271 ;
272 [label="sulphates <= 0.674\nentropy = 0.902\nsamples = 63\nvalue = [20, 43]", fillcolor="#95cbf1"] ;
50 -> 272 ;
273 [label="alcohol <= 10.208\nentropy = 0.999\nsamples = 29\nvalue = [15, 14]", fillcolor="#fdf7f2"] ;
272 -> 273 ;
274 [label="chlorides <= 0.073\nentropy = 0.966\nsamples = 23\nvalue = [9, 14]", fillcolor="#b8dcf6"] ;
273 -> 274 ;
275 [label="chlorides <= 0.06\nentropy = 0.946\nsamples = 11\nvalue = [7, 4]", fillcolor="#f4c9aa"] ;
274 -> 275 ;
276 [label="entropy = 0.0\nsamples = 1\nvalue = [0, 1]", fillcolor="#399de5"] ;
275 -> 276 ;
277 [label="free sulfur dioxide <= 14.162\nentropy = 0.881\nsamples = 10\nvalue = [7, 3]", fillcolor="#f0b78e"] ;
275 -> 277 ;
278 [label="alcohol <= 10.02\nentropy = 0.985\nsamples = 7\nvalue = [4, 3]", fillcolor="#f8e0ce"] ;
277 -> 278 ;
279 [label="free sulfur dioxide <= 8.894\nentropy = 0.918\nsamples = 6\nvalue = [4, 2]", fillcolor="#f2c09c"] ;
278 -> 279 ;
280 [label="free sulfur dioxide <= 5.868\nentropy = 0.722\nsamples = 5\nvalue = [4, 1]", fillcolor="#eca06a"] ;
279 -> 280 ;
281 [label="entropy = 0.0\nsamples = 1\nvalue = [0, 1]", fillcolor="#399de5"] ;
280 -> 281 ;
282 [label="entropy = 0.0\nsamples = 4\nvalue = [4, 0]", fillcolor="#e58139"] ;
280 -> 282 ;
283 [label="entropy = 0.0\nsamples = 1\nvalue = [0, 1]", fillcolor="#399de5"] ;
279 -> 283 ;
284 [label="entropy = 0.0\nsamples = 1\nvalue = [0, 1]", fillcolor="#399de5"] ;
278 -> 284 ;
285 [label="entropy = 0.0\nsamples = 3\nvalue = [3, 0]", fillcolor="#e58139"] ;
277 -> 285 ;
286 [label="alcohol <= 10.061\nentropy = 0.65\nsamples = 12\nvalue = [2, 10]", fillcolor="#61b1ea"] ;
274 -> 286 ;
287 [label="volatile acidity <= 0.476\nentropy = 0.439\nsamples = 11\nvalue = [1, 10]", fillcolor="#4da7e8"] ;
286 -> 287 ;
288 [label="entropy = 0.0\nsamples = 10\nvalue = [0, 10]", fillcolor="#399de5"] ;
287 -> 288 ;
289 [label="entropy = 0.0\nsamples = 1\nvalue = [1, 0]", fillcolor="#e58139"] ;
287 -> 289 ;
290 [label="entropy = 0.0\nsamples = 1\nvalue = [1, 0]", fillcolor="#e58139"] ;
286 -> 290 ;
291 [label="entropy = 0.0\nsamples = 6\nvalue = [6, 0]", fillcolor="#e58139"] ;
273 -> 291 ;
292 [label="chlorides <= 0.112\nentropy = 0.602\nsamples = 34\nvalue = [5, 29]", fillcolor="#5baee9"] ;
272 -> 292 ;
293 [label="alcohol <= 10.126\nentropy = 0.362\nsamples = 29\nvalue = [2, 27]", fillcolor="#48a4e7"] ;
292 -> 293 ;
294 [label="alcohol <= 9.688\nentropy = 0.258\nsamples = 23\nvalue = [1, 22]", fillcolor="#42a1e6"] ;
293 -> 294 ;
295 [label="density <= 0.999\nentropy = 0.503\nsamples = 9\nvalue = [1, 8]", fillcolor="#52a9e8"] ;
294 -> 295 ;
296 [label="density <= 0.999\nentropy = 0.918\nsamples = 3\nvalue = [1, 2]", fillcolor="#9ccef2"] ;
295 -> 296 ;
297 [label="entropy = 0.0\nsamples = 2\nvalue = [0, 2]", fillcolor="#399de5"] ;
296 -> 297 ;
298 [label="entropy = 0.0\nsamples = 1\nvalue = [1, 0]", fillcolor="#e58139"] ;
296 -> 298 ;
299 [label="entropy = 0.0\nsamples = 6\nvalue = [0, 6]", fillcolor="#399de5"] ;
295 -> 299 ;
300 [label="entropy = 0.0\nsamples = 14\nvalue = [0, 14]", fillcolor="#399de5"] ;
294 -> 300 ;
301 [label="sulphates <= 0.857\nentropy = 0.65\nsamples = 6\nvalue = [1, 5]", fillcolor="#61b1ea"] ;
293 -> 301 ;
302 [label="entropy = 0.0\nsamples = 5\nvalue = [0, 5]", fillcolor="#399de5"] ;
301 -> 302 ;
303 [label="entropy = 0.0\nsamples = 1\nvalue = [1, 0]", fillcolor="#e58139"] ;
301 -> 303 ;
304 [label="chlorides <= 0.122\nentropy = 0.971\nsamples = 5\nvalue = [3, 2]", fillcolor="#f6d5bd"] ;
292 -> 304 ;
305 [label="density <= 0.999\nentropy = 0.918\nsamples = 3\nvalue = [1, 2]", fillcolor="#9ccef2"] ;
304 -> 305 ;
306 [label="entropy = 0.0\nsamples = 2\nvalue = [0, 2]", fillcolor="#399de5"] ;
305 -> 306 ;
307 [label="entropy = 0.0\nsamples = 1\nvalue = [1, 0]", fillcolor="#e58139"] ;
305 -> 307 ;
308 [label="entropy = 0.0\nsamples = 2\nvalue = [2, 0]", fillcolor="#e58139"] ;
304 -> 308 ;
309 [label="chlorides <= 0.062\nentropy = 0.89\nsamples = 130\nvalue = [90, 40]", fillcolor="#f1b991"] ;
49 -> 309 ;
310 [label="entropy = 0.0\nsamples = 2\nvalue = [0, 2]", fillcolor="#399de5"] ;
309 -> 310 ;
311 [label="free sulfur dioxide <= 6.03\nentropy = 0.877\nsamples = 128\nvalue = [90, 38]", fillcolor="#f0b68d"] ;
309 -> 311 ;
312 [label="entropy = 0.0\nsamples = 2\nvalue = [0, 2]", fillcolor="#399de5"] ;
311 -> 312 ;
313 [label="free sulfur dioxide <= 49.051\nentropy = 0.863\nsamples = 126\nvalue = [90, 36]", fillcolor="#efb388"] ;
311 -> 313 ;
314 [label="alcohol <= 9.331\nentropy = 0.855\nsamples = 125\nvalue = [90, 35]", fillcolor="#efb286"] ;
313 -> 314 ;
315 [label="volatile acidity <= 0.576\nentropy = 0.459\nsamples = 31\nvalue = [28, 3]", fillcolor="#e88e4e"] ;
314 -> 315 ;
316 [label="entropy = 0.0\nsamples = 18\nvalue = [18, 0]", fillcolor="#e58139"] ;
315 -> 316 ;
317 [label="total sulfur dioxide <= 90.833\nentropy = 0.779\nsamples = 13\nvalue = [10, 3]", fillcolor="#eda774"] ;
315 -> 317 ;
318 [label="fixed acidity <= 8.788\nentropy = 0.918\nsamples = 9\nvalue = [6, 3]", fillcolor="#f2c09c"] ;
317 -> 318 ;
319 [label="total sulfur dioxide <= 85.91\nentropy = 0.811\nsamples = 8\nvalue = [6, 2]", fillcolor="#eeab7b"] ;
318 -> 319 ;
320 [label="entropy = 0.0\nsamples = 5\nvalue = [5, 0]", fillcolor="#e58139"] ;
319 -> 320 ;
321 [label="fixed acidity <= 7.454\nentropy = 0.918\nsamples = 3\nvalue = [1, 2]", fillcolor="#9ccef2"] ;
319 -> 321 ;
322 [label="entropy = 0.0\nsamples = 2\nvalue = [0, 2]", fillcolor="#399de5"] ;
321 -> 322 ;
323 [label="entropy = 0.0\nsamples = 1\nvalue = [1, 0]", fillcolor="#e58139"] ;
321 -> 323 ;
324 [label="entropy = 0.0\nsamples = 1\nvalue = [0, 1]", fillcolor="#399de5"] ;
318 -> 324 ;
325 [label="entropy = 0.0\nsamples = 4\nvalue = [4, 0]", fillcolor="#e58139"] ;
317 -> 325 ;
326 [label="fixed acidity <= 8.21\nentropy = 0.925\nsamples = 94\nvalue = [62, 32]", fillcolor="#f2c29f"] ;
314 -> 326 ;
327 [label="total sulfur dioxide <= 81.701\nentropy = 0.976\nsamples = 61\nvalue = [36, 25]", fillcolor="#f7d8c2"] ;
326 -> 327 ;
328 [label="residual sugar <= 1.754\nentropy = 0.982\nsamples = 19\nvalue = [8, 11]", fillcolor="#c9e4f8"] ;
327 -> 328 ;
329 [label="entropy = 0.0\nsamples = 2\nvalue = [0, 2]", fillcolor="#399de5"] ;
328 -> 329 ;
330 [label="pH <= 3.292\nentropy = 0.998\nsamples = 17\nvalue = [8, 9]", fillcolor="#e9f4fc"] ;
328 -> 330 ;
331 [label="pH <= 3.18\nentropy = 0.863\nsamples = 7\nvalue = [2, 5]", fillcolor="#88c4ef"] ;
330 -> 331 ;
332 [label="pH <= 3.157\nentropy = 0.918\nsamples = 3\nvalue = [2, 1]", fillcolor="#f2c09c"] ;
331 -> 332 ;
333 [label="entropy = 0.0\nsamples = 2\nvalue = [2, 0]", fillcolor="#e58139"] ;
332 -> 333 ;
334 [label="entropy = 0.0\nsamples = 1\nvalue = [0, 1]", fillcolor="#399de5"] ;
332 -> 334 ;
335 [label="entropy = 0.0\nsamples = 4\nvalue = [0, 4]", fillcolor="#399de5"] ;
331 -> 335 ;
336 [label="pH <= 3.46\nentropy = 0.971\nsamples = 10\nvalue = [6, 4]", fillcolor="#f6d5bd"] ;
330 -> 336 ;
337 [label="sulphates <= 0.606\nentropy = 1.0\nsamples = 8\nvalue = [4, 4]", fillcolor="#ffffff"] ;
336 -> 337 ;
338 [label="sulphates <= 0.52\nentropy = 0.918\nsamples = 6\nvalue = [2, 4]", fillcolor="#9ccef2"] ;
337 -> 338 ;
339 [label="entropy = 0.0\nsamples = 2\nvalue = [2, 0]", fillcolor="#e58139"] ;
338 -> 339 ;
340 [label="entropy = 0.0\nsamples = 4\nvalue = [0, 4]", fillcolor="#399de5"] ;
338 -> 340 ;
341 [label="entropy = 0.0\nsamples = 2\nvalue = [2, 0]", fillcolor="#e58139"] ;
337 -> 341 ;
342 [label="entropy = 0.0\nsamples = 2\nvalue = [2, 0]", fillcolor="#e58139"] ;
336 -> 342 ;
343 [label="alcohol <= 10.076\nentropy = 0.918\nsamples = 42\nvalue = [28, 14]", fillcolor="#f2c09c"] ;
327 -> 343 ;
344 [label="residual sugar <= 4.907\nentropy = 0.949\nsamples = 38\nvalue = [24, 14]", fillcolor="#f4caac"] ;
343 -> 344 ;
345 [label="total sulfur dioxide <= 94.08\nentropy = 0.908\nsamples = 34\nvalue = [23, 11]", fillcolor="#f1bd98"] ;
344 -> 345 ;
346 [label="pH <= 3.39\nentropy = 0.98\nsamples = 24\nvalue = [14, 10]", fillcolor="#f8dbc6"] ;
345 -> 346 ;
347 [label="chlorides <= 0.087\nentropy = 0.98\nsamples = 12\nvalue = [5, 7]", fillcolor="#c6e3f8"] ;
346 -> 347 ;
348 [label="total sulfur dioxide <= 88.712\nentropy = 0.881\nsamples = 10\nvalue = [3, 7]", fillcolor="#8ec7f0"] ;
347 -> 348 ;
349 [label="free sulfur dioxide <= 19.296\nentropy = 0.971\nsamples = 5\nvalue = [3, 2]", fillcolor="#f6d5bd"] ;
348 -> 349 ;
350 [label="entropy = 0.0\nsamples = 2\nvalue = [0, 2]", fillcolor="#399de5"] ;
349 -> 350 ;
351 [label="entropy = 0.0\nsamples = 3\nvalue = [3, 0]", fillcolor="#e58139"] ;
349 -> 351 ;
352 [label="entropy = 0.0\nsamples = 5\nvalue = [0, 5]", fillcolor="#399de5"] ;
348 -> 352 ;
353 [label="entropy = 0.0\nsamples = 2\nvalue = [2, 0]", fillcolor="#e58139"] ;
347 -> 353 ;
354 [label="residual sugar <= 2.571\nentropy = 0.811\nsamples = 12\nvalue = [9, 3]", fillcolor="#eeab7b"] ;
346 -> 354 ;
355 [label="free sulfur dioxide <= 22.417\nentropy = 0.954\nsamples = 8\nvalue = [5, 3]", fillcolor="#f5cdb0"] ;
354 -> 355 ;
356 [label="pH <= 3.483\nentropy = 0.65\nsamples = 6\nvalue = [5, 1]", fillcolor="#ea9a61"] ;
355 -> 356 ;
357 [label="entropy = 0.0\nsamples = 1\nvalue = [0, 1]", fillcolor="#399de5"] ;
356 -> 357 ;
358 [label="entropy = 0.0\nsamples = 5\nvalue = [5, 0]", fillcolor="#e58139"] ;
356 -> 358 ;
359 [label="entropy = 0.0\nsamples = 2\nvalue = [0, 2]", fillcolor="#399de5"] ;
355 -> 359 ;
360 [label="entropy = 0.0\nsamples = 4\nvalue = [4, 0]", fillcolor="#e58139"] ;
354 -> 360 ;
361 [label="alcohol <= 9.44\nentropy = 0.469\nsamples = 10\nvalue = [9, 1]", fillcolor="#e88f4f"] ;
345 -> 361 ;
362 [label="sulphates <= 0.663\nentropy = 0.918\nsamples = 3\nvalue = [2, 1]", fillcolor="#f2c09c"] ;
361 -> 362 ;
363 [label="citric acid <= 0.235\nentropy = 1.0\nsamples = 2\nvalue = [1, 1]", fillcolor="#ffffff"] ;
362 -> 363 ;
364 [label="entropy = 0.0\nsamples = 1\nvalue = [1, 0]", fillcolor="#e58139"] ;
363 -> 364 ;
365 [label="entropy = 0.0\nsamples = 1\nvalue = [0, 1]", fillcolor="#399de5"] ;
363 -> 365 ;
366 [label="entropy = 0.0\nsamples = 1\nvalue = [1, 0]", fillcolor="#e58139"] ;
362 -> 366 ;
367 [label="entropy = 0.0\nsamples = 7\nvalue = [7, 0]", fillcolor="#e58139"] ;
361 -> 367 ;
368 [label="sulphates <= 0.703\nentropy = 0.811\nsamples = 4\nvalue = [1, 3]", fillcolor="#7bbeee"] ;
344 -> 368 ;
369 [label="entropy = 0.0\nsamples = 3\nvalue = [0, 3]", fillcolor="#399de5"] ;
368 -> 369 ;
370 [label="entropy = 0.0\nsamples = 1\nvalue = [1, 0]", fillcolor="#e58139"] ;
368 -> 370 ;
371 [label="entropy = 0.0\nsamples = 4\nvalue = [4, 0]", fillcolor="#e58139"] ;
343 -> 371 ;
372 [label="citric acid <= 0.31\nentropy = 0.746\nsamples = 33\nvalue = [26, 7]", fillcolor="#eca36e"] ;
326 -> 372 ;
373 [label="chlorides <= 0.094\nentropy = 0.391\nsamples = 13\nvalue = [12, 1]", fillcolor="#e78c49"] ;
372 -> 373 ;
374 [label="citric acid <= 0.269\nentropy = 0.503\nsamples = 9\nvalue = [8, 1]", fillcolor="#e89152"] ;
373 -> 374 ;
375 [label="entropy = 0.0\nsamples = 6\nvalue = [6, 0]", fillcolor="#e58139"] ;
374 -> 375 ;
376 [label="total sulfur dioxide <= 88.861\nentropy = 0.918\nsamples = 3\nvalue = [2, 1]", fillcolor="#f2c09c"] ;
374 -> 376 ;
377 [label="entropy = 0.0\nsamples = 2\nvalue = [2, 0]", fillcolor="#e58139"] ;
376 -> 377 ;
378 [label="entropy = 0.0\nsamples = 1\nvalue = [0, 1]", fillcolor="#399de5"] ;
376 -> 378 ;
379 [label="entropy = 0.0\nsamples = 4\nvalue = [4, 0]", fillcolor="#e58139"] ;
373 -> 379 ;
380 [label="fixed acidity <= 12.432\nentropy = 0.881\nsamples = 20\nvalue = [14, 6]", fillcolor="#f0b78e"] ;
372 -> 380 ;
381 [label="free sulfur dioxide <= 11.941\nentropy = 0.831\nsamples = 19\nvalue = [14, 5]", fillcolor="#eeae80"] ;
380 -> 381 ;
382 [label="entropy = 0.0\nsamples = 1\nvalue = [0, 1]", fillcolor="#399de5"] ;
381 -> 382 ;
383 [label="fixed acidity <= 9.227\nentropy = 0.764\nsamples = 18\nvalue = [14, 4]", fillcolor="#eca572"] ;
381 -> 383 ;
384 [label="residual sugar <= 2.807\nentropy = 0.971\nsamples = 5\nvalue = [2, 3]", fillcolor="#bddef6"] ;
383 -> 384 ;
385 [label="free sulfur dioxide <= 22.035\nentropy = 0.811\nsamples = 4\nvalue = [1, 3]", fillcolor="#7bbeee"] ;
384 -> 385 ;
386 [label="entropy = 0.0\nsamples = 1\nvalue = [1, 0]", fillcolor="#e58139"] ;
385 -> 386 ;
387 [label="entropy = 0.0\nsamples = 3\nvalue = [0, 3]", fillcolor="#399de5"] ;
385 -> 387 ;
388 [label="entropy = 0.0\nsamples = 1\nvalue = [1, 0]", fillcolor="#e58139"] ;
384 -> 388 ;
389 [label="free sulfur dioxide <= 25.927\nentropy = 0.391\nsamples = 13\nvalue = [12, 1]", fillcolor="#e78c49"] ;
383 -> 389 ;
390 [label="entropy = 0.0\nsamples = 9\nvalue = [9, 0]", fillcolor="#e58139"] ;
389 -> 390 ;
391 [label="free sulfur dioxide <= 34.233\nentropy = 0.811\nsamples = 4\nvalue = [3, 1]", fillcolor="#eeab7b"] ;
389 -> 391 ;
392 [label="entropy = 0.0\nsamples = 3\nvalue = [3, 0]", fillcolor="#e58139"] ;
391 -> 392 ;
393 [label="entropy = 0.0\nsamples = 1\nvalue = [0, 1]", fillcolor="#399de5"] ;
391 -> 393 ;
394 [label="entropy = 0.0\nsamples = 1\nvalue = [0, 1]", fillcolor="#399de5"] ;
380 -> 394 ;
395 [label="entropy = 0.0\nsamples = 1\nvalue = [0, 1]", fillcolor="#399de5"] ;
313 -> 395 ;
396 [label="citric acid <= 0.465\nentropy = 0.634\nsamples = 50\nvalue = [42, 8]", fillcolor="#ea995f"] ;
4 -> 396 ;
397 [label="sulphates <= 0.587\nentropy = 0.592\nsamples = 49\nvalue = [42, 7]", fillcolor="#e9965a"] ;
396 -> 397 ;
398 [label="volatile acidity <= 0.939\nentropy = 0.406\nsamples = 37\nvalue = [34, 3]", fillcolor="#e78c4a"] ;
397 -> 398 ;
399 [label="entropy = 0.0\nsamples = 24\nvalue = [24, 0]", fillcolor="#e58139"] ;
398 -> 399 ;
400 [label="total sulfur dioxide <= 26.661\nentropy = 0.779\nsamples = 13\nvalue = [10, 3]", fillcolor="#eda774"] ;
398 -> 400 ;
401 [label="entropy = 0.0\nsamples = 6\nvalue = [6, 0]", fillcolor="#e58139"] ;
400 -> 401 ;
402 [label="total sulfur dioxide <= 46.243\nentropy = 0.985\nsamples = 7\nvalue = [4, 3]", fillcolor="#f8e0ce"] ;
400 -> 402 ;
403 [label="entropy = 0.0\nsamples = 2\nvalue = [0, 2]", fillcolor="#399de5"] ;
402 -> 403 ;
404 [label="citric acid <= 0.311\nentropy = 0.722\nsamples = 5\nvalue = [4, 1]", fillcolor="#eca06a"] ;
402 -> 404 ;
405 [label="entropy = 0.0\nsamples = 3\nvalue = [3, 0]", fillcolor="#e58139"] ;
404 -> 405 ;
406 [label="volatile acidity <= 1.024\nentropy = 1.0\nsamples = 2\nvalue = [1, 1]", fillcolor="#ffffff"] ;
404 -> 406 ;
407 [label="entropy = 0.0\nsamples = 1\nvalue = [0, 1]", fillcolor="#399de5"] ;
406 -> 407 ;
408 [label="entropy = 0.0\nsamples = 1\nvalue = [1, 0]", fillcolor="#e58139"] ;
406 -> 408 ;
409 [label="alcohol <= 10.34\nentropy = 0.918\nsamples = 12\nvalue = [8, 4]", fillcolor="#f2c09c"] ;
397 -> 409 ;
410 [label="fixed acidity <= 7.683\nentropy = 0.722\nsamples = 10\nvalue = [8, 2]", fillcolor="#eca06a"] ;
409 -> 410 ;
411 [label="chlorides <= 0.082\nentropy = 1.0\nsamples = 4\nvalue = [2, 2]", fillcolor="#ffffff"] ;
410 -> 411 ;
412 [label="entropy = 0.0\nsamples = 2\nvalue = [0, 2]", fillcolor="#399de5"] ;
411 -> 412 ;
413 [label="entropy = 0.0\nsamples = 2\nvalue = [2, 0]", fillcolor="#e58139"] ;
411 -> 413 ;
414 [label="entropy = 0.0\nsamples = 6\nvalue = [6, 0]", fillcolor="#e58139"] ;
410 -> 414 ;
415 [label="entropy = 0.0\nsamples = 2\nvalue = [0, 2]", fillcolor="#399de5"] ;
409 -> 415 ;
416 [label="entropy = 0.0\nsamples = 1\nvalue = [0, 1]", fillcolor="#399de5"] ;
396 -> 416 ;
417 [label="pH <= 3.383\nentropy = 0.918\nsamples = 309\nvalue = [103, 206]", fillcolor="#9ccef2"] ;
3 -> 417 ;
418 [label="residual sugar <= 5.694\nentropy = 0.849\nsamples = 200\nvalue = [55, 145]", fillcolor="#84c2ef"] ;
417 -> 418 ;
419 [label="sulphates <= 0.504\nentropy = 0.825\nsamples = 193\nvalue = [50, 143]", fillcolor="#7ebfee"] ;
418 -> 419 ;
420 [label="residual sugar <= 4.593\nentropy = 0.946\nsamples = 11\nvalue = [7, 4]", fillcolor="#f4c9aa"] ;
419 -> 420 ;
421 [label="chlorides <= 0.064\nentropy = 0.764\nsamples = 9\nvalue = [7, 2]", fillcolor="#eca572"] ;
420 -> 421 ;
422 [label="fixed acidity <= 7.082\nentropy = 1.0\nsamples = 4\nvalue = [2, 2]", fillcolor="#ffffff"] ;
421 -> 422 ;
423 [label="entropy = 0.0\nsamples = 2\nvalue = [0, 2]", fillcolor="#399de5"] ;
422 -> 423 ;
424 [label="entropy = 0.0\nsamples = 2\nvalue = [2, 0]", fillcolor="#e58139"] ;
422 -> 424 ;
425 [label="entropy = 0.0\nsamples = 5\nvalue = [5, 0]", fillcolor="#e58139"] ;
421 -> 425 ;
426 [label="entropy = 0.0\nsamples = 2\nvalue = [0, 2]", fillcolor="#399de5"] ;
420 -> 426 ;
427 [label="residual sugar <= 4.115\nentropy = 0.789\nsamples = 182\nvalue = [43, 139]", fillcolor="#76bbed"] ;
419 -> 427 ;
428 [label="sulphates <= 0.661\nentropy = 0.761\nsamples = 177\nvalue = [39, 138]", fillcolor="#71b9ec"] ;
427 -> 428 ;
429 [label="pH <= 3.301\nentropy = 0.918\nsamples = 69\nvalue = [23, 46]", fillcolor="#9ccef2"] ;
428 -> 429 ;
430 [label="total sulfur dioxide <= 17.825\nentropy = 0.764\nsamples = 36\nvalue = [8, 28]", fillcolor="#72b9ec"] ;
429 -> 430 ;
431 [label="entropy = 0.0\nsamples = 7\nvalue = [0, 7]", fillcolor="#399de5"] ;
430 -> 431 ;
432 [label="chlorides <= 0.072\nentropy = 0.85\nsamples = 29\nvalue = [8, 21]", fillcolor="#84c2ef"] ;
430 -> 432 ;
433 [label="entropy = 0.0\nsamples = 6\nvalue = [0, 6]", fillcolor="#399de5"] ;
432 -> 433 ;
434 [label="sulphates <= 0.615\nentropy = 0.932\nsamples = 23\nvalue = [8, 15]", fillcolor="#a3d1f3"] ;
432 -> 434 ;
435 [label="volatile acidity <= 0.626\nentropy = 1.0\nsamples = 16\nvalue = [8, 8]", fillcolor="#ffffff"] ;
434 -> 435 ;
436 [label="fixed acidity <= 12.57\nentropy = 0.997\nsamples = 15\nvalue = [8, 7]", fillcolor="#fcefe6"] ;
435 -> 436 ;
437 [label="volatile acidity <= 0.322\nentropy = 0.996\nsamples = 13\nvalue = [6, 7]", fillcolor="#e3f1fb"] ;
436 -> 437 ;
438 [label="entropy = 0.0\nsamples = 2\nvalue = [0, 2]", fillcolor="#399de5"] ;
437 -> 438 ;
439 [label="sulphates <= 0.594\nentropy = 0.994\nsamples = 11\nvalue = [6, 5]", fillcolor="#fbeade"] ;
437 -> 439 ;
440 [label="sulphates <= 0.572\nentropy = 0.918\nsamples = 9\nvalue = [6, 3]", fillcolor="#f2c09c"] ;
439 -> 440 ;
441 [label="citric acid <= 0.146\nentropy = 0.65\nsamples = 6\nvalue = [5, 1]", fillcolor="#ea9a61"] ;
440 -> 441 ;
442 [label="entropy = 0.0\nsamples = 1\nvalue = [0, 1]", fillcolor="#399de5"] ;
441 -> 442 ;
443 [label="entropy = 0.0\nsamples = 5\nvalue = [5, 0]", fillcolor="#e58139"] ;
441 -> 443 ;
444 [label="alcohol <= 11.161\nentropy = 0.918\nsamples = 3\nvalue = [1, 2]", fillcolor="#9ccef2"] ;
440 -> 444 ;
445 [label="entropy = 0.0\nsamples = 2\nvalue = [0, 2]", fillcolor="#399de5"] ;
444 -> 445 ;
446 [label="entropy = 0.0\nsamples = 1\nvalue = [1, 0]", fillcolor="#e58139"] ;
444 -> 446 ;
447 [label="entropy = 0.0\nsamples = 2\nvalue = [0, 2]", fillcolor="#399de5"] ;
439 -> 447 ;
448 [label="entropy = 0.0\nsamples = 2\nvalue = [2, 0]", fillcolor="#e58139"] ;
436 -> 448 ;
449 [label="entropy = 0.0\nsamples = 1\nvalue = [0, 1]", fillcolor="#399de5"] ;
435 -> 449 ;
450 [label="entropy = 0.0\nsamples = 7\nvalue = [0, 7]", fillcolor="#399de5"] ;
434 -> 450 ;
451 [label="chlorides <= 0.078\nentropy = 0.994\nsamples = 33\nvalue = [15, 18]", fillcolor="#deeffb"] ;
429 -> 451 ;
452 [label="residual sugar <= 2.111\nentropy = 0.94\nsamples = 14\nvalue = [9, 5]", fillcolor="#f3c7a7"] ;
451 -> 452 ;
453 [label="entropy = 0.0\nsamples = 4\nvalue = [4, 0]", fillcolor="#e58139"] ;
452 -> 453 ;
454 [label="chlorides <= 0.07\nentropy = 1.0\nsamples = 10\nvalue = [5, 5]", fillcolor="#ffffff"] ;
452 -> 454 ;
455 [label="entropy = 0.0\nsamples = 4\nvalue = [4, 0]", fillcolor="#e58139"] ;
454 -> 455 ;
456 [label="residual sugar <= 2.721\nentropy = 0.65\nsamples = 6\nvalue = [1, 5]", fillcolor="#61b1ea"] ;
454 -> 456 ;
457 [label="entropy = 0.0\nsamples = 5\nvalue = [0, 5]", fillcolor="#399de5"] ;
456 -> 457 ;
458 [label="entropy = 0.0\nsamples = 1\nvalue = [1, 0]", fillcolor="#e58139"] ;
456 -> 458 ;
459 [label="free sulfur dioxide <= 22.266\nentropy = 0.9\nsamples = 19\nvalue = [6, 13]", fillcolor="#94caf1"] ;
451 -> 459 ;
460 [label="sulphates <= 0.63\nentropy = 0.787\nsamples = 17\nvalue = [4, 13]", fillcolor="#76bbed"] ;
459 -> 460 ;
461 [label="density <= 0.997\nentropy = 0.567\nsamples = 15\nvalue = [2, 13]", fillcolor="#57ace9"] ;
460 -> 461 ;
462 [label="free sulfur dioxide <= 10.869\nentropy = 0.391\nsamples = 13\nvalue = [1, 12]", fillcolor="#49a5e7"] ;
461 -> 462 ;
463 [label="volatile acidity <= 0.594\nentropy = 0.722\nsamples = 5\nvalue = [1, 4]", fillcolor="#6ab6ec"] ;
462 -> 463 ;
464 [label="entropy = 0.0\nsamples = 4\nvalue = [0, 4]", fillcolor="#399de5"] ;
463 -> 464 ;
465 [label="entropy = 0.0\nsamples = 1\nvalue = [1, 0]", fillcolor="#e58139"] ;
463 -> 465 ;
466 [label="entropy = 0.0\nsamples = 8\nvalue = [0, 8]", fillcolor="#399de5"] ;
462 -> 466 ;
467 [label="citric acid <= 0.307\nentropy = 1.0\nsamples = 2\nvalue = [1, 1]", fillcolor="#ffffff"] ;
461 -> 467 ;
468 [label="entropy = 0.0\nsamples = 1\nvalue = [1, 0]", fillcolor="#e58139"] ;
467 -> 468 ;
469 [label="entropy = 0.0\nsamples = 1\nvalue = [0, 1]", fillcolor="#399de5"] ;
467 -> 469 ;
470 [label="entropy = 0.0\nsamples = 2\nvalue = [2, 0]", fillcolor="#e58139"] ;
460 -> 470 ;
471 [label="entropy = 0.0\nsamples = 2\nvalue = [2, 0]", fillcolor="#e58139"] ;
459 -> 471 ;
472 [label="citric acid <= 0.14\nentropy = 0.605\nsamples = 108\nvalue = [16, 92]", fillcolor="#5baeea"] ;
428 -> 472 ;
473 [label="entropy = 0.0\nsamples = 10\nvalue = [0, 10]", fillcolor="#399de5"] ;
472 -> 473 ;
474 [label="free sulfur dioxide <= 26.224\nentropy = 0.642\nsamples = 98\nvalue = [16, 82]", fillcolor="#60b0ea"] ;
472 -> 474 ;
475 [label="volatile acidity <= 0.468\nentropy = 0.556\nsamples = 85\nvalue = [11, 74]", fillcolor="#56ace9"] ;
474 -> 475 ;
476 [label="chlorides <= 0.306\nentropy = 0.454\nsamples = 63\nvalue = [6, 57]", fillcolor="#4ea7e8"] ;
475 -> 476 ;
477 [label="sulphates <= 0.748\nentropy = 0.404\nsamples = 62\nvalue = [5, 57]", fillcolor="#4aa6e7"] ;
476 -> 477 ;
478 [label="alcohol <= 10.818\nentropy = 0.702\nsamples = 21\nvalue = [4, 17]", fillcolor="#68b4eb"] ;
477 -> 478 ;
479 [label="alcohol <= 10.758\nentropy = 0.954\nsamples = 8\nvalue = [3, 5]", fillcolor="#b0d8f5"] ;
478 -> 479 ;
480 [label="entropy = 0.0\nsamples = 4\nvalue = [0, 4]", fillcolor="#399de5"] ;
479 -> 480 ;
481 [label="chlorides <= 0.094\nentropy = 0.811\nsamples = 4\nvalue = [3, 1]", fillcolor="#eeab7b"] ;
479 -> 481 ;
482 [label="entropy = 0.0\nsamples = 1\nvalue = [0, 1]", fillcolor="#399de5"] ;
481 -> 482 ;
483 [label="entropy = 0.0\nsamples = 3\nvalue = [3, 0]", fillcolor="#e58139"] ;
481 -> 483 ;
484 [label="residual sugar <= 1.935\nentropy = 0.391\nsamples = 13\nvalue = [1, 12]", fillcolor="#49a5e7"] ;
478 -> 484 ;
485 [label="density <= 0.994\nentropy = 1.0\nsamples = 2\nvalue = [1, 1]", fillcolor="#ffffff"] ;
484 -> 485 ;
486 [label="entropy = 0.0\nsamples = 1\nvalue = [1, 0]", fillcolor="#e58139"] ;
485 -> 486 ;
487 [label="entropy = 0.0\nsamples = 1\nvalue = [0, 1]", fillcolor="#399de5"] ;
485 -> 487 ;
488 [label="entropy = 0.0\nsamples = 11\nvalue = [0, 11]", fillcolor="#399de5"] ;
484 -> 488 ;
489 [label="density <= 0.997\nentropy = 0.165\nsamples = 41\nvalue = [1, 40]", fillcolor="#3e9fe6"] ;
477 -> 489 ;
490 [label="citric acid <= 0.492\nentropy = 0.258\nsamples = 23\nvalue = [1, 22]", fillcolor="#42a1e6"] ;
489 -> 490 ;
491 [label="entropy = 0.0\nsamples = 19\nvalue = [0, 19]", fillcolor="#399de5"] ;
490 -> 491 ;
492 [label="alcohol <= 10.755\nentropy = 0.811\nsamples = 4\nvalue = [1, 3]", fillcolor="#7bbeee"] ;
490 -> 492 ;
493 [label="entropy = 0.0\nsamples = 1\nvalue = [1, 0]", fillcolor="#e58139"] ;
492 -> 493 ;
494 [label="entropy = 0.0\nsamples = 3\nvalue = [0, 3]", fillcolor="#399de5"] ;
492 -> 494 ;
495 [label="entropy = 0.0\nsamples = 18\nvalue = [0, 18]", fillcolor="#399de5"] ;
489 -> 495 ;
496 [label="entropy = 0.0\nsamples = 1\nvalue = [1, 0]", fillcolor="#e58139"] ;
476 -> 496 ;
497 [label="residual sugar <= 1.952\nentropy = 0.773\nsamples = 22\nvalue = [5, 17]", fillcolor="#73baed"] ;
475 -> 497 ;
498 [label="entropy = 0.0\nsamples = 5\nvalue = [0, 5]", fillcolor="#399de5"] ;
497 -> 498 ;
499 [label="pH <= 3.223\nentropy = 0.874\nsamples = 17\nvalue = [5, 12]", fillcolor="#8bc6f0"] ;
497 -> 499 ;
500 [label="fixed acidity <= 12.61\nentropy = 0.994\nsamples = 11\nvalue = [5, 6]", fillcolor="#deeffb"] ;
499 -> 500 ;
501 [label="alcohol <= 11.385\nentropy = 0.991\nsamples = 9\nvalue = [5, 4]", fillcolor="#fae6d7"] ;
500 -> 501 ;
502 [label="chlorides <= 0.269\nentropy = 0.863\nsamples = 7\nvalue = [5, 2]", fillcolor="#efb388"] ;
501 -> 502 ;
503 [label="volatile acidity <= 0.63\nentropy = 0.65\nsamples = 6\nvalue = [5, 1]", fillcolor="#ea9a61"] ;
502 -> 503 ;
504 [label="entropy = 0.0\nsamples = 5\nvalue = [5, 0]", fillcolor="#e58139"] ;
503 -> 504 ;
505 [label="entropy = 0.0\nsamples = 1\nvalue = [0, 1]", fillcolor="#399de5"] ;
503 -> 505 ;
506 [label="entropy = 0.0\nsamples = 1\nvalue = [0, 1]", fillcolor="#399de5"] ;
502 -> 506 ;
507 [label="entropy = 0.0\nsamples = 2\nvalue = [0, 2]", fillcolor="#399de5"] ;
501 -> 507 ;
508 [label="entropy = 0.0\nsamples = 2\nvalue = [0, 2]", fillcolor="#399de5"] ;
500 -> 508 ;
509 [label="entropy = 0.0\nsamples = 6\nvalue = [0, 6]", fillcolor="#399de5"] ;
499 -> 509 ;
510 [label="volatile acidity <= 0.451\nentropy = 0.961\nsamples = 13\nvalue = [5, 8]", fillcolor="#b5daf5"] ;
474 -> 510 ;
511 [label="free sulfur dioxide <= 37.428\nentropy = 0.994\nsamples = 11\nvalue = [5, 6]", fillcolor="#deeffb"] ;
510 -> 511 ;
512 [label="pH <= 3.265\nentropy = 0.863\nsamples = 7\nvalue = [2, 5]", fillcolor="#88c4ef"] ;
511 -> 512 ;
513 [label="entropy = 0.0\nsamples = 1\nvalue = [1, 0]", fillcolor="#e58139"] ;
512 -> 513 ;
514 [label="free sulfur dioxide <= 31.796\nentropy = 0.65\nsamples = 6\nvalue = [1, 5]", fillcolor="#61b1ea"] ;
512 -> 514 ;
515 [label="entropy = 0.0\nsamples = 1\nvalue = [1, 0]", fillcolor="#e58139"] ;
514 -> 515 ;
516 [label="entropy = 0.0\nsamples = 5\nvalue = [0, 5]", fillcolor="#399de5"] ;
514 -> 516 ;
517 [label="residual sugar <= 3.193\nentropy = 0.811\nsamples = 4\nvalue = [3, 1]", fillcolor="#eeab7b"] ;
511 -> 517 ;
518 [label="entropy = 0.0\nsamples = 3\nvalue = [3, 0]", fillcolor="#e58139"] ;
517 -> 518 ;
519 [label="entropy = 0.0\nsamples = 1\nvalue = [0, 1]", fillcolor="#399de5"] ;
517 -> 519 ;
520 [label="entropy = 0.0\nsamples = 2\nvalue = [0, 2]", fillcolor="#399de5"] ;
510 -> 520 ;
521 [label="fixed acidity <= 8.785\nentropy = 0.722\nsamples = 5\nvalue = [4, 1]", fillcolor="#eca06a"] ;
427 -> 521 ;
522 [label="entropy = 0.0\nsamples = 1\nvalue = [0, 1]", fillcolor="#399de5"] ;
521 -> 522 ;
523 [label="entropy = 0.0\nsamples = 4\nvalue = [4, 0]", fillcolor="#e58139"] ;
521 -> 523 ;
524 [label="density <= 0.998\nentropy = 0.863\nsamples = 7\nvalue = [5, 2]", fillcolor="#efb388"] ;
418 -> 524 ;
525 [label="entropy = 0.0\nsamples = 5\nvalue = [5, 0]", fillcolor="#e58139"] ;
524 -> 525 ;
526 [label="entropy = 0.0\nsamples = 2\nvalue = [0, 2]", fillcolor="#399de5"] ;
524 -> 526 ;
527 [label="volatile acidity <= 1.079\nentropy = 0.99\nsamples = 109\nvalue = [48, 61]", fillcolor="#d5eaf9"] ;
417 -> 527 ;
528 [label="pH <= 3.638\nentropy = 0.975\nsamples = 103\nvalue = [42, 61]", fillcolor="#c1e0f7"] ;
527 -> 528 ;
529 [label="chlorides <= 0.152\nentropy = 0.956\nsamples = 98\nvalue = [37, 61]", fillcolor="#b1d8f5"] ;
528 -> 529 ;
530 [label="free sulfur dioxide <= 29.697\nentropy = 0.941\nsamples = 95\nvalue = [34, 61]", fillcolor="#a7d4f3"] ;
529 -> 530 ;
531 [label="sulphates <= 0.728\nentropy = 0.968\nsamples = 81\nvalue = [32, 49]", fillcolor="#baddf6"] ;
530 -> 531 ;
532 [label="free sulfur dioxide <= 8.705\nentropy = 0.996\nsamples = 65\nvalue = [30, 35]", fillcolor="#e3f1fb"] ;
531 -> 532 ;
533 [label="alcohol <= 11.359\nentropy = 0.94\nsamples = 14\nvalue = [9, 5]", fillcolor="#f3c7a7"] ;
532 -> 533 ;
534 [label="volatile acidity <= 0.694\nentropy = 0.994\nsamples = 11\nvalue = [6, 5]", fillcolor="#fbeade"] ;
533 -> 534 ;
535 [label="residual sugar <= 2.267\nentropy = 0.918\nsamples = 6\nvalue = [2, 4]", fillcolor="#9ccef2"] ;
534 -> 535 ;
536 [label="volatile acidity <= 0.506\nentropy = 0.918\nsamples = 3\nvalue = [2, 1]", fillcolor="#f2c09c"] ;
535 -> 536 ;
537 [label="entropy = 0.0\nsamples = 2\nvalue = [2, 0]", fillcolor="#e58139"] ;
536 -> 537 ;
538 [label="entropy = 0.0\nsamples = 1\nvalue = [0, 1]", fillcolor="#399de5"] ;
536 -> 538 ;
539 [label="entropy = 0.0\nsamples = 3\nvalue = [0, 3]", fillcolor="#399de5"] ;
535 -> 539 ;
540 [label="volatile acidity <= 0.838\nentropy = 0.722\nsamples = 5\nvalue = [4, 1]", fillcolor="#eca06a"] ;
534 -> 540 ;
541 [label="entropy = 0.0\nsamples = 3\nvalue = [3, 0]", fillcolor="#e58139"] ;
540 -> 541 ;
542 [label="chlorides <= 0.064\nentropy = 1.0\nsamples = 2\nvalue = [1, 1]", fillcolor="#ffffff"] ;
540 -> 542 ;
543 [label="entropy = 0.0\nsamples = 1\nvalue = [1, 0]", fillcolor="#e58139"] ;
542 -> 543 ;
544 [label="entropy = 0.0\nsamples = 1\nvalue = [0, 1]", fillcolor="#399de5"] ;
542 -> 544 ;
545 [label="entropy = 0.0\nsamples = 3\nvalue = [3, 0]", fillcolor="#e58139"] ;
533 -> 545 ;
546 [label="density <= 0.996\nentropy = 0.977\nsamples = 51\nvalue = [21, 30]", fillcolor="#c4e2f7"] ;
532 -> 546 ;
547 [label="alcohol <= 10.785\nentropy = 0.877\nsamples = 27\nvalue = [8, 19]", fillcolor="#8cc6f0"] ;
546 -> 547 ;
548 [label="entropy = 0.0\nsamples = 7\nvalue = [0, 7]", fillcolor="#399de5"] ;
547 -> 548 ;
549 [label="total sulfur dioxide <= 37.922\nentropy = 0.971\nsamples = 20\nvalue = [8, 12]", fillcolor="#bddef6"] ;
547 -> 549 ;
550 [label="citric acid <= 0.084\nentropy = 0.779\nsamples = 13\nvalue = [3, 10]", fillcolor="#74baed"] ;
549 -> 550 ;
551 [label="entropy = 0.0\nsamples = 6\nvalue = [0, 6]", fillcolor="#399de5"] ;
550 -> 551 ;
552 [label="fixed acidity <= 6.136\nentropy = 0.985\nsamples = 7\nvalue = [3, 4]", fillcolor="#cee6f8"] ;
550 -> 552 ;
553 [label="entropy = 0.0\nsamples = 2\nvalue = [0, 2]", fillcolor="#399de5"] ;
552 -> 553 ;
554 [label="total sulfur dioxide <= 27.803\nentropy = 0.971\nsamples = 5\nvalue = [3, 2]", fillcolor="#f6d5bd"] ;
552 -> 554 ;
555 [label="entropy = 0.0\nsamples = 1\nvalue = [0, 1]", fillcolor="#399de5"] ;
554 -> 555 ;
556 [label="sulphates <= 0.62\nentropy = 0.811\nsamples = 4\nvalue = [3, 1]", fillcolor="#eeab7b"] ;
554 -> 556 ;
557 [label="entropy = 0.0\nsamples = 3\nvalue = [3, 0]", fillcolor="#e58139"] ;
556 -> 557 ;
558 [label="entropy = 0.0\nsamples = 1\nvalue = [0, 1]", fillcolor="#399de5"] ;
556 -> 558 ;
559 [label="fixed acidity <= 6.422\nentropy = 0.863\nsamples = 7\nvalue = [5, 2]", fillcolor="#efb388"] ;
549 -> 559 ;
560 [label="chlorides <= 0.07\nentropy = 0.918\nsamples = 3\nvalue = [1, 2]", fillcolor="#9ccef2"] ;
559 -> 560 ;
561 [label="entropy = 0.0\nsamples = 2\nvalue = [0, 2]", fillcolor="#399de5"] ;
560 -> 561 ;
562 [label="entropy = 0.0\nsamples = 1\nvalue = [1, 0]", fillcolor="#e58139"] ;
560 -> 562 ;
563 [label="entropy = 0.0\nsamples = 4\nvalue = [4, 0]", fillcolor="#e58139"] ;
559 -> 563 ;
564 [label="volatile acidity <= 0.925\nentropy = 0.995\nsamples = 24\nvalue = [13, 11]", fillcolor="#fbece1"] ;
546 -> 564 ;
565 [label="free sulfur dioxide <= 15.31\nentropy = 1.0\nsamples = 22\nvalue = [11, 11]", fillcolor="#ffffff"] ;
564 -> 565 ;
566 [label="citric acid <= 0.091\nentropy = 0.94\nsamples = 14\nvalue = [9, 5]", fillcolor="#f3c7a7"] ;
565 -> 566 ;
567 [label="fixed acidity <= 6.792\nentropy = 0.811\nsamples = 4\nvalue = [1, 3]", fillcolor="#7bbeee"] ;
566 -> 567 ;
568 [label="residual sugar <= 2.475\nentropy = 1.0\nsamples = 2\nvalue = [1, 1]", fillcolor="#ffffff"] ;
567 -> 568 ;
569 [label="entropy = 0.0\nsamples = 1\nvalue = [0, 1]", fillcolor="#399de5"] ;
568 -> 569 ;
570 [label="entropy = 0.0\nsamples = 1\nvalue = [1, 0]", fillcolor="#e58139"] ;
568 -> 570 ;
571 [label="entropy = 0.0\nsamples = 2\nvalue = [0, 2]", fillcolor="#399de5"] ;
567 -> 571 ;
572 [label="sulphates <= 0.675\nentropy = 0.722\nsamples = 10\nvalue = [8, 2]", fillcolor="#eca06a"] ;
566 -> 572 ;
573 [label="total sulfur dioxide <= 38.747\nentropy = 0.971\nsamples = 5\nvalue = [3, 2]", fillcolor="#f6d5bd"] ;
572 -> 573 ;
574 [label="entropy = 0.0\nsamples = 2\nvalue = [2, 0]", fillcolor="#e58139"] ;
573 -> 574 ;
575 [label="total sulfur dioxide <= 42.268\nentropy = 0.918\nsamples = 3\nvalue = [1, 2]", fillcolor="#9ccef2"] ;
573 -> 575 ;
576 [label="entropy = 0.0\nsamples = 1\nvalue = [1, 0]", fillcolor="#e58139"] ;
575 -> 576 ;
577 [label="entropy = 0.0\nsamples = 2\nvalue = [0, 2]", fillcolor="#399de5"] ;
575 -> 577 ;
578 [label="entropy = 0.0\nsamples = 5\nvalue = [5, 0]", fillcolor="#e58139"] ;
572 -> 578 ;
579 [label="free sulfur dioxide <= 18.893\nentropy = 0.811\nsamples = 8\nvalue = [2, 6]", fillcolor="#7bbeee"] ;
565 -> 579 ;
580 [label="entropy = 0.0\nsamples = 2\nvalue = [0, 2]", fillcolor="#399de5"] ;
579 -> 580 ;
581 [label="fixed acidity <= 6.902\nentropy = 0.918\nsamples = 6\nvalue = [2, 4]", fillcolor="#9ccef2"] ;
579 -> 581 ;
582 [label="entropy = 0.0\nsamples = 2\nvalue = [0, 2]", fillcolor="#399de5"] ;
581 -> 582 ;
583 [label="fixed acidity <= 7.371\nentropy = 1.0\nsamples = 4\nvalue = [2, 2]", fillcolor="#ffffff"] ;
581 -> 583 ;
584 [label="entropy = 0.0\nsamples = 2\nvalue = [0, 2]", fillcolor="#399de5"] ;
583 -> 584 ;
585 [label="entropy = 0.0\nsamples = 2\nvalue = [2, 0]", fillcolor="#e58139"] ;
583 -> 585 ;
586 [label="entropy = 0.0\nsamples = 2\nvalue = [2, 0]", fillcolor="#e58139"] ;
564 -> 586 ;
587 [label="alcohol <= 10.707\nentropy = 0.544\nsamples = 16\nvalue = [2, 14]", fillcolor="#55abe9"] ;
531 -> 587 ;
588 [label="fixed acidity <= 6.234\nentropy = 1.0\nsamples = 4\nvalue = [2, 2]", fillcolor="#ffffff"] ;
587 -> 588 ;
589 [label="entropy = 0.0\nsamples = 2\nvalue = [2, 0]", fillcolor="#e58139"] ;
588 -> 589 ;
590 [label="entropy = 0.0\nsamples = 2\nvalue = [0, 2]", fillcolor="#399de5"] ;
588 -> 590 ;
591 [label="entropy = 0.0\nsamples = 12\nvalue = [0, 12]", fillcolor="#399de5"] ;
587 -> 591 ;
592 [label="alcohol <= 10.645\nentropy = 0.592\nsamples = 14\nvalue = [2, 12]", fillcolor="#5aade9"] ;
530 -> 592 ;
593 [label="entropy = 0.0\nsamples = 2\nvalue = [2, 0]", fillcolor="#e58139"] ;
592 -> 593 ;
594 [label="entropy = 0.0\nsamples = 12\nvalue = [0, 12]", fillcolor="#399de5"] ;
592 -> 594 ;
595 [label="entropy = 0.0\nsamples = 3\nvalue = [3, 0]", fillcolor="#e58139"] ;
529 -> 595 ;
596 [label="entropy = 0.0\nsamples = 5\nvalue = [5, 0]", fillcolor="#e58139"] ;
528 -> 596 ;
597 [label="entropy = 0.0\nsamples = 6\nvalue = [6, 0]", fillcolor="#e58139"] ;
527 -> 597 ;
598 [label="citric acid <= 0.298\nentropy = 0.388\nsamples = 158\nvalue = [12, 146]", fillcolor="#49a5e7"] ;
2 -> 598 ;
599 [label="sulphates <= 0.646\nentropy = 0.627\nsamples = 51\nvalue = [8, 43]", fillcolor="#5eafea"] ;
598 -> 599 ;
600 [label="sulphates <= 0.535\nentropy = 0.732\nsamples = 39\nvalue = [8, 31]", fillcolor="#6cb6ec"] ;
599 -> 600 ;
601 [label="sulphates <= 0.397\nentropy = 1.0\nsamples = 10\nvalue = [5, 5]", fillcolor="#ffffff"] ;
600 -> 601 ;
602 [label="entropy = 0.0\nsamples = 2\nvalue = [0, 2]", fillcolor="#399de5"] ;
601 -> 602 ;
603 [label="pH <= 3.513\nentropy = 0.954\nsamples = 8\nvalue = [5, 3]", fillcolor="#f5cdb0"] ;
601 -> 603 ;
604 [label="alcohol <= 11.851\nentropy = 1.0\nsamples = 6\nvalue = [3, 3]", fillcolor="#ffffff"] ;
603 -> 604 ;
605 [label="alcohol <= 11.782\nentropy = 0.811\nsamples = 4\nvalue = [3, 1]", fillcolor="#eeab7b"] ;
604 -> 605 ;
606 [label="entropy = 0.0\nsamples = 3\nvalue = [3, 0]", fillcolor="#e58139"] ;
605 -> 606 ;
607 [label="entropy = 0.0\nsamples = 1\nvalue = [0, 1]", fillcolor="#399de5"] ;
605 -> 607 ;
608 [label="entropy = 0.0\nsamples = 2\nvalue = [0, 2]", fillcolor="#399de5"] ;
604 -> 608 ;
609 [label="entropy = 0.0\nsamples = 2\nvalue = [2, 0]", fillcolor="#e58139"] ;
603 -> 609 ;
610 [label="volatile acidity <= 1.035\nentropy = 0.48\nsamples = 29\nvalue = [3, 26]", fillcolor="#50a8e8"] ;
600 -> 610 ;
611 [label="free sulfur dioxide <= 18.049\nentropy = 0.371\nsamples = 28\nvalue = [2, 26]", fillcolor="#48a5e7"] ;
610 -> 611 ;
612 [label="free sulfur dioxide <= 12.002\nentropy = 0.523\nsamples = 17\nvalue = [2, 15]", fillcolor="#53aae8"] ;
611 -> 612 ;
613 [label="free sulfur dioxide <= 3.181\nentropy = 0.684\nsamples = 11\nvalue = [2, 9]", fillcolor="#65b3eb"] ;
612 -> 613 ;
614 [label="entropy = 0.0\nsamples = 1\nvalue = [1, 0]", fillcolor="#e58139"] ;
613 -> 614 ;
615 [label="alcohol <= 11.83\nentropy = 0.469\nsamples = 10\nvalue = [1, 9]", fillcolor="#4fa8e8"] ;
613 -> 615 ;
616 [label="entropy = 0.0\nsamples = 7\nvalue = [0, 7]", fillcolor="#399de5"] ;
615 -> 616 ;
617 [label="pH <= 3.562\nentropy = 0.918\nsamples = 3\nvalue = [1, 2]", fillcolor="#9ccef2"] ;
615 -> 617 ;
618 [label="entropy = 0.0\nsamples = 2\nvalue = [0, 2]", fillcolor="#399de5"] ;
617 -> 618 ;
619 [label="entropy = 0.0\nsamples = 1\nvalue = [1, 0]", fillcolor="#e58139"] ;
617 -> 619 ;
620 [label="entropy = 0.0\nsamples = 6\nvalue = [0, 6]", fillcolor="#399de5"] ;
612 -> 620 ;
621 [label="entropy = 0.0\nsamples = 11\nvalue = [0, 11]", fillcolor="#399de5"] ;
611 -> 621 ;
622 [label="entropy = 0.0\nsamples = 1\nvalue = [1, 0]", fillcolor="#e58139"] ;
610 -> 622 ;
623 [label="entropy = 0.0\nsamples = 12\nvalue = [0, 12]", fillcolor="#399de5"] ;
599 -> 623 ;
624 [label="total sulfur dioxide <= 48.693\nentropy = 0.23\nsamples = 107\nvalue = [4, 103]", fillcolor="#41a1e6"] ;
598 -> 624 ;
625 [label="residual sugar <= 4.383\nentropy = 0.271\nsamples = 86\nvalue = [4, 82]", fillcolor="#43a2e6"] ;
624 -> 625 ;
626 [label="total sulfur dioxide <= 18.151\nentropy = 0.179\nsamples = 74\nvalue = [2, 72]", fillcolor="#3ea0e6"] ;
625 -> 626 ;
627 [label="entropy = 0.0\nsamples = 32\nvalue = [0, 32]", fillcolor="#399de5"] ;
626 -> 627 ;
628 [label="sulphates <= 0.707\nentropy = 0.276\nsamples = 42\nvalue = [2, 40]", fillcolor="#43a2e6"] ;
626 -> 628 ;
629 [label="total sulfur dioxide <= 24.163\nentropy = 0.567\nsamples = 15\nvalue = [2, 13]", fillcolor="#57ace9"] ;
628 -> 629 ;
630 [label="entropy = 0.0\nsamples = 6\nvalue = [0, 6]", fillcolor="#399de5"] ;
629 -> 630 ;
631 [label="citric acid <= 0.618\nentropy = 0.764\nsamples = 9\nvalue = [2, 7]", fillcolor="#72b9ec"] ;
629 -> 631 ;
632 [label="chlorides <= 0.061\nentropy = 0.544\nsamples = 8\nvalue = [1, 7]", fillcolor="#55abe9"] ;
631 -> 632 ;
633 [label="volatile acidity <= 0.366\nentropy = 1.0\nsamples = 2\nvalue = [1, 1]", fillcolor="#ffffff"] ;
632 -> 633 ;
634 [label="entropy = 0.0\nsamples = 1\nvalue = [1, 0]", fillcolor="#e58139"] ;
633 -> 634 ;
635 [label="entropy = 0.0\nsamples = 1\nvalue = [0, 1]", fillcolor="#399de5"] ;
633 -> 635 ;
636 [label="entropy = 0.0\nsamples = 6\nvalue = [0, 6]", fillcolor="#399de5"] ;
632 -> 636 ;
637 [label="entropy = 0.0\nsamples = 1\nvalue = [1, 0]", fillcolor="#e58139"] ;
631 -> 637 ;
638 [label="entropy = 0.0\nsamples = 27\nvalue = [0, 27]", fillcolor="#399de5"] ;
628 -> 638 ;
639 [label="alcohol <= 11.529\nentropy = 0.65\nsamples = 12\nvalue = [2, 10]", fillcolor="#61b1ea"] ;
625 -> 639 ;
640 [label="entropy = 0.0\nsamples = 1\nvalue = [1, 0]", fillcolor="#e58139"] ;
639 -> 640 ;
641 [label="sulphates <= 0.596\nentropy = 0.439\nsamples = 11\nvalue = [1, 10]", fillcolor="#4da7e8"] ;
639 -> 641 ;
642 [label="fixed acidity <= 8.754\nentropy = 0.811\nsamples = 4\nvalue = [1, 3]", fillcolor="#7bbeee"] ;
641 -> 642 ;
643 [label="entropy = 0.0\nsamples = 1\nvalue = [1, 0]", fillcolor="#e58139"] ;
642 -> 643 ;
644 [label="entropy = 0.0\nsamples = 3\nvalue = [0, 3]", fillcolor="#399de5"] ;
642 -> 644 ;
645 [label="entropy = 0.0\nsamples = 7\nvalue = [0, 7]", fillcolor="#399de5"] ;
641 -> 645 ;
646 [label="entropy = 0.0\nsamples = 21\nvalue = [0, 21]", fillcolor="#399de5"] ;
624 -> 646 ;
647 [label="alcohol <= 13.125\nentropy = 0.426\nsamples = 69\nvalue = [6, 63]", fillcolor="#4ca6e7"] ;
1 -> 647 ;
648 [label="alcohol <= 12.959\nentropy = 0.523\nsamples = 51\nvalue = [6, 45]", fillcolor="#53aae8"] ;
647 -> 648 ;
649 [label="sulphates <= 0.63\nentropy = 0.348\nsamples = 46\nvalue = [3, 43]", fillcolor="#47a4e7"] ;
648 -> 649 ;
650 [label="alcohol <= 12.571\nentropy = 0.65\nsamples = 18\nvalue = [3, 15]", fillcolor="#61b1ea"] ;
649 -> 650 ;
651 [label="entropy = 0.0\nsamples = 4\nvalue = [0, 4]", fillcolor="#399de5"] ;
650 -> 651 ;
652 [label="residual sugar <= 3.333\nentropy = 0.75\nsamples = 14\nvalue = [3, 11]", fillcolor="#6fb8ec"] ;
650 -> 652 ;
653 [label="density <= 0.994\nentropy = 0.619\nsamples = 13\nvalue = [2, 11]", fillcolor="#5dafea"] ;
652 -> 653 ;
654 [label="volatile acidity <= 0.466\nentropy = 0.722\nsamples = 10\nvalue = [2, 8]", fillcolor="#6ab6ec"] ;
653 -> 654 ;
655 [label="entropy = 0.0\nsamples = 3\nvalue = [0, 3]", fillcolor="#399de5"] ;
654 -> 655 ;
656 [label="citric acid <= 0.191\nentropy = 0.863\nsamples = 7\nvalue = [2, 5]", fillcolor="#88c4ef"] ;
654 -> 656 ;
657 [label="chlorides <= 0.063\nentropy = 0.65\nsamples = 6\nvalue = [1, 5]", fillcolor="#61b1ea"] ;
656 -> 657 ;
658 [label="entropy = 0.0\nsamples = 4\nvalue = [0, 4]", fillcolor="#399de5"] ;
657 -> 658 ;
659 [label="citric acid <= 0.134\nentropy = 1.0\nsamples = 2\nvalue = [1, 1]", fillcolor="#ffffff"] ;
657 -> 659 ;
660 [label="entropy = 0.0\nsamples = 1\nvalue = [1, 0]", fillcolor="#e58139"] ;
659 -> 660 ;
661 [label="entropy = 0.0\nsamples = 1\nvalue = [0, 1]", fillcolor="#399de5"] ;
659 -> 661 ;
662 [label="entropy = 0.0\nsamples = 1\nvalue = [1, 0]", fillcolor="#e58139"] ;
656 -> 662 ;
663 [label="entropy = 0.0\nsamples = 3\nvalue = [0, 3]", fillcolor="#399de5"] ;
653 -> 663 ;
664 [label="entropy = 0.0\nsamples = 1\nvalue = [1, 0]", fillcolor="#e58139"] ;
652 -> 664 ;
665 [label="entropy = 0.0\nsamples = 28\nvalue = [0, 28]", fillcolor="#399de5"] ;
649 -> 665 ;
666 [label="total sulfur dioxide <= 41.047\nentropy = 0.971\nsamples = 5\nvalue = [3, 2]", fillcolor="#f6d5bd"] ;
648 -> 666 ;
667 [label="entropy = 0.0\nsamples = 2\nvalue = [0, 2]", fillcolor="#399de5"] ;
666 -> 667 ;
668 [label="entropy = 0.0\nsamples = 3\nvalue = [3, 0]", fillcolor="#e58139"] ;
666 -> 668 ;
669 [label="entropy = 0.0\nsamples = 18\nvalue = [0, 18]", fillcolor="#399de5"] ;
647 -> 669 ;
670 [label="volatile acidity <= 0.216\nentropy = 0.461\nsamples = 82\nvalue = [74, 8]", fillcolor="#e88f4e"] ;
0 -> 670 [labeldistance=2.5, labelangle=-45, headlabel="False"] ;
671 [label="entropy = 0.0\nsamples = 1\nvalue = [0, 1]", fillcolor="#399de5"] ;
670 -> 671 ;
672 [label="density <= 0.994\nentropy = 0.424\nsamples = 81\nvalue = [74, 7]", fillcolor="#e78d4c"] ;
670 -> 672 ;
673 [label="entropy = 0.0\nsamples = 2\nvalue = [0, 2]", fillcolor="#399de5"] ;
672 -> 673 ;
674 [label="citric acid <= 0.403\nentropy = 0.34\nsamples = 79\nvalue = [74, 5]", fillcolor="#e78a46"] ;
672 -> 674 ;
675 [label="pH <= 3.087\nentropy = 0.419\nsamples = 59\nvalue = [54, 5]", fillcolor="#e78d4b"] ;
674 -> 675 ;
676 [label="alcohol <= 9.647\nentropy = 1.0\nsamples = 4\nvalue = [2, 2]", fillcolor="#ffffff"] ;
675 -> 676 ;
677 [label="entropy = 0.0\nsamples = 1\nvalue = [1, 0]", fillcolor="#e58139"] ;
676 -> 677 ;
678 [label="residual sugar <= 1.936\nentropy = 0.918\nsamples = 3\nvalue = [1, 2]", fillcolor="#9ccef2"] ;
676 -> 678 ;
679 [label="entropy = 0.0\nsamples = 2\nvalue = [0, 2]", fillcolor="#399de5"] ;
678 -> 679 ;
680 [label="entropy = 0.0\nsamples = 1\nvalue = [1, 0]", fillcolor="#e58139"] ;
678 -> 680 ;
681 [label="residual sugar <= 8.032\nentropy = 0.305\nsamples = 55\nvalue = [52, 3]", fillcolor="#e68844"] ;
675 -> 681 ;
682 [label="total sulfur dioxide <= 122.79\nentropy = 0.137\nsamples = 52\nvalue = [51, 1]", fillcolor="#e6833d"] ;
681 -> 682 ;
683 [label="total sulfur dioxide <= 114.869\nentropy = 0.222\nsamples = 28\nvalue = [27, 1]", fillcolor="#e68640"] ;
682 -> 683 ;
684 [label="citric acid <= 0.21\nentropy = 0.391\nsamples = 13\nvalue = [12, 1]", fillcolor="#e78c49"] ;
683 -> 684 ;
685 [label="entropy = 0.0\nsamples = 7\nvalue = [7, 0]", fillcolor="#e58139"] ;
684 -> 685 ;
686 [label="total sulfur dioxide <= 112.797\nentropy = 0.65\nsamples = 6\nvalue = [5, 1]", fillcolor="#ea9a61"] ;
684 -> 686 ;
687 [label="entropy = 0.0\nsamples = 4\nvalue = [4, 0]", fillcolor="#e58139"] ;
686 -> 687 ;
688 [label="sulphates <= 0.634\nentropy = 1.0\nsamples = 2\nvalue = [1, 1]", fillcolor="#ffffff"] ;
686 -> 688 ;
689 [label="entropy = 0.0\nsamples = 1\nvalue = [0, 1]", fillcolor="#399de5"] ;
688 -> 689 ;
690 [label="entropy = 0.0\nsamples = 1\nvalue = [1, 0]", fillcolor="#e58139"] ;
688 -> 690 ;
691 [label="entropy = 0.0\nsamples = 15\nvalue = [15, 0]", fillcolor="#e58139"] ;
683 -> 691 ;
692 [label="entropy = 0.0\nsamples = 24\nvalue = [24, 0]", fillcolor="#e58139"] ;
682 -> 692 ;
693 [label="chlorides <= 0.065\nentropy = 0.918\nsamples = 3\nvalue = [1, 2]", fillcolor="#9ccef2"] ;
681 -> 693 ;
694 [label="entropy = 0.0\nsamples = 1\nvalue = [1, 0]", fillcolor="#e58139"] ;
693 -> 694 ;
695 [label="entropy = 0.0\nsamples = 2\nvalue = [0, 2]", fillcolor="#399de5"] ;
693 -> 695 ;
696 [label="entropy = 0.0\nsamples = 20\nvalue = [20, 0]", fillcolor="#e58139"] ;
674 -> 696 ;
}