digraph Tree {
node [shape=box, style="filled, rounded", color="black", fontname=helvetica] ;
edge [fontname=helvetica] ;
0 [label="alcohol <= 10.525\ngini = 0.498\nsamples = 1279\nvalue = [595, 684]", fillcolor="#e5f2fc"] ;
1 [label="sulphates <= 0.575\ngini = 0.467\nsamples = 779\nvalue = [489, 290]", fillcolor="#f4ccae"] ;
0 -> 1 [labeldistance=2.5, labelangle=45, headlabel="True"] ;
2 [label="alcohol <= 9.75\ngini = 0.335\nsamples = 305\nvalue = [240, 65]", fillcolor="#eca36f"] ;
1 -> 2 ;
3 [label="pH <= 3.54\ngini = 0.249\nsamples = 192\nvalue = [164, 28]", fillcolor="#e9975b"] ;
2 -> 3 ;
4 [label="volatile acidity <= 0.99\ngini = 0.23\nsamples = 189\nvalue = [164, 25]", fillcolor="#e99457"] ;
3 -> 4 ;
5 [label="volatile acidity <= 0.225\ngini = 0.217\nsamples = 186\nvalue = [163, 23]", fillcolor="#e99355"] ;
4 -> 5 ;
6 [label="gini = 0.0\nsamples = 1\nvalue = [0, 1]", fillcolor="#399de5"] ;
5 -> 6 ;
7 [label="residual sugar <= 9.3\ngini = 0.21\nsamples = 185\nvalue = [163, 22]", fillcolor="#e99254"] ;
5 -> 7 ;
8 [label="density <= 0.997\ngini = 0.202\nsamples = 184\nvalue = [163, 21]", fillcolor="#e89153"] ;
7 -> 8 ;
9 [label="residual sugar <= 4.75\ngini = 0.271\nsamples = 105\nvalue = [88, 17]", fillcolor="#ea995f"] ;
8 -> 9 ;
10 [label="density <= 0.997\ngini = 0.251\nsamples = 102\nvalue = [87, 15]", fillcolor="#e9975b"] ;
9 -> 10 ;
11 [label="sulphates <= 0.535\ngini = 0.239\nsamples = 101\nvalue = [87, 14]", fillcolor="#e99559"] ;
10 -> 11 ;
12 [label="volatile acidity <= 0.565\ngini = 0.128\nsamples = 58\nvalue = [54, 4]", fillcolor="#e78a48"] ;
11 -> 12 ;
13 [label="fixed acidity <= 7.75\ngini = 0.32\nsamples = 20\nvalue = [16, 4]", fillcolor="#eca06a"] ;
12 -> 13 ;
14 [label="residual sugar <= 2.45\ngini = 0.124\nsamples = 15\nvalue = [14, 1]", fillcolor="#e78a47"] ;
13 -> 14 ;
15 [label="gini = 0.0\nsamples = 14\nvalue = [14, 0]", fillcolor="#e58139"] ;
14 -> 15 ;
16 [label="gini = 0.0\nsamples = 1\nvalue = [0, 1]", fillcolor="#399de5"] ;
14 -> 16 ;
17 [label="citric acid <= 0.295\ngini = 0.48\nsamples = 5\nvalue = [2, 3]", fillcolor="#bddef6"] ;
13 -> 17 ;
18 [label="gini = 0.0\nsamples = 3\nvalue = [0, 3]", fillcolor="#399de5"] ;
17 -> 18 ;
19 [label="gini = 0.0\nsamples = 2\nvalue = [2, 0]", fillcolor="#e58139"] ;
17 -> 19 ;
20 [label="gini = 0.0\nsamples = 38\nvalue = [38, 0]", fillcolor="#e58139"] ;
12 -> 20 ;
21 [label="free sulfur dioxide <= 8.5\ngini = 0.357\nsamples = 43\nvalue = [33, 10]", fillcolor="#eda775"] ;
11 -> 21 ;
22 [label="gini = 0.0\nsamples = 10\nvalue = [10, 0]", fillcolor="#e58139"] ;
21 -> 22 ;
23 [label="fixed acidity <= 7.05\ngini = 0.422\nsamples = 33\nvalue = [23, 10]", fillcolor="#f0b88f"] ;
21 -> 23 ;
24 [label="volatile acidity <= 0.425\ngini = 0.444\nsamples = 6\nvalue = [2, 4]", fillcolor="#9ccef2"] ;
23 -> 24 ;
25 [label="total sulfur dioxide <= 50.5\ngini = 0.444\nsamples = 3\nvalue = [2, 1]", fillcolor="#f2c09c"] ;
24 -> 25 ;
26 [label="gini = 0.0\nsamples = 2\nvalue = [2, 0]", fillcolor="#e58139"] ;
25 -> 26 ;
27 [label="gini = 0.0\nsamples = 1\nvalue = [0, 1]", fillcolor="#399de5"] ;
25 -> 27 ;
28 [label="gini = 0.0\nsamples = 3\nvalue = [0, 3]", fillcolor="#399de5"] ;
24 -> 28 ;
29 [label="chlorides <= 0.078\ngini = 0.346\nsamples = 27\nvalue = [21, 6]", fillcolor="#eca572"] ;
23 -> 29 ;
30 [label="volatile acidity <= 0.74\ngini = 0.48\nsamples = 15\nvalue = [9, 6]", fillcolor="#f6d5bd"] ;
29 -> 30 ;
31 [label="alcohol <= 9.35\ngini = 0.496\nsamples = 11\nvalue = [5, 6]", fillcolor="#deeffb"] ;
30 -> 31 ;
32 [label="gini = 0.0\nsamples = 2\nvalue = [2, 0]", fillcolor="#e58139"] ;
31 -> 32 ;
33 [label="citric acid <= 0.32\ngini = 0.444\nsamples = 9\nvalue = [3, 6]", fillcolor="#9ccef2"] ;
31 -> 33 ;
34 [label="alcohol <= 9.6\ngini = 0.245\nsamples = 7\nvalue = [1, 6]", fillcolor="#5aade9"] ;
33 -> 34 ;
35 [label="gini = 0.0\nsamples = 6\nvalue = [0, 6]", fillcolor="#399de5"] ;
34 -> 35 ;
36 [label="gini = 0.0\nsamples = 1\nvalue = [1, 0]", fillcolor="#e58139"] ;
34 -> 36 ;
37 [label="gini = 0.0\nsamples = 2\nvalue = [2, 0]", fillcolor="#e58139"] ;
33 -> 37 ;
38 [label="gini = 0.0\nsamples = 4\nvalue = [4, 0]", fillcolor="#e58139"] ;
30 -> 38 ;
39 [label="gini = 0.0\nsamples = 12\nvalue = [12, 0]", fillcolor="#e58139"] ;
29 -> 39 ;
40 [label="gini = 0.0\nsamples = 1\nvalue = [0, 1]", fillcolor="#399de5"] ;
10 -> 40 ;
41 [label="volatile acidity <= 0.713\ngini = 0.444\nsamples = 3\nvalue = [1, 2]", fillcolor="#9ccef2"] ;
9 -> 41 ;
42 [label="gini = 0.0\nsamples = 1\nvalue = [1, 0]", fillcolor="#e58139"] ;
41 -> 42 ;
43 [label="gini = 0.0\nsamples = 2\nvalue = [0, 2]", fillcolor="#399de5"] ;
41 -> 43 ;
44 [label="alcohol <= 9.05\ngini = 0.096\nsamples = 79\nvalue = [75, 4]", fillcolor="#e68844"] ;
8 -> 44 ;
45 [label="volatile acidity <= 0.52\ngini = 0.444\nsamples = 6\nvalue = [4, 2]", fillcolor="#f2c09c"] ;
44 -> 45 ;
46 [label="citric acid <= 0.55\ngini = 0.444\nsamples = 3\nvalue = [1, 2]", fillcolor="#9ccef2"] ;
45 -> 46 ;
47 [label="gini = 0.0\nsamples = 2\nvalue = [0, 2]", fillcolor="#399de5"] ;
46 -> 47 ;
48 [label="gini = 0.0\nsamples = 1\nvalue = [1, 0]", fillcolor="#e58139"] ;
46 -> 48 ;
49 [label="gini = 0.0\nsamples = 3\nvalue = [3, 0]", fillcolor="#e58139"] ;
45 -> 49 ;
50 [label="density <= 0.999\ngini = 0.053\nsamples = 73\nvalue = [71, 2]", fillcolor="#e6853f"] ;
44 -> 50 ;
51 [label="gini = 0.0\nsamples = 57\nvalue = [57, 0]", fillcolor="#e58139"] ;
50 -> 51 ;
52 [label="citric acid <= 0.125\ngini = 0.219\nsamples = 16\nvalue = [14, 2]", fillcolor="#e99355"] ;
50 -> 52 ;
53 [label="chlorides <= 0.085\ngini = 0.444\nsamples = 3\nvalue = [1, 2]", fillcolor="#9ccef2"] ;
52 -> 53 ;
54 [label="gini = 0.0\nsamples = 1\nvalue = [1, 0]", fillcolor="#e58139"] ;
53 -> 54 ;
55 [label="gini = 0.0\nsamples = 2\nvalue = [0, 2]", fillcolor="#399de5"] ;
53 -> 55 ;
56 [label="gini = 0.0\nsamples = 13\nvalue = [13, 0]", fillcolor="#e58139"] ;
52 -> 56 ;
57 [label="gini = 0.0\nsamples = 1\nvalue = [0, 1]", fillcolor="#399de5"] ;
7 -> 57 ;
58 [label="fixed acidity <= 7.75\ngini = 0.444\nsamples = 3\nvalue = [1, 2]", fillcolor="#9ccef2"] ;
4 -> 58 ;
59 [label="gini = 0.0\nsamples = 1\nvalue = [1, 0]", fillcolor="#e58139"] ;
58 -> 59 ;
60 [label="gini = 0.0\nsamples = 2\nvalue = [0, 2]", fillcolor="#399de5"] ;
58 -> 60 ;
61 [label="gini = 0.0\nsamples = 3\nvalue = [0, 3]", fillcolor="#399de5"] ;
3 -> 61 ;
62 [label="sulphates <= 0.545\ngini = 0.44\nsamples = 113\nvalue = [76, 37]", fillcolor="#f2be99"] ;
2 -> 62 ;
63 [label="volatile acidity <= 0.587\ngini = 0.36\nsamples = 85\nvalue = [65, 20]", fillcolor="#eda876"] ;
62 -> 63 ;
64 [label="sulphates <= 0.475\ngini = 0.49\nsamples = 35\nvalue = [20, 15]", fillcolor="#f8e0ce"] ;
63 -> 64 ;
65 [label="gini = 0.0\nsamples = 7\nvalue = [7, 0]", fillcolor="#e58139"] ;
64 -> 65 ;
66 [label="citric acid <= 0.075\ngini = 0.497\nsamples = 28\nvalue = [13, 15]", fillcolor="#e5f2fc"] ;
64 -> 66 ;
67 [label="gini = 0.0\nsamples = 4\nvalue = [0, 4]", fillcolor="#399de5"] ;
66 -> 67 ;
68 [label="volatile acidity <= 0.345\ngini = 0.497\nsamples = 24\nvalue = [13, 11]", fillcolor="#fbece1"] ;
66 -> 68 ;
69 [label="gini = 0.0\nsamples = 4\nvalue = [0, 4]", fillcolor="#399de5"] ;
68 -> 69 ;
70 [label="alcohol <= 9.95\ngini = 0.455\nsamples = 20\nvalue = [13, 7]", fillcolor="#f3c5a4"] ;
68 -> 70 ;
71 [label="free sulfur dioxide <= 7.5\ngini = 0.444\nsamples = 9\nvalue = [3, 6]", fillcolor="#9ccef2"] ;
70 -> 71 ;
72 [label="gini = 0.0\nsamples = 3\nvalue = [0, 3]", fillcolor="#399de5"] ;
71 -> 72 ;
73 [label="volatile acidity <= 0.505\ngini = 0.5\nsamples = 6\nvalue = [3, 3]", fillcolor="#ffffff"] ;
71 -> 73 ;
74 [label="gini = 0.0\nsamples = 2\nvalue = [0, 2]", fillcolor="#399de5"] ;
73 -> 74 ;
75 [label="citric acid <= 0.14\ngini = 0.375\nsamples = 4\nvalue = [3, 1]", fillcolor="#eeab7b"] ;
73 -> 75 ;
76 [label="gini = 0.0\nsamples = 1\nvalue = [0, 1]", fillcolor="#399de5"] ;
75 -> 76 ;
77 [label="gini = 0.0\nsamples = 3\nvalue = [3, 0]", fillcolor="#e58139"] ;
75 -> 77 ;
78 [label="chlorides <= 0.065\ngini = 0.165\nsamples = 11\nvalue = [10, 1]", fillcolor="#e88e4d"] ;
70 -> 78 ;
79 [label="total sulfur dioxide <= 18.5\ngini = 0.5\nsamples = 2\nvalue = [1, 1]", fillcolor="#ffffff"] ;
78 -> 79 ;
80 [label="gini = 0.0\nsamples = 1\nvalue = [1, 0]", fillcolor="#e58139"] ;
79 -> 80 ;
81 [label="gini = 0.0\nsamples = 1\nvalue = [0, 1]", fillcolor="#399de5"] ;
79 -> 81 ;
82 [label="gini = 0.0\nsamples = 9\nvalue = [9, 0]", fillcolor="#e58139"] ;
78 -> 82 ;
83 [label="sulphates <= 0.505\ngini = 0.18\nsamples = 50\nvalue = [45, 5]", fillcolor="#e88f4f"] ;
63 -> 83 ;
84 [label="free sulfur dioxide <= 14.5\ngini = 0.351\nsamples = 22\nvalue = [17, 5]", fillcolor="#eda673"] ;
83 -> 84 ;
85 [label="chlorides <= 0.054\ngini = 0.124\nsamples = 15\nvalue = [14, 1]", fillcolor="#e78a47"] ;
84 -> 85 ;
86 [label="free sulfur dioxide <= 4.0\ngini = 0.5\nsamples = 2\nvalue = [1, 1]", fillcolor="#ffffff"] ;
85 -> 86 ;
87 [label="gini = 0.0\nsamples = 1\nvalue = [1, 0]", fillcolor="#e58139"] ;
86 -> 87 ;
88 [label="gini = 0.0\nsamples = 1\nvalue = [0, 1]", fillcolor="#399de5"] ;
86 -> 88 ;
89 [label="gini = 0.0\nsamples = 13\nvalue = [13, 0]", fillcolor="#e58139"] ;
85 -> 89 ;
90 [label="density <= 0.996\ngini = 0.49\nsamples = 7\nvalue = [3, 4]", fillcolor="#cee6f8"] ;
84 -> 90 ;
91 [label="total sulfur dioxide <= 34.5\ngini = 0.375\nsamples = 4\nvalue = [3, 1]", fillcolor="#eeab7b"] ;
90 -> 91 ;
92 [label="gini = 0.0\nsamples = 1\nvalue = [0, 1]", fillcolor="#399de5"] ;
91 -> 92 ;
93 [label="gini = 0.0\nsamples = 3\nvalue = [3, 0]", fillcolor="#e58139"] ;
91 -> 93 ;
94 [label="gini = 0.0\nsamples = 3\nvalue = [0, 3]", fillcolor="#399de5"] ;
90 -> 94 ;
95 [label="gini = 0.0\nsamples = 28\nvalue = [28, 0]", fillcolor="#e58139"] ;
83 -> 95 ;
96 [label="sulphates <= 0.565\ngini = 0.477\nsamples = 28\nvalue = [11, 17]", fillcolor="#b9dcf6"] ;
62 -> 96 ;
97 [label="citric acid <= 0.34\ngini = 0.291\nsamples = 17\nvalue = [3, 14]", fillcolor="#63b2eb"] ;
96 -> 97 ;
98 [label="fixed acidity <= 6.7\ngini = 0.124\nsamples = 15\nvalue = [1, 14]", fillcolor="#47a4e7"] ;
97 -> 98 ;
99 [label="gini = 0.0\nsamples = 1\nvalue = [1, 0]", fillcolor="#e58139"] ;
98 -> 99 ;
100 [label="gini = 0.0\nsamples = 14\nvalue = [0, 14]", fillcolor="#399de5"] ;
98 -> 100 ;
101 [label="gini = 0.0\nsamples = 2\nvalue = [2, 0]", fillcolor="#e58139"] ;
97 -> 101 ;
102 [label="residual sugar <= 2.65\ngini = 0.397\nsamples = 11\nvalue = [8, 3]", fillcolor="#efb083"] ;
96 -> 102 ;
103 [label="gini = 0.0\nsamples = 7\nvalue = [7, 0]", fillcolor="#e58139"] ;
102 -> 103 ;
104 [label="density <= 0.998\ngini = 0.375\nsamples = 4\nvalue = [1, 3]", fillcolor="#7bbeee"] ;
102 -> 104 ;
105 [label="gini = 0.0\nsamples = 3\nvalue = [0, 3]", fillcolor="#399de5"] ;
104 -> 105 ;
106 [label="gini = 0.0\nsamples = 1\nvalue = [1, 0]", fillcolor="#e58139"] ;
104 -> 106 ;
107 [label="total sulfur dioxide <= 81.5\ngini = 0.499\nsamples = 474\nvalue = [249, 225]", fillcolor="#fcf3ec"] ;
1 -> 107 ;
108 [label="volatile acidity <= 0.317\ngini = 0.494\nsamples = 385\nvalue = [172, 213]", fillcolor="#d9ecfa"] ;
107 -> 108 ;
109 [label="chlorides <= 0.089\ngini = 0.227\nsamples = 46\nvalue = [6, 40]", fillcolor="#57ace9"] ;
108 -> 109 ;
110 [label="density <= 1.002\ngini = 0.102\nsamples = 37\nvalue = [2, 35]", fillcolor="#44a3e6"] ;
109 -> 110 ;
111 [label="sulphates <= 0.625\ngini = 0.054\nsamples = 36\nvalue = [1, 35]", fillcolor="#3fa0e6"] ;
110 -> 111 ;
112 [label="residual sugar <= 2.15\ngini = 0.444\nsamples = 3\nvalue = [1, 2]", fillcolor="#9ccef2"] ;
111 -> 112 ;
113 [label="gini = 0.0\nsamples = 2\nvalue = [0, 2]", fillcolor="#399de5"] ;
112 -> 113 ;
114 [label="gini = 0.0\nsamples = 1\nvalue = [1, 0]", fillcolor="#e58139"] ;
112 -> 114 ;
115 [label="gini = 0.0\nsamples = 33\nvalue = [0, 33]", fillcolor="#399de5"] ;
111 -> 115 ;
116 [label="gini = 0.0\nsamples = 1\nvalue = [1, 0]", fillcolor="#e58139"] ;
110 -> 116 ;
117 [label="residual sugar <= 3.2\ngini = 0.494\nsamples = 9\nvalue = [4, 5]", fillcolor="#d7ebfa"] ;
109 -> 117 ;
118 [label="fixed acidity <= 8.3\ngini = 0.32\nsamples = 5\nvalue = [4, 1]", fillcolor="#eca06a"] ;
117 -> 118 ;
119 [label="gini = 0.0\nsamples = 1\nvalue = [0, 1]", fillcolor="#399de5"] ;
118 -> 119 ;
120 [label="gini = 0.0\nsamples = 4\nvalue = [4, 0]", fillcolor="#e58139"] ;
118 -> 120 ;
121 [label="gini = 0.0\nsamples = 4\nvalue = [0, 4]", fillcolor="#399de5"] ;
117 -> 121 ;
122 [label="volatile acidity <= 0.572\ngini = 0.5\nsamples = 339\nvalue = [166, 173]", fillcolor="#f7fbfe"] ;
108 -> 122 ;
123 [label="chlorides <= 0.096\ngini = 0.484\nsamples = 190\nvalue = [78, 112]", fillcolor="#c3e1f7"] ;
122 -> 123 ;
124 [label="free sulfur dioxide <= 4.5\ngini = 0.454\nsamples = 149\nvalue = [52, 97]", fillcolor="#a3d2f3"] ;
123 -> 124 ;
125 [label="chlorides <= 0.064\ngini = 0.198\nsamples = 9\nvalue = [8, 1]", fillcolor="#e89152"] ;
124 -> 125 ;
126 [label="gini = 0.0\nsamples = 1\nvalue = [0, 1]", fillcolor="#399de5"] ;
125 -> 126 ;
127 [label="gini = 0.0\nsamples = 8\nvalue = [8, 0]", fillcolor="#e58139"] ;
125 -> 127 ;
128 [label="sulphates <= 0.685\ngini = 0.431\nsamples = 140\nvalue = [44, 96]", fillcolor="#94caf1"] ;
124 -> 128 ;
129 [label="free sulfur dioxide <= 6.5\ngini = 0.477\nsamples = 97\nvalue = [38, 59]", fillcolor="#b9dcf6"] ;
128 -> 129 ;
130 [label="total sulfur dioxide <= 13.5\ngini = 0.142\nsamples = 13\nvalue = [1, 12]", fillcolor="#49a5e7"] ;
129 -> 130 ;
131 [label="gini = 0.0\nsamples = 1\nvalue = [1, 0]", fillcolor="#e58139"] ;
130 -> 131 ;
132 [label="gini = 0.0\nsamples = 12\nvalue = [0, 12]", fillcolor="#399de5"] ;
130 -> 132 ;
133 [label="citric acid <= 0.065\ngini = 0.493\nsamples = 84\nvalue = [37, 47]", fillcolor="#d5eaf9"] ;
129 -> 133 ;
134 [label="gini = 0.0\nsamples = 6\nvalue = [0, 6]", fillcolor="#399de5"] ;
133 -> 134 ;
135 [label="chlorides <= 0.072\ngini = 0.499\nsamples = 78\nvalue = [37, 41]", fillcolor="#ecf5fc"] ;
133 -> 135 ;
136 [label="sulphates <= 0.645\ngini = 0.337\nsamples = 14\nvalue = [11, 3]", fillcolor="#eca36f"] ;
135 -> 136 ;
137 [label="gini = 0.0\nsamples = 10\nvalue = [10, 0]", fillcolor="#e58139"] ;
136 -> 137 ;
138 [label="fixed acidity <= 8.3\ngini = 0.375\nsamples = 4\nvalue = [1, 3]", fillcolor="#7bbeee"] ;
136 -> 138 ;
139 [label="gini = 0.0\nsamples = 3\nvalue = [0, 3]", fillcolor="#399de5"] ;
138 -> 139 ;
140 [label="gini = 0.0\nsamples = 1\nvalue = [1, 0]", fillcolor="#e58139"] ;
138 -> 140 ;
141 [label="pH <= 3.475\ngini = 0.482\nsamples = 64\nvalue = [26, 38]", fillcolor="#c0e0f7"] ;
135 -> 141 ;
142 [label="total sulfur dioxide <= 61.5\ngini = 0.444\nsamples = 51\nvalue = [17, 34]", fillcolor="#9ccef2"] ;
141 -> 142 ;
143 [label="chlorides <= 0.08\ngini = 0.485\nsamples = 41\nvalue = [17, 24]", fillcolor="#c5e2f7"] ;
142 -> 143 ;
144 [label="volatile acidity <= 0.45\ngini = 0.455\nsamples = 20\nvalue = [13, 7]", fillcolor="#f3c5a4"] ;
143 -> 144 ;
145 [label="gini = 0.0\nsamples = 8\nvalue = [8, 0]", fillcolor="#e58139"] ;
144 -> 145 ;
146 [label="free sulfur dioxide <= 11.5\ngini = 0.486\nsamples = 12\nvalue = [5, 7]", fillcolor="#c6e3f8"] ;
144 -> 146 ;
147 [label="gini = 0.0\nsamples = 3\nvalue = [3, 0]", fillcolor="#e58139"] ;
146 -> 147 ;
148 [label="total sulfur dioxide <= 57.5\ngini = 0.346\nsamples = 9\nvalue = [2, 7]", fillcolor="#72b9ec"] ;
146 -> 148 ;
149 [label="volatile acidity <= 0.548\ngini = 0.219\nsamples = 8\nvalue = [1, 7]", fillcolor="#55abe9"] ;
148 -> 149 ;
150 [label="gini = 0.0\nsamples = 6\nvalue = [0, 6]", fillcolor="#399de5"] ;
149 -> 150 ;
151 [label="total sulfur dioxide <= 37.5\ngini = 0.5\nsamples = 2\nvalue = [1, 1]", fillcolor="#ffffff"] ;
149 -> 151 ;
152 [label="gini = 0.0\nsamples = 1\nvalue = [0, 1]", fillcolor="#399de5"] ;
151 -> 152 ;
153 [label="gini = 0.0\nsamples = 1\nvalue = [1, 0]", fillcolor="#e58139"] ;
151 -> 153 ;
154 [label="gini = 0.0\nsamples = 1\nvalue = [1, 0]", fillcolor="#e58139"] ;
148 -> 154 ;
155 [label="density <= 1.0\ngini = 0.308\nsamples = 21\nvalue = [4, 17]", fillcolor="#68b4eb"] ;
143 -> 155 ;
156 [label="citric acid <= 0.11\ngini = 0.111\nsamples = 17\nvalue = [1, 16]", fillcolor="#45a3e7"] ;
155 -> 156 ;
157 [label="total sulfur dioxide <= 37.5\ngini = 0.5\nsamples = 2\nvalue = [1, 1]", fillcolor="#ffffff"] ;
156 -> 157 ;
158 [label="gini = 0.0\nsamples = 1\nvalue = [0, 1]", fillcolor="#399de5"] ;
157 -> 158 ;
159 [label="gini = 0.0\nsamples = 1\nvalue = [1, 0]", fillcolor="#e58139"] ;
157 -> 159 ;
160 [label="gini = 0.0\nsamples = 15\nvalue = [0, 15]", fillcolor="#399de5"] ;
156 -> 160 ;
161 [label="volatile acidity <= 0.39\ngini = 0.375\nsamples = 4\nvalue = [3, 1]", fillcolor="#eeab7b"] ;
155 -> 161 ;
162 [label="gini = 0.0\nsamples = 1\nvalue = [0, 1]", fillcolor="#399de5"] ;
161 -> 162 ;
163 [label="gini = 0.0\nsamples = 3\nvalue = [3, 0]", fillcolor="#e58139"] ;
161 -> 163 ;
164 [label="gini = 0.0\nsamples = 10\nvalue = [0, 10]", fillcolor="#399de5"] ;
142 -> 164 ;
165 [label="pH <= 3.56\ngini = 0.426\nsamples = 13\nvalue = [9, 4]", fillcolor="#f1b991"] ;
141 -> 165 ;
166 [label="residual sugar <= 2.75\ngini = 0.18\nsamples = 10\nvalue = [9, 1]", fillcolor="#e88f4f"] ;
165 -> 166 ;
167 [label="gini = 0.0\nsamples = 9\nvalue = [9, 0]", fillcolor="#e58139"] ;
166 -> 167 ;
168 [label="gini = 0.0\nsamples = 1\nvalue = [0, 1]", fillcolor="#399de5"] ;
166 -> 168 ;
169 [label="gini = 0.0\nsamples = 3\nvalue = [0, 3]", fillcolor="#399de5"] ;
165 -> 169 ;
170 [label="total sulfur dioxide <= 16.5\ngini = 0.24\nsamples = 43\nvalue = [6, 37]", fillcolor="#59ade9"] ;
128 -> 170 ;
171 [label="gini = 0.0\nsamples = 2\nvalue = [2, 0]", fillcolor="#e58139"] ;
170 -> 171 ;
172 [label="free sulfur dioxide <= 33.0\ngini = 0.176\nsamples = 41\nvalue = [4, 37]", fillcolor="#4ea8e8"] ;
170 -> 172 ;
173 [label="chlorides <= 0.06\ngini = 0.139\nsamples = 40\nvalue = [3, 37]", fillcolor="#49a5e7"] ;
172 -> 173 ;
174 [label="gini = 0.0\nsamples = 1\nvalue = [1, 0]", fillcolor="#e58139"] ;
173 -> 174 ;
175 [label="citric acid <= 0.05\ngini = 0.097\nsamples = 39\nvalue = [2, 37]", fillcolor="#44a2e6"] ;
173 -> 175 ;
176 [label="pH <= 3.52\ngini = 0.5\nsamples = 2\nvalue = [1, 1]", fillcolor="#ffffff"] ;
175 -> 176 ;
177 [label="gini = 0.0\nsamples = 1\nvalue = [1, 0]", fillcolor="#e58139"] ;
176 -> 177 ;
178 [label="gini = 0.0\nsamples = 1\nvalue = [0, 1]", fillcolor="#399de5"] ;
176 -> 178 ;
179 [label="citric acid <= 0.565\ngini = 0.053\nsamples = 37\nvalue = [1, 36]", fillcolor="#3ea0e6"] ;
175 -> 179 ;
180 [label="gini = 0.0\nsamples = 35\nvalue = [0, 35]", fillcolor="#399de5"] ;
179 -> 180 ;
181 [label="alcohol <= 10.05\ngini = 0.5\nsamples = 2\nvalue = [1, 1]", fillcolor="#ffffff"] ;
179 -> 181 ;
182 [label="gini = 0.0\nsamples = 1\nvalue = [0, 1]", fillcolor="#399de5"] ;
181 -> 182 ;
183 [label="gini = 0.0\nsamples = 1\nvalue = [1, 0]", fillcolor="#e58139"] ;
181 -> 183 ;
184 [label="gini = 0.0\nsamples = 1\nvalue = [1, 0]", fillcolor="#e58139"] ;
172 -> 184 ;
185 [label="total sulfur dioxide <= 34.5\ngini = 0.464\nsamples = 41\nvalue = [26, 15]", fillcolor="#f4caab"] ;
123 -> 185 ;
186 [label="chlorides <= 0.164\ngini = 0.391\nsamples = 15\nvalue = [4, 11]", fillcolor="#81c1ee"] ;
185 -> 186 ;
187 [label="chlorides <= 0.12\ngini = 0.5\nsamples = 8\nvalue = [4, 4]", fillcolor="#ffffff"] ;
186 -> 187 ;
188 [label="alcohol <= 10.45\ngini = 0.32\nsamples = 5\nvalue = [1, 4]", fillcolor="#6ab6ec"] ;
187 -> 188 ;
189 [label="gini = 0.0\nsamples = 4\nvalue = [0, 4]", fillcolor="#399de5"] ;
188 -> 189 ;
190 [label="gini = 0.0\nsamples = 1\nvalue = [1, 0]", fillcolor="#e58139"] ;
188 -> 190 ;
191 [label="gini = 0.0\nsamples = 3\nvalue = [3, 0]", fillcolor="#e58139"] ;
187 -> 191 ;
192 [label="gini = 0.0\nsamples = 7\nvalue = [0, 7]", fillcolor="#399de5"] ;
186 -> 192 ;
193 [label="free sulfur dioxide <= 4.5\ngini = 0.26\nsamples = 26\nvalue = [22, 4]", fillcolor="#ea985d"] ;
185 -> 193 ;
194 [label="gini = 0.0\nsamples = 2\nvalue = [0, 2]", fillcolor="#399de5"] ;
193 -> 194 ;
195 [label="volatile acidity <= 0.33\ngini = 0.153\nsamples = 24\nvalue = [22, 2]", fillcolor="#e78c4b"] ;
193 -> 195 ;
196 [label="gini = 0.0\nsamples = 1\nvalue = [0, 1]", fillcolor="#399de5"] ;
195 -> 196 ;
197 [label="density <= 0.996\ngini = 0.083\nsamples = 23\nvalue = [22, 1]", fillcolor="#e68742"] ;
195 -> 197 ;
198 [label="gini = 0.0\nsamples = 1\nvalue = [0, 1]", fillcolor="#399de5"] ;
197 -> 198 ;
199 [label="gini = 0.0\nsamples = 22\nvalue = [22, 0]", fillcolor="#e58139"] ;
197 -> 199 ;
200 [label="pH <= 3.535\ngini = 0.484\nsamples = 149\nvalue = [88, 61]", fillcolor="#f7d8c2"] ;
122 -> 200 ;
201 [label="residual sugar <= 1.75\ngini = 0.496\nsamples = 132\nvalue = [72, 60]", fillcolor="#fbeade"] ;
200 -> 201 ;
202 [label="citric acid <= 0.615\ngini = 0.255\nsamples = 20\nvalue = [17, 3]", fillcolor="#ea975c"] ;
201 -> 202 ;
203 [label="free sulfur dioxide <= 3.5\ngini = 0.188\nsamples = 19\nvalue = [17, 2]", fillcolor="#e89050"] ;
202 -> 203 ;
204 [label="gini = 0.0\nsamples = 1\nvalue = [0, 1]", fillcolor="#399de5"] ;
203 -> 204 ;
205 [label="citric acid <= 0.01\ngini = 0.105\nsamples = 18\nvalue = [17, 1]", fillcolor="#e78845"] ;
203 -> 205 ;
206 [label="volatile acidity <= 0.685\ngini = 0.5\nsamples = 2\nvalue = [1, 1]", fillcolor="#ffffff"] ;
205 -> 206 ;
207 [label="gini = 0.0\nsamples = 1\nvalue = [1, 0]", fillcolor="#e58139"] ;
206 -> 207 ;
208 [label="gini = 0.0\nsamples = 1\nvalue = [0, 1]", fillcolor="#399de5"] ;
206 -> 208 ;
209 [label="gini = 0.0\nsamples = 16\nvalue = [16, 0]", fillcolor="#e58139"] ;
205 -> 209 ;
210 [label="gini = 0.0\nsamples = 1\nvalue = [0, 1]", fillcolor="#399de5"] ;
202 -> 210 ;
211 [label="fixed acidity <= 11.0\ngini = 0.5\nsamples = 112\nvalue = [55, 57]", fillcolor="#f8fcfe"] ;
201 -> 211 ;
212 [label="pH <= 3.495\ngini = 0.499\nsamples = 105\nvalue = [55, 50]", fillcolor="#fdf4ed"] ;
211 -> 212 ;
213 [label="free sulfur dioxide <= 8.5\ngini = 0.494\nsamples = 99\nvalue = [55, 44]", fillcolor="#fae6d7"] ;
212 -> 213 ;
214 [label="citric acid <= 0.285\ngini = 0.459\nsamples = 28\nvalue = [10, 18]", fillcolor="#a7d3f3"] ;
213 -> 214 ;
215 [label="sulphates <= 0.585\ngini = 0.403\nsamples = 25\nvalue = [7, 18]", fillcolor="#86c3ef"] ;
214 -> 215 ;
216 [label="gini = 0.0\nsamples = 2\nvalue = [2, 0]", fillcolor="#e58139"] ;
215 -> 216 ;
217 [label="residual sugar <= 3.15\ngini = 0.34\nsamples = 23\nvalue = [5, 18]", fillcolor="#70b8ec"] ;
215 -> 217 ;
218 [label="pH <= 3.3\ngini = 0.298\nsamples = 22\nvalue = [4, 18]", fillcolor="#65b3eb"] ;
217 -> 218 ;
219 [label="total sulfur dioxide <= 29.5\ngini = 0.48\nsamples = 10\nvalue = [4, 6]", fillcolor="#bddef6"] ;
218 -> 219 ;
220 [label="chlorides <= 0.085\ngini = 0.49\nsamples = 7\nvalue = [4, 3]", fillcolor="#f8e0ce"] ;
219 -> 220 ;
221 [label="alcohol <= 9.65\ngini = 0.375\nsamples = 4\nvalue = [1, 3]", fillcolor="#7bbeee"] ;
220 -> 221 ;
222 [label="gini = 0.0\nsamples = 1\nvalue = [1, 0]", fillcolor="#e58139"] ;
221 -> 222 ;
223 [label="gini = 0.0\nsamples = 3\nvalue = [0, 3]", fillcolor="#399de5"] ;
221 -> 223 ;
224 [label="gini = 0.0\nsamples = 3\nvalue = [3, 0]", fillcolor="#e58139"] ;
220 -> 224 ;
225 [label="gini = 0.0\nsamples = 3\nvalue = [0, 3]", fillcolor="#399de5"] ;
219 -> 225 ;
226 [label="gini = 0.0\nsamples = 12\nvalue = [0, 12]", fillcolor="#399de5"] ;
218 -> 226 ;
227 [label="gini = 0.0\nsamples = 1\nvalue = [1, 0]", fillcolor="#e58139"] ;
217 -> 227 ;
228 [label="gini = 0.0\nsamples = 3\nvalue = [3, 0]", fillcolor="#e58139"] ;
214 -> 228 ;
229 [label="volatile acidity <= 0.655\ngini = 0.464\nsamples = 71\nvalue = [45, 26]", fillcolor="#f4caab"] ;
213 -> 229 ;
230 [label="citric acid <= 0.005\ngini = 0.499\nsamples = 40\nvalue = [21, 19]", fillcolor="#fdf3ec"] ;
229 -> 230 ;
231 [label="total sulfur dioxide <= 23.5\ngini = 0.219\nsamples = 8\nvalue = [1, 7]", fillcolor="#55abe9"] ;
230 -> 231 ;
232 [label="gini = 0.0\nsamples = 1\nvalue = [1, 0]", fillcolor="#e58139"] ;
231 -> 232 ;
233 [label="gini = 0.0\nsamples = 7\nvalue = [0, 7]", fillcolor="#399de5"] ;
231 -> 233 ;
234 [label="alcohol <= 10.05\ngini = 0.469\nsamples = 32\nvalue = [20, 12]", fillcolor="#f5cdb0"] ;
230 -> 234 ;
235 [label="total sulfur dioxide <= 70.5\ngini = 0.375\nsamples = 24\nvalue = [18, 6]", fillcolor="#eeab7b"] ;
234 -> 235 ;
236 [label="citric acid <= 0.135\ngini = 0.298\nsamples = 22\nvalue = [18, 4]", fillcolor="#eb9d65"] ;
235 -> 236 ;
237 [label="alcohol <= 9.75\ngini = 0.48\nsamples = 10\nvalue = [6, 4]", fillcolor="#f6d5bd"] ;
236 -> 237 ;
238 [label="citric acid <= 0.015\ngini = 0.32\nsamples = 5\nvalue = [1, 4]", fillcolor="#6ab6ec"] ;
237 -> 238 ;
239 [label="gini = 0.0\nsamples = 1\nvalue = [1, 0]", fillcolor="#e58139"] ;
238 -> 239 ;
240 [label="gini = 0.0\nsamples = 4\nvalue = [0, 4]", fillcolor="#399de5"] ;
238 -> 240 ;
241 [label="gini = 0.0\nsamples = 5\nvalue = [5, 0]", fillcolor="#e58139"] ;
237 -> 241 ;
242 [label="gini = 0.0\nsamples = 12\nvalue = [12, 0]", fillcolor="#e58139"] ;
236 -> 242 ;
243 [label="gini = 0.0\nsamples = 2\nvalue = [0, 2]", fillcolor="#399de5"] ;
235 -> 243 ;
244 [label="pH <= 3.425\ngini = 0.375\nsamples = 8\nvalue = [2, 6]", fillcolor="#7bbeee"] ;
234 -> 244 ;
245 [label="gini = 0.0\nsamples = 6\nvalue = [0, 6]", fillcolor="#399de5"] ;
244 -> 245 ;
246 [label="gini = 0.0\nsamples = 2\nvalue = [2, 0]", fillcolor="#e58139"] ;
244 -> 246 ;
247 [label="sulphates <= 0.825\ngini = 0.35\nsamples = 31\nvalue = [24, 7]", fillcolor="#eda673"] ;
229 -> 247 ;
248 [label="chlorides <= 0.066\ngini = 0.252\nsamples = 27\nvalue = [23, 4]", fillcolor="#ea975b"] ;
247 -> 248 ;
249 [label="gini = 0.0\nsamples = 1\nvalue = [0, 1]", fillcolor="#399de5"] ;
248 -> 249 ;
250 [label="volatile acidity <= 0.725\ngini = 0.204\nsamples = 26\nvalue = [23, 3]", fillcolor="#e89153"] ;
248 -> 250 ;
251 [label="gini = 0.0\nsamples = 15\nvalue = [15, 0]", fillcolor="#e58139"] ;
250 -> 251 ;
252 [label="chlorides <= 0.091\ngini = 0.397\nsamples = 11\nvalue = [8, 3]", fillcolor="#efb083"] ;
250 -> 252 ;
253 [label="gini = 0.0\nsamples = 6\nvalue = [6, 0]", fillcolor="#e58139"] ;
252 -> 253 ;
254 [label="citric acid <= 0.06\ngini = 0.48\nsamples = 5\nvalue = [2, 3]", fillcolor="#bddef6"] ;
252 -> 254 ;
255 [label="sulphates <= 0.625\ngini = 0.444\nsamples = 3\nvalue = [2, 1]", fillcolor="#f2c09c"] ;
254 -> 255 ;
256 [label="gini = 0.0\nsamples = 1\nvalue = [0, 1]", fillcolor="#399de5"] ;
255 -> 256 ;
257 [label="gini = 0.0\nsamples = 2\nvalue = [2, 0]", fillcolor="#e58139"] ;
255 -> 257 ;
258 [label="gini = 0.0\nsamples = 2\nvalue = [0, 2]", fillcolor="#399de5"] ;
254 -> 258 ;
259 [label="residual sugar <= 2.2\ngini = 0.375\nsamples = 4\nvalue = [1, 3]", fillcolor="#7bbeee"] ;
247 -> 259 ;
260 [label="gini = 0.0\nsamples = 1\nvalue = [1, 0]", fillcolor="#e58139"] ;
259 -> 260 ;
261 [label="gini = 0.0\nsamples = 3\nvalue = [0, 3]", fillcolor="#399de5"] ;
259 -> 261 ;
262 [label="gini = 0.0\nsamples = 6\nvalue = [0, 6]", fillcolor="#399de5"] ;
212 -> 262 ;
263 [label="gini = 0.0\nsamples = 7\nvalue = [0, 7]", fillcolor="#399de5"] ;
211 -> 263 ;
264 [label="sulphates <= 0.9\ngini = 0.111\nsamples = 17\nvalue = [16, 1]", fillcolor="#e78945"] ;
200 -> 264 ;
265 [label="gini = 0.0\nsamples = 16\nvalue = [16, 0]", fillcolor="#e58139"] ;
264 -> 265 ;
266 [label="gini = 0.0\nsamples = 1\nvalue = [0, 1]", fillcolor="#399de5"] ;
264 -> 266 ;
267 [label="total sulfur dioxide <= 106.5\ngini = 0.233\nsamples = 89\nvalue = [77, 12]", fillcolor="#e99558"] ;
107 -> 267 ;
268 [label="alcohol <= 9.45\ngini = 0.343\nsamples = 50\nvalue = [39, 11]", fillcolor="#eca571"] ;
267 -> 268 ;
269 [label="density <= 1.003\ngini = 0.091\nsamples = 21\nvalue = [20, 1]", fillcolor="#e68743"] ;
268 -> 269 ;
270 [label="gini = 0.0\nsamples = 20\nvalue = [20, 0]", fillcolor="#e58139"] ;
269 -> 270 ;
271 [label="gini = 0.0\nsamples = 1\nvalue = [0, 1]", fillcolor="#399de5"] ;
269 -> 271 ;
272 [label="density <= 0.998\ngini = 0.452\nsamples = 29\nvalue = [19, 10]", fillcolor="#f3c3a1"] ;
268 -> 272 ;
273 [label="density <= 0.996\ngini = 0.498\nsamples = 15\nvalue = [7, 8]", fillcolor="#e6f3fc"] ;
272 -> 273 ;
274 [label="gini = 0.0\nsamples = 3\nvalue = [3, 0]", fillcolor="#e58139"] ;
273 -> 274 ;
275 [label="chlorides <= 0.078\ngini = 0.444\nsamples = 12\nvalue = [4, 8]", fillcolor="#9ccef2"] ;
273 -> 275 ;
276 [label="pH <= 3.24\ngini = 0.444\nsamples = 6\nvalue = [4, 2]", fillcolor="#f2c09c"] ;
275 -> 276 ;
277 [label="gini = 0.0\nsamples = 2\nvalue = [0, 2]", fillcolor="#399de5"] ;
276 -> 277 ;
278 [label="gini = 0.0\nsamples = 4\nvalue = [4, 0]", fillcolor="#e58139"] ;
276 -> 278 ;
279 [label="gini = 0.0\nsamples = 6\nvalue = [0, 6]", fillcolor="#399de5"] ;
275 -> 279 ;
280 [label="alcohol <= 9.55\ngini = 0.245\nsamples = 14\nvalue = [12, 2]", fillcolor="#e9965a"] ;
272 -> 280 ;
281 [label="fixed acidity <= 8.65\ngini = 0.5\nsamples = 4\nvalue = [2, 2]", fillcolor="#ffffff"] ;
280 -> 281 ;
282 [label="gini = 0.0\nsamples = 2\nvalue = [2, 0]", fillcolor="#e58139"] ;
281 -> 282 ;
283 [label="gini = 0.0\nsamples = 2\nvalue = [0, 2]", fillcolor="#399de5"] ;
281 -> 283 ;
284 [label="gini = 0.0\nsamples = 10\nvalue = [10, 0]", fillcolor="#e58139"] ;
280 -> 284 ;
285 [label="pH <= 2.935\ngini = 0.05\nsamples = 39\nvalue = [38, 1]", fillcolor="#e6843e"] ;
267 -> 285 ;
286 [label="alcohol <= 9.85\ngini = 0.5\nsamples = 2\nvalue = [1, 1]", fillcolor="#ffffff"] ;
285 -> 286 ;
287 [label="gini = 0.0\nsamples = 1\nvalue = [1, 0]", fillcolor="#e58139"] ;
286 -> 287 ;
288 [label="gini = 0.0\nsamples = 1\nvalue = [0, 1]", fillcolor="#399de5"] ;
286 -> 288 ;
289 [label="gini = 0.0\nsamples = 37\nvalue = [37, 0]", fillcolor="#e58139"] ;
285 -> 289 ;
290 [label="volatile acidity <= 0.87\ngini = 0.334\nsamples = 500\nvalue = [106, 394]", fillcolor="#6eb7ec"] ;
0 -> 290 [labeldistance=2.5, labelangle=-45, headlabel="False"] ;
291 [label="alcohol <= 11.45\ngini = 0.299\nsamples = 475\nvalue = [87, 388]", fillcolor="#65b3eb"] ;
290 -> 291 ;
292 [label="sulphates <= 0.585\ngini = 0.405\nsamples = 248\nvalue = [70, 178]", fillcolor="#87c4ef"] ;
291 -> 292 ;
293 [label="pH <= 3.355\ngini = 0.499\nsamples = 57\nvalue = [30, 27]", fillcolor="#fcf2eb"] ;
292 -> 293 ;
294 [label="fixed acidity <= 8.15\ngini = 0.426\nsamples = 26\nvalue = [8, 18]", fillcolor="#91c9f1"] ;
293 -> 294 ;
295 [label="free sulfur dioxide <= 7.5\ngini = 0.142\nsamples = 13\nvalue = [1, 12]", fillcolor="#49a5e7"] ;
294 -> 295 ;
296 [label="residual sugar <= 2.25\ngini = 0.444\nsamples = 3\nvalue = [1, 2]", fillcolor="#9ccef2"] ;
295 -> 296 ;
297 [label="gini = 0.0\nsamples = 2\nvalue = [0, 2]", fillcolor="#399de5"] ;
296 -> 297 ;
298 [label="gini = 0.0\nsamples = 1\nvalue = [1, 0]", fillcolor="#e58139"] ;
296 -> 298 ;
299 [label="gini = 0.0\nsamples = 10\nvalue = [0, 10]", fillcolor="#399de5"] ;
295 -> 299 ;
300 [label="fixed acidity <= 8.75\ngini = 0.497\nsamples = 13\nvalue = [7, 6]", fillcolor="#fbede3"] ;
294 -> 300 ;
301 [label="gini = 0.0\nsamples = 4\nvalue = [4, 0]", fillcolor="#e58139"] ;
300 -> 301 ;
302 [label="alcohol <= 11.35\ngini = 0.444\nsamples = 9\nvalue = [3, 6]", fillcolor="#9ccef2"] ;
300 -> 302 ;
303 [label="chlorides <= 0.104\ngini = 0.245\nsamples = 7\nvalue = [1, 6]", fillcolor="#5aade9"] ;
302 -> 303 ;
304 [label="gini = 0.0\nsamples = 6\nvalue = [0, 6]", fillcolor="#399de5"] ;
303 -> 304 ;
305 [label="gini = 0.0\nsamples = 1\nvalue = [1, 0]", fillcolor="#e58139"] ;
303 -> 305 ;
306 [label="gini = 0.0\nsamples = 2\nvalue = [2, 0]", fillcolor="#e58139"] ;
302 -> 306 ;
307 [label="chlorides <= 0.103\ngini = 0.412\nsamples = 31\nvalue = [22, 9]", fillcolor="#f0b58a"] ;
293 -> 307 ;
308 [label="free sulfur dioxide <= 16.5\ngini = 0.337\nsamples = 28\nvalue = [22, 6]", fillcolor="#eca36f"] ;
307 -> 308 ;
309 [label="fixed acidity <= 7.3\ngini = 0.1\nsamples = 19\nvalue = [18, 1]", fillcolor="#e68844"] ;
308 -> 309 ;
310 [label="gini = 0.0\nsamples = 15\nvalue = [15, 0]", fillcolor="#e58139"] ;
309 -> 310 ;
311 [label="residual sugar <= 2.25\ngini = 0.375\nsamples = 4\nvalue = [3, 1]", fillcolor="#eeab7b"] ;
309 -> 311 ;
312 [label="gini = 0.0\nsamples = 1\nvalue = [0, 1]", fillcolor="#399de5"] ;
311 -> 312 ;
313 [label="gini = 0.0\nsamples = 3\nvalue = [3, 0]", fillcolor="#e58139"] ;
311 -> 313 ;
314 [label="volatile acidity <= 0.58\ngini = 0.494\nsamples = 9\nvalue = [4, 5]", fillcolor="#d7ebfa"] ;
308 -> 314 ;
315 [label="fixed acidity <= 6.85\ngini = 0.444\nsamples = 6\nvalue = [4, 2]", fillcolor="#f2c09c"] ;
314 -> 315 ;
316 [label="sulphates <= 0.535\ngini = 0.444\nsamples = 3\nvalue = [1, 2]", fillcolor="#9ccef2"] ;
315 -> 316 ;
317 [label="gini = 0.0\nsamples = 1\nvalue = [1, 0]", fillcolor="#e58139"] ;
316 -> 317 ;
318 [label="gini = 0.0\nsamples = 2\nvalue = [0, 2]", fillcolor="#399de5"] ;
316 -> 318 ;
319 [label="gini = 0.0\nsamples = 3\nvalue = [3, 0]", fillcolor="#e58139"] ;
315 -> 319 ;
320 [label="gini = 0.0\nsamples = 3\nvalue = [0, 3]", fillcolor="#399de5"] ;
314 -> 320 ;
321 [label="gini = 0.0\nsamples = 3\nvalue = [0, 3]", fillcolor="#399de5"] ;
307 -> 321 ;
322 [label="total sulfur dioxide <= 99.0\ngini = 0.331\nsamples = 191\nvalue = [40, 151]", fillcolor="#6db7ec"] ;
292 -> 322 ;
323 [label="chlorides <= 0.094\ngini = 0.306\nsamples = 186\nvalue = [35, 151]", fillcolor="#67b4eb"] ;
322 -> 323 ;
324 [label="volatile acidity <= 0.235\ngini = 0.237\nsamples = 153\nvalue = [21, 132]", fillcolor="#58ade9"] ;
323 -> 324 ;
325 [label="sulphates <= 0.705\ngini = 0.48\nsamples = 5\nvalue = [3, 2]", fillcolor="#f6d5bd"] ;
324 -> 325 ;
326 [label="gini = 0.0\nsamples = 2\nvalue = [2, 0]", fillcolor="#e58139"] ;
325 -> 326 ;
327 [label="pH <= 3.335\ngini = 0.444\nsamples = 3\nvalue = [1, 2]", fillcolor="#9ccef2"] ;
325 -> 327 ;
328 [label="gini = 0.0\nsamples = 1\nvalue = [1, 0]", fillcolor="#e58139"] ;
327 -> 328 ;
329 [label="gini = 0.0\nsamples = 2\nvalue = [0, 2]", fillcolor="#399de5"] ;
327 -> 329 ;
330 [label="chlorides <= 0.056\ngini = 0.214\nsamples = 148\nvalue = [18, 130]", fillcolor="#54abe9"] ;
324 -> 330 ;
331 [label="volatile acidity <= 0.46\ngini = 0.463\nsamples = 11\nvalue = [4, 7]", fillcolor="#aad5f4"] ;
330 -> 331 ;
332 [label="pH <= 3.325\ngini = 0.245\nsamples = 7\nvalue = [1, 6]", fillcolor="#5aade9"] ;
331 -> 332 ;
333 [label="gini = 0.0\nsamples = 6\nvalue = [0, 6]", fillcolor="#399de5"] ;
332 -> 333 ;
334 [label="gini = 0.0\nsamples = 1\nvalue = [1, 0]", fillcolor="#e58139"] ;
332 -> 334 ;
335 [label="free sulfur dioxide <= 9.0\ngini = 0.375\nsamples = 4\nvalue = [3, 1]", fillcolor="#eeab7b"] ;
331 -> 335 ;
336 [label="gini = 0.0\nsamples = 1\nvalue = [0, 1]", fillcolor="#399de5"] ;
335 -> 336 ;
337 [label="gini = 0.0\nsamples = 3\nvalue = [3, 0]", fillcolor="#e58139"] ;
335 -> 337 ;
338 [label="total sulfur dioxide <= 51.5\ngini = 0.183\nsamples = 137\nvalue = [14, 123]", fillcolor="#50a8e8"] ;
330 -> 338 ;
339 [label="fixed acidity <= 12.25\ngini = 0.109\nsamples = 104\nvalue = [6, 98]", fillcolor="#45a3e7"] ;
338 -> 339 ;
340 [label="volatile acidity <= 0.637\ngini = 0.077\nsamples = 100\nvalue = [4, 96]", fillcolor="#41a1e6"] ;
339 -> 340 ;
341 [label="total sulfur dioxide <= 14.5\ngini = 0.042\nsamples = 93\nvalue = [2, 91]", fillcolor="#3d9fe6"] ;
340 -> 341 ;
342 [label="alcohol <= 10.8\ngini = 0.32\nsamples = 10\nvalue = [2, 8]", fillcolor="#6ab6ec"] ;
341 -> 342 ;
343 [label="gini = 0.0\nsamples = 2\nvalue = [2, 0]", fillcolor="#e58139"] ;
342 -> 343 ;
344 [label="gini = 0.0\nsamples = 8\nvalue = [0, 8]", fillcolor="#399de5"] ;
342 -> 344 ;
345 [label="gini = 0.0\nsamples = 83\nvalue = [0, 83]", fillcolor="#399de5"] ;
341 -> 345 ;
346 [label="alcohol <= 10.95\ngini = 0.408\nsamples = 7\nvalue = [2, 5]", fillcolor="#88c4ef"] ;
340 -> 346 ;
347 [label="sulphates <= 0.8\ngini = 0.444\nsamples = 3\nvalue = [2, 1]", fillcolor="#f2c09c"] ;
346 -> 347 ;
348 [label="gini = 0.0\nsamples = 2\nvalue = [2, 0]", fillcolor="#e58139"] ;
347 -> 348 ;
349 [label="gini = 0.0\nsamples = 1\nvalue = [0, 1]", fillcolor="#399de5"] ;
347 -> 349 ;
350 [label="gini = 0.0\nsamples = 4\nvalue = [0, 4]", fillcolor="#399de5"] ;
346 -> 350 ;
351 [label="density <= 1.0\ngini = 0.5\nsamples = 4\nvalue = [2, 2]", fillcolor="#ffffff"] ;
339 -> 351 ;
352 [label="gini = 0.0\nsamples = 2\nvalue = [2, 0]", fillcolor="#e58139"] ;
351 -> 352 ;
353 [label="gini = 0.0\nsamples = 2\nvalue = [0, 2]", fillcolor="#399de5"] ;
351 -> 353 ;
354 [label="free sulfur dioxide <= 30.0\ngini = 0.367\nsamples = 33\nvalue = [8, 25]", fillcolor="#78bced"] ;
338 -> 354 ;
355 [label="citric acid <= 0.435\ngini = 0.48\nsamples = 20\nvalue = [8, 12]", fillcolor="#bddef6"] ;
354 -> 355 ;
356 [label="fixed acidity <= 8.1\ngini = 0.415\nsamples = 17\nvalue = [5, 12]", fillcolor="#8bc6f0"] ;
355 -> 356 ;
357 [label="residual sugar <= 3.4\ngini = 0.494\nsamples = 9\nvalue = [5, 4]", fillcolor="#fae6d7"] ;
356 -> 357 ;
358 [label="pH <= 3.405\ngini = 0.408\nsamples = 7\nvalue = [5, 2]", fillcolor="#efb388"] ;
357 -> 358 ;
359 [label="gini = 0.0\nsamples = 4\nvalue = [4, 0]", fillcolor="#e58139"] ;
358 -> 359 ;
360 [label="residual sugar <= 2.4\ngini = 0.444\nsamples = 3\nvalue = [1, 2]", fillcolor="#9ccef2"] ;
358 -> 360 ;
361 [label="gini = 0.0\nsamples = 1\nvalue = [1, 0]", fillcolor="#e58139"] ;
360 -> 361 ;
362 [label="gini = 0.0\nsamples = 2\nvalue = [0, 2]", fillcolor="#399de5"] ;
360 -> 362 ;
363 [label="gini = 0.0\nsamples = 2\nvalue = [0, 2]", fillcolor="#399de5"] ;
357 -> 363 ;
364 [label="gini = 0.0\nsamples = 8\nvalue = [0, 8]", fillcolor="#399de5"] ;
356 -> 364 ;
365 [label="gini = 0.0\nsamples = 3\nvalue = [3, 0]", fillcolor="#e58139"] ;
355 -> 365 ;
366 [label="gini = 0.0\nsamples = 13\nvalue = [0, 13]", fillcolor="#399de5"] ;
354 -> 366 ;
367 [label="alcohol <= 11.25\ngini = 0.489\nsamples = 33\nvalue = [14, 19]", fillcolor="#cbe5f8"] ;
323 -> 367 ;
368 [label="sulphates <= 0.75\ngini = 0.493\nsamples = 25\nvalue = [14, 11]", fillcolor="#f9e4d5"] ;
367 -> 368 ;
369 [label="total sulfur dioxide <= 40.5\ngini = 0.42\nsamples = 20\nvalue = [14, 6]", fillcolor="#f0b78e"] ;
368 -> 369 ;
370 [label="residual sugar <= 7.075\ngini = 0.245\nsamples = 14\nvalue = [12, 2]", fillcolor="#e9965a"] ;
369 -> 370 ;
371 [label="volatile acidity <= 0.275\ngini = 0.142\nsamples = 13\nvalue = [12, 1]", fillcolor="#e78c49"] ;
370 -> 371 ;
372 [label="gini = 0.0\nsamples = 1\nvalue = [0, 1]", fillcolor="#399de5"] ;
371 -> 372 ;
373 [label="gini = 0.0\nsamples = 12\nvalue = [12, 0]", fillcolor="#e58139"] ;
371 -> 373 ;
374 [label="gini = 0.0\nsamples = 1\nvalue = [0, 1]", fillcolor="#399de5"] ;
370 -> 374 ;
375 [label="density <= 0.995\ngini = 0.444\nsamples = 6\nvalue = [2, 4]", fillcolor="#9ccef2"] ;
369 -> 375 ;
376 [label="gini = 0.0\nsamples = 1\nvalue = [1, 0]", fillcolor="#e58139"] ;
375 -> 376 ;
377 [label="free sulfur dioxide <= 23.0\ngini = 0.32\nsamples = 5\nvalue = [1, 4]", fillcolor="#6ab6ec"] ;
375 -> 377 ;
378 [label="gini = 0.0\nsamples = 3\nvalue = [0, 3]", fillcolor="#399de5"] ;
377 -> 378 ;
379 [label="density <= 0.997\ngini = 0.5\nsamples = 2\nvalue = [1, 1]", fillcolor="#ffffff"] ;
377 -> 379 ;
380 [label="gini = 0.0\nsamples = 1\nvalue = [0, 1]", fillcolor="#399de5"] ;
379 -> 380 ;
381 [label="gini = 0.0\nsamples = 1\nvalue = [1, 0]", fillcolor="#e58139"] ;
379 -> 381 ;
382 [label="gini = 0.0\nsamples = 5\nvalue = [0, 5]", fillcolor="#399de5"] ;
368 -> 382 ;
383 [label="gini = 0.0\nsamples = 8\nvalue = [0, 8]", fillcolor="#399de5"] ;
367 -> 383 ;
384 [label="gini = 0.0\nsamples = 5\nvalue = [5, 0]", fillcolor="#e58139"] ;
322 -> 384 ;
385 [label="sulphates <= 0.635\ngini = 0.139\nsamples = 227\nvalue = [17, 210]", fillcolor="#49a5e7"] ;
291 -> 385 ;
386 [label="chlorides <= 0.055\ngini = 0.254\nsamples = 94\nvalue = [14, 80]", fillcolor="#5caeea"] ;
385 -> 386 ;
387 [label="fixed acidity <= 6.35\ngini = 0.465\nsamples = 19\nvalue = [7, 12]", fillcolor="#acd6f4"] ;
386 -> 387 ;
388 [label="density <= 0.993\ngini = 0.444\nsamples = 9\nvalue = [6, 3]", fillcolor="#f2c09c"] ;
387 -> 388 ;
389 [label="gini = 0.0\nsamples = 3\nvalue = [0, 3]", fillcolor="#399de5"] ;
388 -> 389 ;
390 [label="gini = 0.0\nsamples = 6\nvalue = [6, 0]", fillcolor="#e58139"] ;
388 -> 390 ;
391 [label="density <= 0.995\ngini = 0.18\nsamples = 10\nvalue = [1, 9]", fillcolor="#4fa8e8"] ;
387 -> 391 ;
392 [label="gini = 0.0\nsamples = 9\nvalue = [0, 9]", fillcolor="#399de5"] ;
391 -> 392 ;
393 [label="gini = 0.0\nsamples = 1\nvalue = [1, 0]", fillcolor="#e58139"] ;
391 -> 393 ;
394 [label="volatile acidity <= 0.57\ngini = 0.169\nsamples = 75\nvalue = [7, 68]", fillcolor="#4da7e8"] ;
386 -> 394 ;
395 [label="citric acid <= 0.67\ngini = 0.038\nsamples = 51\nvalue = [1, 50]", fillcolor="#3d9fe6"] ;
394 -> 395 ;
396 [label="gini = 0.0\nsamples = 49\nvalue = [0, 49]", fillcolor="#399de5"] ;
395 -> 396 ;
397 [label="chlorides <= 0.076\ngini = 0.5\nsamples = 2\nvalue = [1, 1]", fillcolor="#ffffff"] ;
395 -> 397 ;
398 [label="gini = 0.0\nsamples = 1\nvalue = [0, 1]", fillcolor="#399de5"] ;
397 -> 398 ;
399 [label="gini = 0.0\nsamples = 1\nvalue = [1, 0]", fillcolor="#e58139"] ;
397 -> 399 ;
400 [label="free sulfur dioxide <= 8.5\ngini = 0.375\nsamples = 24\nvalue = [6, 18]", fillcolor="#7bbeee"] ;
394 -> 400 ;
401 [label="residual sugar <= 2.4\ngini = 0.494\nsamples = 9\nvalue = [5, 4]", fillcolor="#fae6d7"] ;
400 -> 401 ;
402 [label="volatile acidity <= 0.6\ngini = 0.444\nsamples = 6\nvalue = [2, 4]", fillcolor="#9ccef2"] ;
401 -> 402 ;
403 [label="gini = 0.0\nsamples = 2\nvalue = [2, 0]", fillcolor="#e58139"] ;
402 -> 403 ;
404 [label="gini = 0.0\nsamples = 4\nvalue = [0, 4]", fillcolor="#399de5"] ;
402 -> 404 ;
405 [label="gini = 0.0\nsamples = 3\nvalue = [3, 0]", fillcolor="#e58139"] ;
401 -> 405 ;
406 [label="sulphates <= 0.535\ngini = 0.124\nsamples = 15\nvalue = [1, 14]", fillcolor="#47a4e7"] ;
400 -> 406 ;
407 [label="citric acid <= 0.005\ngini = 0.444\nsamples = 3\nvalue = [1, 2]", fillcolor="#9ccef2"] ;
406 -> 407 ;
408 [label="gini = 0.0\nsamples = 1\nvalue = [1, 0]", fillcolor="#e58139"] ;
407 -> 408 ;
409 [label="gini = 0.0\nsamples = 2\nvalue = [0, 2]", fillcolor="#399de5"] ;
407 -> 409 ;
410 [label="gini = 0.0\nsamples = 12\nvalue = [0, 12]", fillcolor="#399de5"] ;
406 -> 410 ;
411 [label="citric acid <= 0.76\ngini = 0.044\nsamples = 133\nvalue = [3, 130]", fillcolor="#3e9fe6"] ;
385 -> 411 ;
412 [label="residual sugar <= 4.45\ngini = 0.03\nsamples = 132\nvalue = [2, 130]", fillcolor="#3c9fe5"] ;
411 -> 412 ;
413 [label="sulphates <= 0.695\ngini = 0.016\nsamples = 121\nvalue = [1, 120]", fillcolor="#3b9ee5"] ;
412 -> 413 ;
414 [label="volatile acidity <= 0.312\ngini = 0.069\nsamples = 28\nvalue = [1, 27]", fillcolor="#40a1e6"] ;
413 -> 414 ;
415 [label="pH <= 3.335\ngini = 0.444\nsamples = 3\nvalue = [1, 2]", fillcolor="#9ccef2"] ;
414 -> 415 ;
416 [label="gini = 0.0\nsamples = 2\nvalue = [0, 2]", fillcolor="#399de5"] ;
415 -> 416 ;
417 [label="gini = 0.0\nsamples = 1\nvalue = [1, 0]", fillcolor="#e58139"] ;
415 -> 417 ;
418 [label="gini = 0.0\nsamples = 25\nvalue = [0, 25]", fillcolor="#399de5"] ;
414 -> 418 ;
419 [label="gini = 0.0\nsamples = 93\nvalue = [0, 93]", fillcolor="#399de5"] ;
413 -> 419 ;
420 [label="alcohol <= 11.55\ngini = 0.165\nsamples = 11\nvalue = [1, 10]", fillcolor="#4da7e8"] ;
412 -> 420 ;
421 [label="gini = 0.0\nsamples = 1\nvalue = [1, 0]", fillcolor="#e58139"] ;
420 -> 421 ;
422 [label="gini = 0.0\nsamples = 10\nvalue = [0, 10]", fillcolor="#399de5"] ;
420 -> 422 ;
423 [label="gini = 0.0\nsamples = 1\nvalue = [1, 0]", fillcolor="#e58139"] ;
411 -> 423 ;
424 [label="density <= 0.995\ngini = 0.365\nsamples = 25\nvalue = [19, 6]", fillcolor="#eda978"] ;
290 -> 424 ;
425 [label="residual sugar <= 2.05\ngini = 0.494\nsamples = 9\nvalue = [4, 5]", fillcolor="#d7ebfa"] ;
424 -> 425 ;
426 [label="pH <= 3.7\ngini = 0.278\nsamples = 6\nvalue = [1, 5]", fillcolor="#61b1ea"] ;
425 -> 426 ;
427 [label="gini = 0.0\nsamples = 5\nvalue = [0, 5]", fillcolor="#399de5"] ;
426 -> 427 ;
428 [label="gini = 0.0\nsamples = 1\nvalue = [1, 0]", fillcolor="#e58139"] ;
426 -> 428 ;
429 [label="gini = 0.0\nsamples = 3\nvalue = [3, 0]", fillcolor="#e58139"] ;
425 -> 429 ;
430 [label="alcohol <= 10.85\ngini = 0.117\nsamples = 16\nvalue = [15, 1]", fillcolor="#e78946"] ;
424 -> 430 ;
431 [label="free sulfur dioxide <= 6.5\ngini = 0.375\nsamples = 4\nvalue = [3, 1]", fillcolor="#eeab7b"] ;
430 -> 431 ;
432 [label="gini = 0.0\nsamples = 3\nvalue = [3, 0]", fillcolor="#e58139"] ;
431 -> 432 ;
433 [label="gini = 0.0\nsamples = 1\nvalue = [0, 1]", fillcolor="#399de5"] ;
431 -> 433 ;
434 [label="gini = 0.0\nsamples = 12\nvalue = [12, 0]", fillcolor="#e58139"] ;
430 -> 434 ;
}