digraph Tree {
node [shape=box, style="filled, rounded", color="black", fontname=helvetica] ;
edge [fontname=helvetica] ;
0 [label="char_freq_%21 <= 0.08\nentropy = 0.967\nsamples = 3910\nvalue = [2369, 1541]", fillcolor="#f6d3ba"] ;
1 [label="word_freq_remove <= 0.045\nentropy = 0.626\nsamples = 2275\nvalue = [1919, 356]", fillcolor="#ea985e"] ;
0 -> 1 [labeldistance=2.5, labelangle=45, headlabel="True"] ;
2 [label="char_freq_%24 <= 0.087\nentropy = 0.472\nsamples = 2108\nvalue = [1895, 213]", fillcolor="#e88f4f"] ;
1 -> 2 ;
3 [label="word_freq_george <= 0.005\nentropy = 0.375\nsamples = 1987\nvalue = [1843, 144]", fillcolor="#e78b48"] ;
2 -> 3 ;
4 [label="word_freq_hp <= 0.12\nentropy = 0.467\nsamples = 1450\nvalue = [1306, 144]", fillcolor="#e88f4f"] ;
3 -> 4 ;
5 [label="capital_run_length_longest <= 9.5\nentropy = 0.598\nsamples = 949\nvalue = [811, 138]", fillcolor="#e9965b"] ;
4 -> 5 ;
6 [label="word_freq_free <= 1.135\nentropy = 0.318\nsamples = 573\nvalue = [540, 33]", fillcolor="#e78945"] ;
5 -> 6 ;
7 [label="word_freq_internet <= 0.145\nentropy = 0.272\nsamples = 556\nvalue = [530, 26]", fillcolor="#e68743"] ;
6 -> 7 ;
8 [label="capital_run_length_average <= 1.552\nentropy = 0.236\nsamples = 543\nvalue = [522, 21]", fillcolor="#e68641"] ;
7 -> 8 ;
9 [label="word_freq_re <= 0.775\nentropy = 0.327\nsamples = 334\nvalue = [314, 20]", fillcolor="#e78946"] ;
8 -> 9 ;
10 [label="word_freq_you <= 12.345\nentropy = 0.386\nsamples = 265\nvalue = [245, 20]", fillcolor="#e78b49"] ;
9 -> 10 ;
11 [label="capital_run_length_total <= 45.5\nentropy = 0.36\nsamples = 263\nvalue = [245, 18]", fillcolor="#e78a48"] ;
10 -> 11 ;
12 [label="capital_run_length_total <= 29.5\nentropy = 0.403\nsamples = 224\nvalue = [206, 18]", fillcolor="#e78c4a"] ;
11 -> 12 ;
13 [label="word_freq_credit <= 9.09\nentropy = 0.314\nsamples = 194\nvalue = [183, 11]", fillcolor="#e78945"] ;
12 -> 13 ;
14 [label="capital_run_length_longest <= 3.5\nentropy = 0.294\nsamples = 193\nvalue = [183, 10]", fillcolor="#e68844"] ;
13 -> 14 ;
15 [label="word_freq_you <= 4.65\nentropy = 0.206\nsamples = 155\nvalue = [150, 5]", fillcolor="#e68540"] ;
14 -> 15 ;
16 [label="word_freq_our <= 6.97\nentropy = 0.113\nsamples = 133\nvalue = [131, 2]", fillcolor="#e5833c"] ;
15 -> 16 ;
17 [label="capital_run_length_total <= 6.5\nentropy = 0.065\nsamples = 131\nvalue = [130, 1]", fillcolor="#e5823b"] ;
16 -> 17 ;
18 [label="entropy = 0.0\nsamples = 62\nvalue = [62, 0]", fillcolor="#e58139"] ;
17 -> 18 ;
19 [label="capital_run_length_total <= 7.5\nentropy = 0.109\nsamples = 69\nvalue = [68, 1]", fillcolor="#e5833c"] ;
17 -> 19 ;
20 [label="capital_run_length_average <= 1.083\nentropy = 0.414\nsamples = 12\nvalue = [11, 1]", fillcolor="#e78c4b"] ;
19 -> 20 ;
21 [label="word_freq_you <= 1.92\nentropy = 0.65\nsamples = 6\nvalue = [5, 1]", fillcolor="#ea9a61"] ;
20 -> 21 ;
22 [label="word_freq_edu <= 1.56\nentropy = 0.811\nsamples = 4\nvalue = [3, 1]", fillcolor="#eeab7b"] ;
21 -> 22 ;
23 [label="word_freq_mail <= 2.17\nentropy = 1.0\nsamples = 2\nvalue = [1, 1]", fillcolor="#ffffff"] ;
22 -> 23 ;
24 [label="entropy = 0.0\nsamples = 1\nvalue = [0, 1]", fillcolor="#399de5"] ;
23 -> 24 ;
25 [label="entropy = 0.0\nsamples = 1\nvalue = [1, 0]", fillcolor="#e58139"] ;
23 -> 25 ;
26 [label="entropy = 0.0\nsamples = 2\nvalue = [2, 0]", fillcolor="#e58139"] ;
22 -> 26 ;
27 [label="entropy = 0.0\nsamples = 2\nvalue = [2, 0]", fillcolor="#e58139"] ;
21 -> 27 ;
28 [label="entropy = 0.0\nsamples = 6\nvalue = [6, 0]", fillcolor="#e58139"] ;
20 -> 28 ;
29 [label="entropy = 0.0\nsamples = 57\nvalue = [57, 0]", fillcolor="#e58139"] ;
19 -> 29 ;
30 [label="capital_run_length_total <= 3.5\nentropy = 1.0\nsamples = 2\nvalue = [1, 1]", fillcolor="#ffffff"] ;
16 -> 30 ;
31 [label="entropy = 0.0\nsamples = 1\nvalue = [1, 0]", fillcolor="#e58139"] ;
30 -> 31 ;
32 [label="entropy = 0.0\nsamples = 1\nvalue = [0, 1]", fillcolor="#399de5"] ;
30 -> 32 ;
33 [label="word_freq_you <= 4.78\nentropy = 0.575\nsamples = 22\nvalue = [19, 3]", fillcolor="#e99558"] ;
15 -> 33 ;
34 [label="capital_run_length_total <= 16.5\nentropy = 0.918\nsamples = 3\nvalue = [1, 2]", fillcolor="#9ccef2"] ;
33 -> 34 ;
35 [label="entropy = 0.0\nsamples = 2\nvalue = [0, 2]", fillcolor="#399de5"] ;
34 -> 35 ;
36 [label="entropy = 0.0\nsamples = 1\nvalue = [1, 0]", fillcolor="#e58139"] ;
34 -> 36 ;
37 [label="capital_run_length_total <= 12.0\nentropy = 0.297\nsamples = 19\nvalue = [18, 1]", fillcolor="#e68844"] ;
33 -> 37 ;
38 [label="entropy = 0.0\nsamples = 17\nvalue = [17, 0]", fillcolor="#e58139"] ;
37 -> 38 ;
39 [label="capital_run_length_longest <= 2.0\nentropy = 1.0\nsamples = 2\nvalue = [1, 1]", fillcolor="#ffffff"] ;
37 -> 39 ;
40 [label="entropy = 0.0\nsamples = 1\nvalue = [0, 1]", fillcolor="#399de5"] ;
39 -> 40 ;
41 [label="entropy = 0.0\nsamples = 1\nvalue = [1, 0]", fillcolor="#e58139"] ;
39 -> 41 ;
42 [label="capital_run_length_total <= 19.5\nentropy = 0.562\nsamples = 38\nvalue = [33, 5]", fillcolor="#e99457"] ;
14 -> 42 ;
43 [label="capital_run_length_total <= 18.5\nentropy = 0.831\nsamples = 19\nvalue = [14, 5]", fillcolor="#eeae80"] ;
42 -> 43 ;
44 [label="capital_run_length_average <= 1.408\nentropy = 0.672\nsamples = 17\nvalue = [14, 3]", fillcolor="#eb9c63"] ;
43 -> 44 ;
45 [label="entropy = 0.0\nsamples = 12\nvalue = [12, 0]", fillcolor="#e58139"] ;
44 -> 45 ;
46 [label="word_freq_your <= 0.96\nentropy = 0.971\nsamples = 5\nvalue = [2, 3]", fillcolor="#bddef6"] ;
44 -> 46 ;
47 [label="word_freq_will <= 0.57\nentropy = 0.918\nsamples = 3\nvalue = [2, 1]", fillcolor="#f2c09c"] ;
46 -> 47 ;
48 [label="entropy = 0.0\nsamples = 2\nvalue = [2, 0]", fillcolor="#e58139"] ;
47 -> 48 ;
49 [label="entropy = 0.0\nsamples = 1\nvalue = [0, 1]", fillcolor="#399de5"] ;
47 -> 49 ;
50 [label="entropy = 0.0\nsamples = 2\nvalue = [0, 2]", fillcolor="#399de5"] ;
46 -> 50 ;
51 [label="entropy = 0.0\nsamples = 2\nvalue = [0, 2]", fillcolor="#399de5"] ;
43 -> 51 ;
52 [label="entropy = 0.0\nsamples = 19\nvalue = [19, 0]", fillcolor="#e58139"] ;
42 -> 52 ;
53 [label="entropy = 0.0\nsamples = 1\nvalue = [0, 1]", fillcolor="#399de5"] ;
13 -> 53 ;
54 [label="capital_run_length_total <= 32.5\nentropy = 0.784\nsamples = 30\nvalue = [23, 7]", fillcolor="#eda775"] ;
12 -> 54 ;
55 [label="word_freq_will <= 0.845\nentropy = 0.985\nsamples = 7\nvalue = [3, 4]", fillcolor="#cee6f8"] ;
54 -> 55 ;
56 [label="word_freq_make <= 0.2\nentropy = 0.722\nsamples = 5\nvalue = [1, 4]", fillcolor="#6ab6ec"] ;
55 -> 56 ;
57 [label="entropy = 0.0\nsamples = 4\nvalue = [0, 4]", fillcolor="#399de5"] ;
56 -> 57 ;
58 [label="entropy = 0.0\nsamples = 1\nvalue = [1, 0]", fillcolor="#e58139"] ;
56 -> 58 ;
59 [label="entropy = 0.0\nsamples = 2\nvalue = [2, 0]", fillcolor="#e58139"] ;
55 -> 59 ;
60 [label="capital_run_length_total <= 44.5\nentropy = 0.559\nsamples = 23\nvalue = [20, 3]", fillcolor="#e99457"] ;
54 -> 60 ;
61 [label="word_freq_our <= 2.555\nentropy = 0.439\nsamples = 22\nvalue = [20, 2]", fillcolor="#e88e4d"] ;
60 -> 61 ;
62 [label="capital_run_length_average <= 1.086\nentropy = 0.276\nsamples = 21\nvalue = [20, 1]", fillcolor="#e68743"] ;
61 -> 62 ;
63 [label="word_freq_re <= 0.25\nentropy = 0.918\nsamples = 3\nvalue = [2, 1]", fillcolor="#f2c09c"] ;
62 -> 63 ;
64 [label="entropy = 0.0\nsamples = 1\nvalue = [0, 1]", fillcolor="#399de5"] ;
63 -> 64 ;
65 [label="entropy = 0.0\nsamples = 2\nvalue = [2, 0]", fillcolor="#e58139"] ;
63 -> 65 ;
66 [label="entropy = 0.0\nsamples = 18\nvalue = [18, 0]", fillcolor="#e58139"] ;
62 -> 66 ;
67 [label="entropy = 0.0\nsamples = 1\nvalue = [0, 1]", fillcolor="#399de5"] ;
61 -> 67 ;
68 [label="entropy = 0.0\nsamples = 1\nvalue = [0, 1]", fillcolor="#399de5"] ;
60 -> 68 ;
69 [label="entropy = 0.0\nsamples = 39\nvalue = [39, 0]", fillcolor="#e58139"] ;
11 -> 69 ;
70 [label="entropy = 0.0\nsamples = 2\nvalue = [0, 2]", fillcolor="#399de5"] ;
10 -> 70 ;
71 [label="entropy = 0.0\nsamples = 69\nvalue = [69, 0]", fillcolor="#e58139"] ;
9 -> 71 ;
72 [label="word_freq_your <= 4.53\nentropy = 0.044\nsamples = 209\nvalue = [208, 1]", fillcolor="#e5823a"] ;
8 -> 72 ;
73 [label="entropy = 0.0\nsamples = 207\nvalue = [207, 0]", fillcolor="#e58139"] ;
72 -> 73 ;
74 [label="capital_run_length_longest <= 6.0\nentropy = 1.0\nsamples = 2\nvalue = [1, 1]", fillcolor="#ffffff"] ;
72 -> 74 ;
75 [label="entropy = 0.0\nsamples = 1\nvalue = [1, 0]", fillcolor="#e58139"] ;
74 -> 75 ;
76 [label="entropy = 0.0\nsamples = 1\nvalue = [0, 1]", fillcolor="#399de5"] ;
74 -> 76 ;
77 [label="word_freq_your <= 0.14\nentropy = 0.961\nsamples = 13\nvalue = [8, 5]", fillcolor="#f5d0b5"] ;
7 -> 77 ;
78 [label="entropy = 0.0\nsamples = 7\nvalue = [7, 0]", fillcolor="#e58139"] ;
77 -> 78 ;
79 [label="word_freq_address <= 0.58\nentropy = 0.65\nsamples = 6\nvalue = [1, 5]", fillcolor="#61b1ea"] ;
77 -> 79 ;
80 [label="entropy = 0.0\nsamples = 5\nvalue = [0, 5]", fillcolor="#399de5"] ;
79 -> 80 ;
81 [label="entropy = 0.0\nsamples = 1\nvalue = [1, 0]", fillcolor="#e58139"] ;
79 -> 81 ;
82 [label="word_freq_our <= 2.01\nentropy = 0.977\nsamples = 17\nvalue = [10, 7]", fillcolor="#f7d9c4"] ;
6 -> 82 ;
83 [label="word_freq_will <= 1.425\nentropy = 0.918\nsamples = 15\nvalue = [10, 5]", fillcolor="#f2c09c"] ;
82 -> 83 ;
84 [label="word_freq_your <= 0.365\nentropy = 0.994\nsamples = 11\nvalue = [6, 5]", fillcolor="#fbeade"] ;
83 -> 84 ;
85 [label="capital_run_length_average <= 1.41\nentropy = 0.811\nsamples = 8\nvalue = [6, 2]", fillcolor="#eeab7b"] ;
84 -> 85 ;
86 [label="entropy = 0.0\nsamples = 5\nvalue = [5, 0]", fillcolor="#e58139"] ;
85 -> 86 ;
87 [label="word_freq_meeting <= 0.925\nentropy = 0.918\nsamples = 3\nvalue = [1, 2]", fillcolor="#9ccef2"] ;
85 -> 87 ;
88 [label="entropy = 0.0\nsamples = 2\nvalue = [0, 2]", fillcolor="#399de5"] ;
87 -> 88 ;
89 [label="entropy = 0.0\nsamples = 1\nvalue = [1, 0]", fillcolor="#e58139"] ;
87 -> 89 ;
90 [label="entropy = 0.0\nsamples = 3\nvalue = [0, 3]", fillcolor="#399de5"] ;
84 -> 90 ;
91 [label="entropy = 0.0\nsamples = 4\nvalue = [4, 0]", fillcolor="#e58139"] ;
83 -> 91 ;
92 [label="entropy = 0.0\nsamples = 2\nvalue = [0, 2]", fillcolor="#399de5"] ;
82 -> 92 ;
93 [label="word_freq_our <= 1.1\nentropy = 0.854\nsamples = 376\nvalue = [271, 105]", fillcolor="#efb286"] ;
5 -> 93 ;
94 [label="word_freq_re <= 0.24\nentropy = 0.778\nsamples = 352\nvalue = [271, 81]", fillcolor="#eda774"] ;
93 -> 94 ;
95 [label="word_freq_1999 <= 0.305\nentropy = 0.881\nsamples = 270\nvalue = [189, 81]", fillcolor="#f0b78e"] ;
94 -> 95 ;
96 [label="word_freq_650 <= 0.23\nentropy = 0.935\nsamples = 225\nvalue = [146, 79]", fillcolor="#f3c5a4"] ;
95 -> 96 ;
97 [label="word_freq_edu <= 0.045\nentropy = 0.89\nsamples = 202\nvalue = [140, 62]", fillcolor="#f1b991"] ;
96 -> 97 ;
98 [label="word_freq_money <= 0.01\nentropy = 0.978\nsamples = 148\nvalue = [87, 61]", fillcolor="#f7d9c4"] ;
97 -> 98 ;
99 [label="capital_run_length_total <= 86.0\nentropy = 0.947\nsamples = 137\nvalue = [87, 50]", fillcolor="#f4c9ab"] ;
98 -> 99 ;
100 [label="word_freq_you <= 3.04\nentropy = 0.783\nsamples = 73\nvalue = [56, 17]", fillcolor="#eda775"] ;
99 -> 100 ;
101 [label="capital_run_length_average <= 4.367\nentropy = 0.537\nsamples = 57\nvalue = [50, 7]", fillcolor="#e99355"] ;
100 -> 101 ;
102 [label="capital_run_length_average <= 2.894\nentropy = 0.669\nsamples = 40\nvalue = [33, 7]", fillcolor="#eb9c63"] ;
101 -> 102 ;
103 [label="word_freq_technology <= 0.43\nentropy = 0.222\nsamples = 28\nvalue = [27, 1]", fillcolor="#e68640"] ;
102 -> 103 ;
104 [label="entropy = 0.0\nsamples = 27\nvalue = [27, 0]", fillcolor="#e58139"] ;
103 -> 104 ;
105 [label="entropy = 0.0\nsamples = 1\nvalue = [0, 1]", fillcolor="#399de5"] ;
103 -> 105 ;
106 [label="word_freq_your <= 0.625\nentropy = 1.0\nsamples = 12\nvalue = [6, 6]", fillcolor="#ffffff"] ;
102 -> 106 ;
107 [label="capital_run_length_longest <= 10.5\nentropy = 0.863\nsamples = 7\nvalue = [2, 5]", fillcolor="#88c4ef"] ;
106 -> 107 ;
108 [label="entropy = 0.0\nsamples = 1\nvalue = [1, 0]", fillcolor="#e58139"] ;
107 -> 108 ;
109 [label="word_freq_report <= 2.775\nentropy = 0.65\nsamples = 6\nvalue = [1, 5]", fillcolor="#61b1ea"] ;
107 -> 109 ;
110 [label="entropy = 0.0\nsamples = 5\nvalue = [0, 5]", fillcolor="#399de5"] ;
109 -> 110 ;
111 [label="entropy = 0.0\nsamples = 1\nvalue = [1, 0]", fillcolor="#e58139"] ;
109 -> 111 ;
112 [label="word_freq_your <= 3.365\nentropy = 0.722\nsamples = 5\nvalue = [4, 1]", fillcolor="#eca06a"] ;
106 -> 112 ;
113 [label="entropy = 0.0\nsamples = 4\nvalue = [4, 0]", fillcolor="#e58139"] ;
112 -> 113 ;
114 [label="entropy = 0.0\nsamples = 1\nvalue = [0, 1]", fillcolor="#399de5"] ;
112 -> 114 ;
115 [label="entropy = 0.0\nsamples = 17\nvalue = [17, 0]", fillcolor="#e58139"] ;
101 -> 115 ;
116 [label="word_freq_will <= 0.99\nentropy = 0.954\nsamples = 16\nvalue = [6, 10]", fillcolor="#b0d8f5"] ;
100 -> 116 ;
117 [label="capital_run_length_total <= 50.5\nentropy = 0.994\nsamples = 11\nvalue = [6, 5]", fillcolor="#fbeade"] ;
116 -> 117 ;
118 [label="word_freq_your <= 2.525\nentropy = 0.954\nsamples = 8\nvalue = [3, 5]", fillcolor="#b0d8f5"] ;
117 -> 118 ;
119 [label="word_freq_85 <= 1.92\nentropy = 0.65\nsamples = 6\nvalue = [1, 5]", fillcolor="#61b1ea"] ;
118 -> 119 ;
120 [label="entropy = 0.0\nsamples = 5\nvalue = [0, 5]", fillcolor="#399de5"] ;
119 -> 120 ;
121 [label="entropy = 0.0\nsamples = 1\nvalue = [1, 0]", fillcolor="#e58139"] ;
119 -> 121 ;
122 [label="entropy = 0.0\nsamples = 2\nvalue = [2, 0]", fillcolor="#e58139"] ;
118 -> 122 ;
123 [label="entropy = 0.0\nsamples = 3\nvalue = [3, 0]", fillcolor="#e58139"] ;
117 -> 123 ;
124 [label="entropy = 0.0\nsamples = 5\nvalue = [0, 5]", fillcolor="#399de5"] ;
116 -> 124 ;
125 [label="char_freq_%3B <= 1.97\nentropy = 0.999\nsamples = 64\nvalue = [31, 33]", fillcolor="#f3f9fd"] ;
99 -> 125 ;
126 [label="word_freq_all <= 0.185\nentropy = 0.982\nsamples = 57\nvalue = [24, 33]", fillcolor="#c9e4f8"] ;
125 -> 126 ;
127 [label="capital_run_length_average <= 3.729\nentropy = 0.822\nsamples = 35\nvalue = [9, 26]", fillcolor="#7ebfee"] ;
126 -> 127 ;
128 [label="word_freq_project <= 0.165\nentropy = 0.966\nsamples = 23\nvalue = [9, 14]", fillcolor="#b8dcf6"] ;
127 -> 128 ;
129 [label="capital_run_length_average <= 1.865\nentropy = 0.881\nsamples = 20\nvalue = [6, 14]", fillcolor="#8ec7f0"] ;
128 -> 129 ;
130 [label="entropy = 0.0\nsamples = 2\nvalue = [2, 0]", fillcolor="#e58139"] ;
129 -> 130 ;
131 [label="capital_run_length_longest <= 65.5\nentropy = 0.764\nsamples = 18\nvalue = [4, 14]", fillcolor="#72b9ec"] ;
129 -> 131 ;
132 [label="capital_run_length_total <= 591.5\nentropy = 0.544\nsamples = 16\nvalue = [2, 14]", fillcolor="#55abe9"] ;
131 -> 132 ;
133 [label="capital_run_length_average <= 2.124\nentropy = 0.353\nsamples = 15\nvalue = [1, 14]", fillcolor="#47a4e7"] ;
132 -> 133 ;
134 [label="capital_run_length_average <= 2.067\nentropy = 0.811\nsamples = 4\nvalue = [1, 3]", fillcolor="#7bbeee"] ;
133 -> 134 ;
135 [label="entropy = 0.0\nsamples = 3\nvalue = [0, 3]", fillcolor="#399de5"] ;
134 -> 135 ;
136 [label="entropy = 0.0\nsamples = 1\nvalue = [1, 0]", fillcolor="#e58139"] ;
134 -> 136 ;
137 [label="entropy = 0.0\nsamples = 11\nvalue = [0, 11]", fillcolor="#399de5"] ;
133 -> 137 ;
138 [label="entropy = 0.0\nsamples = 1\nvalue = [1, 0]", fillcolor="#e58139"] ;
132 -> 138 ;
139 [label="entropy = 0.0\nsamples = 2\nvalue = [2, 0]", fillcolor="#e58139"] ;
131 -> 139 ;
140 [label="entropy = 0.0\nsamples = 3\nvalue = [3, 0]", fillcolor="#e58139"] ;
128 -> 140 ;
141 [label="entropy = 0.0\nsamples = 12\nvalue = [0, 12]", fillcolor="#399de5"] ;
127 -> 141 ;
142 [label="word_freq_free <= 0.16\nentropy = 0.902\nsamples = 22\nvalue = [15, 7]", fillcolor="#f1bc95"] ;
126 -> 142 ;
143 [label="char_freq_%28 <= 0.036\nentropy = 0.65\nsamples = 18\nvalue = [15, 3]", fillcolor="#ea9a61"] ;
142 -> 143 ;
144 [label="word_freq_our <= 0.255\nentropy = 0.971\nsamples = 5\nvalue = [2, 3]", fillcolor="#bddef6"] ;
143 -> 144 ;
145 [label="word_freq_you <= 0.32\nentropy = 0.918\nsamples = 3\nvalue = [2, 1]", fillcolor="#f2c09c"] ;
144 -> 145 ;
146 [label="entropy = 0.0\nsamples = 1\nvalue = [0, 1]", fillcolor="#399de5"] ;
145 -> 146 ;
147 [label="entropy = 0.0\nsamples = 2\nvalue = [2, 0]", fillcolor="#e58139"] ;
145 -> 147 ;
148 [label="entropy = 0.0\nsamples = 2\nvalue = [0, 2]", fillcolor="#399de5"] ;
144 -> 148 ;
149 [label="entropy = 0.0\nsamples = 13\nvalue = [13, 0]", fillcolor="#e58139"] ;
143 -> 149 ;
150 [label="entropy = 0.0\nsamples = 4\nvalue = [0, 4]", fillcolor="#399de5"] ;
142 -> 150 ;
151 [label="entropy = 0.0\nsamples = 7\nvalue = [7, 0]", fillcolor="#e58139"] ;
125 -> 151 ;
152 [label="entropy = 0.0\nsamples = 11\nvalue = [0, 11]", fillcolor="#399de5"] ;
98 -> 152 ;
153 [label="char_freq_%21 <= 0.074\nentropy = 0.133\nsamples = 54\nvalue = [53, 1]", fillcolor="#e5833d"] ;
97 -> 153 ;
154 [label="entropy = 0.0\nsamples = 53\nvalue = [53, 0]", fillcolor="#e58139"] ;
153 -> 154 ;
155 [label="entropy = 0.0\nsamples = 1\nvalue = [0, 1]", fillcolor="#399de5"] ;
153 -> 155 ;
156 [label="capital_run_length_average <= 3.823\nentropy = 0.828\nsamples = 23\nvalue = [6, 17]", fillcolor="#7fc0ee"] ;
96 -> 156 ;
157 [label="word_freq_you <= 1.505\nentropy = 0.61\nsamples = 20\nvalue = [3, 17]", fillcolor="#5caeea"] ;
156 -> 157 ;
158 [label="word_freq_free <= 0.97\nentropy = 0.31\nsamples = 18\nvalue = [1, 17]", fillcolor="#45a3e7"] ;
157 -> 158 ;
159 [label="entropy = 0.0\nsamples = 17\nvalue = [0, 17]", fillcolor="#399de5"] ;
158 -> 159 ;
160 [label="entropy = 0.0\nsamples = 1\nvalue = [1, 0]", fillcolor="#e58139"] ;
158 -> 160 ;
161 [label="entropy = 0.0\nsamples = 2\nvalue = [2, 0]", fillcolor="#e58139"] ;
157 -> 161 ;
162 [label="entropy = 0.0\nsamples = 3\nvalue = [3, 0]", fillcolor="#e58139"] ;
156 -> 162 ;
163 [label="word_freq_addresses <= 0.16\nentropy = 0.262\nsamples = 45\nvalue = [43, 2]", fillcolor="#e68742"] ;
95 -> 163 ;
164 [label="word_freq_over <= 1.305\nentropy = 0.156\nsamples = 44\nvalue = [43, 1]", fillcolor="#e6843e"] ;
163 -> 164 ;
165 [label="entropy = 0.0\nsamples = 43\nvalue = [43, 0]", fillcolor="#e58139"] ;
164 -> 165 ;
166 [label="entropy = 0.0\nsamples = 1\nvalue = [0, 1]", fillcolor="#399de5"] ;
164 -> 166 ;
167 [label="entropy = 0.0\nsamples = 1\nvalue = [0, 1]", fillcolor="#399de5"] ;
163 -> 167 ;
168 [label="entropy = 0.0\nsamples = 82\nvalue = [82, 0]", fillcolor="#e58139"] ;
94 -> 168 ;
169 [label="entropy = 0.0\nsamples = 24\nvalue = [0, 24]", fillcolor="#399de5"] ;
93 -> 169 ;
170 [label="word_freq_receive <= 0.985\nentropy = 0.094\nsamples = 501\nvalue = [495, 6]", fillcolor="#e5833b"] ;
4 -> 170 ;
171 [label="capital_run_length_total <= 2280.5\nentropy = 0.067\nsamples = 499\nvalue = [495, 4]", fillcolor="#e5823b"] ;
170 -> 171 ;
172 [label="word_freq_hpl <= 0.395\nentropy = 0.053\nsamples = 498\nvalue = [495, 3]", fillcolor="#e5823a"] ;
171 -> 172 ;
173 [label="word_freq_hpl <= 0.385\nentropy = 0.093\nsamples = 254\nvalue = [251, 3]", fillcolor="#e5833b"] ;
172 -> 173 ;
174 [label="word_freq_data <= 0.04\nentropy = 0.067\nsamples = 253\nvalue = [251, 2]", fillcolor="#e5823b"] ;
173 -> 174 ;
175 [label="entropy = 0.0\nsamples = 195\nvalue = [195, 0]", fillcolor="#e58139"] ;
174 -> 175 ;
176 [label="char_freq_%3B <= 0.273\nentropy = 0.216\nsamples = 58\nvalue = [56, 2]", fillcolor="#e68640"] ;
174 -> 176 ;
177 [label="char_freq_%28 <= 0.331\nentropy = 0.129\nsamples = 56\nvalue = [55, 1]", fillcolor="#e5833d"] ;
176 -> 177 ;
178 [label="entropy = 0.0\nsamples = 52\nvalue = [52, 0]", fillcolor="#e58139"] ;
177 -> 178 ;
179 [label="char_freq_%28 <= 0.368\nentropy = 0.811\nsamples = 4\nvalue = [3, 1]", fillcolor="#eeab7b"] ;
177 -> 179 ;
180 [label="entropy = 0.0\nsamples = 1\nvalue = [0, 1]", fillcolor="#399de5"] ;
179 -> 180 ;
181 [label="entropy = 0.0\nsamples = 3\nvalue = [3, 0]", fillcolor="#e58139"] ;
179 -> 181 ;
182 [label="entropy = 1.0\nsamples = 2\nvalue = [1, 1]", fillcolor="#ffffff"] ;
176 -> 182 ;
183 [label="entropy = 0.0\nsamples = 1\nvalue = [0, 1]", fillcolor="#399de5"] ;
173 -> 183 ;
184 [label="entropy = 0.0\nsamples = 244\nvalue = [244, 0]", fillcolor="#e58139"] ;
172 -> 184 ;
185 [label="entropy = 0.0\nsamples = 1\nvalue = [0, 1]", fillcolor="#399de5"] ;
171 -> 185 ;
186 [label="entropy = 0.0\nsamples = 2\nvalue = [0, 2]", fillcolor="#399de5"] ;
170 -> 186 ;
187 [label="entropy = 0.0\nsamples = 537\nvalue = [537, 0]", fillcolor="#e58139"] ;
3 -> 187 ;
188 [label="word_freq_hp <= 0.24\nentropy = 0.986\nsamples = 121\nvalue = [52, 69]", fillcolor="#cee7f9"] ;
2 -> 188 ;
189 [label="capital_run_length_longest <= 7.0\nentropy = 0.857\nsamples = 96\nvalue = [27, 69]", fillcolor="#86c3ef"] ;
188 -> 189 ;
190 [label="word_freq_you <= 4.74\nentropy = 0.567\nsamples = 15\nvalue = [13, 2]", fillcolor="#e99457"] ;
189 -> 190 ;
191 [label="entropy = 0.0\nsamples = 13\nvalue = [13, 0]", fillcolor="#e58139"] ;
190 -> 191 ;
192 [label="entropy = 0.0\nsamples = 2\nvalue = [0, 2]", fillcolor="#399de5"] ;
190 -> 192 ;
193 [label="word_freq_edu <= 0.265\nentropy = 0.664\nsamples = 81\nvalue = [14, 67]", fillcolor="#62b1ea"] ;
189 -> 193 ;
194 [label="capital_run_length_average <= 3.928\nentropy = 0.557\nsamples = 77\nvalue = [10, 67]", fillcolor="#57ace9"] ;
193 -> 194 ;
195 [label="word_freq_000 <= 0.075\nentropy = 0.738\nsamples = 48\nvalue = [10, 38]", fillcolor="#6db7ec"] ;
194 -> 195 ;
196 [label="word_freq_your <= 2.39\nentropy = 0.971\nsamples = 25\nvalue = [10, 15]", fillcolor="#bddef6"] ;
195 -> 196 ;
197 [label="word_freq_re <= 0.87\nentropy = 0.991\nsamples = 18\nvalue = [10, 8]", fillcolor="#fae6d7"] ;
196 -> 197 ;
198 [label="word_freq_people <= 0.905\nentropy = 0.779\nsamples = 13\nvalue = [10, 3]", fillcolor="#eda774"] ;
197 -> 198 ;
199 [label="entropy = 0.0\nsamples = 9\nvalue = [9, 0]", fillcolor="#e58139"] ;
198 -> 199 ;
200 [label="capital_run_length_average <= 2.503\nentropy = 0.811\nsamples = 4\nvalue = [1, 3]", fillcolor="#7bbeee"] ;
198 -> 200 ;
201 [label="entropy = 0.0\nsamples = 2\nvalue = [0, 2]", fillcolor="#399de5"] ;
200 -> 201 ;
202 [label="entropy = 1.0\nsamples = 2\nvalue = [1, 1]", fillcolor="#ffffff"] ;
200 -> 202 ;
203 [label="entropy = 0.0\nsamples = 5\nvalue = [0, 5]", fillcolor="#399de5"] ;
197 -> 203 ;
204 [label="entropy = 0.0\nsamples = 7\nvalue = [0, 7]", fillcolor="#399de5"] ;
196 -> 204 ;
205 [label="entropy = 0.0\nsamples = 23\nvalue = [0, 23]", fillcolor="#399de5"] ;
195 -> 205 ;
206 [label="entropy = 0.0\nsamples = 29\nvalue = [0, 29]", fillcolor="#399de5"] ;
194 -> 206 ;
207 [label="entropy = 0.0\nsamples = 4\nvalue = [4, 0]", fillcolor="#e58139"] ;
193 -> 207 ;
208 [label="entropy = 0.0\nsamples = 25\nvalue = [25, 0]", fillcolor="#e58139"] ;
188 -> 208 ;
209 [label="word_freq_george <= 0.08\nentropy = 0.594\nsamples = 167\nvalue = [24, 143]", fillcolor="#5aade9"] ;
1 -> 209 ;
210 [label="word_freq_hp <= 0.15\nentropy = 0.371\nsamples = 154\nvalue = [11, 143]", fillcolor="#48a5e7"] ;
209 -> 210 ;
211 [label="word_freq_your <= 0.26\nentropy = 0.251\nsamples = 143\nvalue = [6, 137]", fillcolor="#42a1e6"] ;
210 -> 211 ;
212 [label="word_freq_data <= 0.21\nentropy = 0.544\nsamples = 40\nvalue = [5, 35]", fillcolor="#55abe9"] ;
211 -> 212 ;
213 [label="word_freq_your <= 0.115\nentropy = 0.398\nsamples = 38\nvalue = [3, 35]", fillcolor="#4aa5e7"] ;
212 -> 213 ;
214 [label="char_freq_%28 <= 0.501\nentropy = 0.191\nsamples = 34\nvalue = [1, 33]", fillcolor="#3fa0e6"] ;
213 -> 214 ;
215 [label="entropy = 0.0\nsamples = 33\nvalue = [0, 33]", fillcolor="#399de5"] ;
214 -> 215 ;
216 [label="entropy = 0.0\nsamples = 1\nvalue = [1, 0]", fillcolor="#e58139"] ;
214 -> 216 ;
217 [label="capital_run_length_total <= 198.5\nentropy = 1.0\nsamples = 4\nvalue = [2, 2]", fillcolor="#ffffff"] ;
213 -> 217 ;
218 [label="entropy = 0.0\nsamples = 2\nvalue = [2, 0]", fillcolor="#e58139"] ;
217 -> 218 ;
219 [label="entropy = 0.0\nsamples = 2\nvalue = [0, 2]", fillcolor="#399de5"] ;
217 -> 219 ;
220 [label="entropy = 0.0\nsamples = 2\nvalue = [2, 0]", fillcolor="#e58139"] ;
212 -> 220 ;
221 [label="word_freq_you <= 5.295\nentropy = 0.079\nsamples = 103\nvalue = [1, 102]", fillcolor="#3b9ee5"] ;
211 -> 221 ;
222 [label="entropy = 0.0\nsamples = 102\nvalue = [0, 102]", fillcolor="#399de5"] ;
221 -> 222 ;
223 [label="entropy = 0.0\nsamples = 1\nvalue = [1, 0]", fillcolor="#e58139"] ;
221 -> 223 ;
224 [label="word_freq_hpl <= 0.43\nentropy = 0.994\nsamples = 11\nvalue = [5, 6]", fillcolor="#deeffb"] ;
210 -> 224 ;
225 [label="word_freq_our <= 0.485\nentropy = 0.863\nsamples = 7\nvalue = [5, 2]", fillcolor="#efb388"] ;
224 -> 225 ;
226 [label="entropy = 0.0\nsamples = 4\nvalue = [4, 0]", fillcolor="#e58139"] ;
225 -> 226 ;
227 [label="word_freq_email <= 0.68\nentropy = 0.918\nsamples = 3\nvalue = [1, 2]", fillcolor="#9ccef2"] ;
225 -> 227 ;
228 [label="entropy = 0.0\nsamples = 1\nvalue = [0, 1]", fillcolor="#399de5"] ;
227 -> 228 ;
229 [label="entropy = 1.0\nsamples = 2\nvalue = [1, 1]", fillcolor="#ffffff"] ;
227 -> 229 ;
230 [label="entropy = 0.0\nsamples = 4\nvalue = [0, 4]", fillcolor="#399de5"] ;
224 -> 230 ;
231 [label="entropy = 0.0\nsamples = 13\nvalue = [13, 0]", fillcolor="#e58139"] ;
209 -> 231 ;
232 [label="char_freq_%24 <= 0.007\nentropy = 0.849\nsamples = 1635\nvalue = [450, 1185]", fillcolor="#84c2ef"] ;
0 -> 232 [labeldistance=2.5, labelangle=-45, headlabel="False"] ;
233 [label="word_freq_remove <= 0.06\nentropy = 1.0\nsamples = 845\nvalue = [416, 429]", fillcolor="#f9fcfe"] ;
232 -> 233 ;
234 [label="capital_run_length_average <= 2.755\nentropy = 0.964\nsamples = 672\nvalue = [411, 261]", fillcolor="#f6d1b7"] ;
233 -> 234 ;
235 [label="word_freq_free <= 0.41\nentropy = 0.761\nsamples = 454\nvalue = [354, 100]", fillcolor="#eca571"] ;
234 -> 235 ;
236 [label="word_freq_hp <= 0.115\nentropy = 0.61\nsamples = 386\nvalue = [328, 58]", fillcolor="#ea975c"] ;
235 -> 236 ;
237 [label="word_freq_business <= 0.07\nentropy = 0.733\nsamples = 282\nvalue = [224, 58]", fillcolor="#eca26c"] ;
236 -> 237 ;
238 [label="char_freq_%21 <= 0.965\nentropy = 0.616\nsamples = 262\nvalue = [222, 40]", fillcolor="#ea985d"] ;
237 -> 238 ;
239 [label="word_freq_your <= 0.415\nentropy = 0.457\nsamples = 218\nvalue = [197, 21]", fillcolor="#e88e4e"] ;
238 -> 239 ;
240 [label="word_freq_000 <= 0.725\nentropy = 0.149\nsamples = 140\nvalue = [137, 3]", fillcolor="#e6843d"] ;
239 -> 240 ;
241 [label="word_freq_you <= 2.515\nentropy = 0.109\nsamples = 139\nvalue = [137, 2]", fillcolor="#e5833c"] ;
240 -> 241 ;
242 [label="entropy = 0.0\nsamples = 90\nvalue = [90, 0]", fillcolor="#e58139"] ;
241 -> 242 ;
243 [label="word_freq_you <= 2.545\nentropy = 0.246\nsamples = 49\nvalue = [47, 2]", fillcolor="#e68641"] ;
241 -> 243 ;
244 [label="entropy = 0.0\nsamples = 1\nvalue = [0, 1]", fillcolor="#399de5"] ;
243 -> 244 ;
245 [label="capital_run_length_average <= 2.293\nentropy = 0.146\nsamples = 48\nvalue = [47, 1]", fillcolor="#e6843d"] ;
243 -> 245 ;
246 [label="entropy = 0.0\nsamples = 40\nvalue = [40, 0]", fillcolor="#e58139"] ;
245 -> 246 ;
247 [label="capital_run_length_average <= 2.321\nentropy = 0.544\nsamples = 8\nvalue = [7, 1]", fillcolor="#e99355"] ;
245 -> 247 ;
248 [label="entropy = 0.0\nsamples = 1\nvalue = [0, 1]", fillcolor="#399de5"] ;
247 -> 248 ;
249 [label="entropy = 0.0\nsamples = 7\nvalue = [7, 0]", fillcolor="#e58139"] ;
247 -> 249 ;
250 [label="entropy = 0.0\nsamples = 1\nvalue = [0, 1]", fillcolor="#399de5"] ;
240 -> 250 ;
251 [label="word_freq_re <= 0.365\nentropy = 0.779\nsamples = 78\nvalue = [60, 18]", fillcolor="#eda774"] ;
239 -> 251 ;
252 [label="capital_run_length_longest <= 9.5\nentropy = 0.9\nsamples = 57\nvalue = [39, 18]", fillcolor="#f1bb94"] ;
251 -> 252 ;
253 [label="word_freq_our <= 1.43\nentropy = 0.523\nsamples = 34\nvalue = [30, 4]", fillcolor="#e89253"] ;
252 -> 253 ;
254 [label="word_freq_receive <= 0.285\nentropy = 0.337\nsamples = 32\nvalue = [30, 2]", fillcolor="#e78946"] ;
253 -> 254 ;
255 [label="word_freq_your <= 2.24\nentropy = 0.206\nsamples = 31\nvalue = [30, 1]", fillcolor="#e68540"] ;
254 -> 255 ;
256 [label="entropy = 0.0\nsamples = 26\nvalue = [26, 0]", fillcolor="#e58139"] ;
255 -> 256 ;
257 [label="word_freq_your <= 2.59\nentropy = 0.722\nsamples = 5\nvalue = [4, 1]", fillcolor="#eca06a"] ;
255 -> 257 ;
258 [label="entropy = 0.0\nsamples = 1\nvalue = [0, 1]", fillcolor="#399de5"] ;
257 -> 258 ;
259 [label="entropy = 0.0\nsamples = 4\nvalue = [4, 0]", fillcolor="#e58139"] ;
257 -> 259 ;
260 [label="entropy = 0.0\nsamples = 1\nvalue = [0, 1]", fillcolor="#399de5"] ;
254 -> 260 ;
261 [label="entropy = 0.0\nsamples = 2\nvalue = [0, 2]", fillcolor="#399de5"] ;
253 -> 261 ;
262 [label="char_freq_%21 <= 0.458\nentropy = 0.966\nsamples = 23\nvalue = [9, 14]", fillcolor="#b8dcf6"] ;
252 -> 262 ;
263 [label="char_freq_%28 <= 0.153\nentropy = 0.989\nsamples = 16\nvalue = [9, 7]", fillcolor="#f9e3d3"] ;
262 -> 263 ;
264 [label="word_freq_receive <= 0.15\nentropy = 0.946\nsamples = 11\nvalue = [4, 7]", fillcolor="#aad5f4"] ;
263 -> 264 ;
265 [label="word_freq_our <= 0.295\nentropy = 0.764\nsamples = 9\nvalue = [2, 7]", fillcolor="#72b9ec"] ;
264 -> 265 ;
266 [label="capital_run_length_longest <= 13.5\nentropy = 0.918\nsamples = 3\nvalue = [2, 1]", fillcolor="#f2c09c"] ;
265 -> 266 ;
267 [label="entropy = 0.0\nsamples = 1\nvalue = [0, 1]", fillcolor="#399de5"] ;
266 -> 267 ;
268 [label="entropy = 0.0\nsamples = 2\nvalue = [2, 0]", fillcolor="#e58139"] ;
266 -> 268 ;
269 [label="entropy = 0.0\nsamples = 6\nvalue = [0, 6]", fillcolor="#399de5"] ;
265 -> 269 ;
270 [label="entropy = 0.0\nsamples = 2\nvalue = [2, 0]", fillcolor="#e58139"] ;
264 -> 270 ;
271 [label="entropy = 0.0\nsamples = 5\nvalue = [5, 0]", fillcolor="#e58139"] ;
263 -> 271 ;
272 [label="entropy = 0.0\nsamples = 7\nvalue = [0, 7]", fillcolor="#399de5"] ;
262 -> 272 ;
273 [label="entropy = 0.0\nsamples = 21\nvalue = [21, 0]", fillcolor="#e58139"] ;
251 -> 273 ;
274 [label="capital_run_length_longest <= 4.5\nentropy = 0.987\nsamples = 44\nvalue = [25, 19]", fillcolor="#f9e1cf"] ;
238 -> 274 ;
275 [label="capital_run_length_total <= 2.5\nentropy = 0.454\nsamples = 21\nvalue = [19, 2]", fillcolor="#e88e4e"] ;
274 -> 275 ;
276 [label="entropy = 0.0\nsamples = 2\nvalue = [0, 2]", fillcolor="#399de5"] ;
275 -> 276 ;
277 [label="entropy = 0.0\nsamples = 19\nvalue = [19, 0]", fillcolor="#e58139"] ;
275 -> 277 ;
278 [label="word_freq_will <= 1.505\nentropy = 0.828\nsamples = 23\nvalue = [6, 17]", fillcolor="#7fc0ee"] ;
274 -> 278 ;
279 [label="word_freq_re <= 0.345\nentropy = 0.61\nsamples = 20\nvalue = [3, 17]", fillcolor="#5caeea"] ;
278 -> 279 ;
280 [label="capital_run_length_total <= 14.5\nentropy = 0.323\nsamples = 17\nvalue = [1, 16]", fillcolor="#45a3e7"] ;
279 -> 280 ;
281 [label="entropy = 0.0\nsamples = 1\nvalue = [1, 0]", fillcolor="#e58139"] ;
280 -> 281 ;
282 [label="entropy = 0.0\nsamples = 16\nvalue = [0, 16]", fillcolor="#399de5"] ;
280 -> 282 ;
283 [label="word_freq_re <= 1.08\nentropy = 0.918\nsamples = 3\nvalue = [2, 1]", fillcolor="#f2c09c"] ;
279 -> 283 ;
284 [label="entropy = 0.0\nsamples = 2\nvalue = [2, 0]", fillcolor="#e58139"] ;
283 -> 284 ;
285 [label="entropy = 0.0\nsamples = 1\nvalue = [0, 1]", fillcolor="#399de5"] ;
283 -> 285 ;
286 [label="entropy = 0.0\nsamples = 3\nvalue = [3, 0]", fillcolor="#e58139"] ;
278 -> 286 ;
287 [label="char_freq_%21 <= 0.138\nentropy = 0.469\nsamples = 20\nvalue = [2, 18]", fillcolor="#4fa8e8"] ;
237 -> 287 ;
288 [label="word_freq_all <= 0.385\nentropy = 1.0\nsamples = 4\nvalue = [2, 2]", fillcolor="#ffffff"] ;
287 -> 288 ;
289 [label="entropy = 0.0\nsamples = 2\nvalue = [0, 2]", fillcolor="#399de5"] ;
288 -> 289 ;
290 [label="entropy = 0.0\nsamples = 2\nvalue = [2, 0]", fillcolor="#e58139"] ;
288 -> 290 ;
291 [label="entropy = 0.0\nsamples = 16\nvalue = [0, 16]", fillcolor="#399de5"] ;
287 -> 291 ;
292 [label="entropy = 0.0\nsamples = 104\nvalue = [104, 0]", fillcolor="#e58139"] ;
236 -> 292 ;
293 [label="char_freq_%21 <= 0.46\nentropy = 0.96\nsamples = 68\nvalue = [26, 42]", fillcolor="#b4daf5"] ;
235 -> 293 ;
294 [label="word_freq_free <= 1.33\nentropy = 0.918\nsamples = 36\nvalue = [24, 12]", fillcolor="#f2c09c"] ;
293 -> 294 ;
295 [label="word_freq_will <= 0.12\nentropy = 0.559\nsamples = 23\nvalue = [20, 3]", fillcolor="#e99457"] ;
294 -> 295 ;
296 [label="word_freq_all <= 0.605\nentropy = 0.845\nsamples = 11\nvalue = [8, 3]", fillcolor="#efb083"] ;
295 -> 296 ;
297 [label="word_freq_you <= 2.685\nentropy = 0.503\nsamples = 9\nvalue = [8, 1]", fillcolor="#e89152"] ;
296 -> 297 ;
298 [label="entropy = 0.0\nsamples = 7\nvalue = [7, 0]", fillcolor="#e58139"] ;
297 -> 298 ;
299 [label="word_freq_internet <= 0.265\nentropy = 1.0\nsamples = 2\nvalue = [1, 1]", fillcolor="#ffffff"] ;
297 -> 299 ;
300 [label="entropy = 0.0\nsamples = 1\nvalue = [0, 1]", fillcolor="#399de5"] ;
299 -> 300 ;
301 [label="entropy = 0.0\nsamples = 1\nvalue = [1, 0]", fillcolor="#e58139"] ;
299 -> 301 ;
302 [label="entropy = 0.0\nsamples = 2\nvalue = [0, 2]", fillcolor="#399de5"] ;
296 -> 302 ;
303 [label="entropy = 0.0\nsamples = 12\nvalue = [12, 0]", fillcolor="#e58139"] ;
295 -> 303 ;
304 [label="capital_run_length_total <= 53.0\nentropy = 0.89\nsamples = 13\nvalue = [4, 9]", fillcolor="#91c9f1"] ;
294 -> 304 ;
305 [label="word_freq_you <= 5.695\nentropy = 0.722\nsamples = 5\nvalue = [4, 1]", fillcolor="#eca06a"] ;
304 -> 305 ;
306 [label="entropy = 0.0\nsamples = 4\nvalue = [4, 0]", fillcolor="#e58139"] ;
305 -> 306 ;
307 [label="entropy = 0.0\nsamples = 1\nvalue = [0, 1]", fillcolor="#399de5"] ;
305 -> 307 ;
308 [label="entropy = 0.0\nsamples = 8\nvalue = [0, 8]", fillcolor="#399de5"] ;
304 -> 308 ;
309 [label="capital_run_length_total <= 41.5\nentropy = 0.337\nsamples = 32\nvalue = [2, 30]", fillcolor="#46a4e7"] ;
293 -> 309 ;
310 [label="word_freq_free <= 1.04\nentropy = 0.863\nsamples = 7\nvalue = [2, 5]", fillcolor="#88c4ef"] ;
309 -> 310 ;
311 [label="entropy = 0.0\nsamples = 2\nvalue = [2, 0]", fillcolor="#e58139"] ;
310 -> 311 ;
312 [label="entropy = 0.0\nsamples = 5\nvalue = [0, 5]", fillcolor="#399de5"] ;
310 -> 312 ;
313 [label="entropy = 0.0\nsamples = 25\nvalue = [0, 25]", fillcolor="#399de5"] ;
309 -> 313 ;
314 [label="word_freq_hp <= 0.105\nentropy = 0.829\nsamples = 218\nvalue = [57, 161]", fillcolor="#7fc0ee"] ;
234 -> 314 ;
315 [label="word_freq_edu <= 0.28\nentropy = 0.692\nsamples = 194\nvalue = [36, 158]", fillcolor="#66b3eb"] ;
314 -> 315 ;
316 [label="word_freq_our <= 0.3\nentropy = 0.611\nsamples = 186\nvalue = [28, 158]", fillcolor="#5caeea"] ;
315 -> 316 ;
317 [label="char_freq_%21 <= 0.196\nentropy = 0.779\nsamples = 117\nvalue = [27, 90]", fillcolor="#74baed"] ;
316 -> 317 ;
318 [label="char_freq_%23 <= 0.776\nentropy = 0.503\nsamples = 9\nvalue = [8, 1]", fillcolor="#e89152"] ;
317 -> 318 ;
319 [label="entropy = 0.0\nsamples = 8\nvalue = [8, 0]", fillcolor="#e58139"] ;
318 -> 319 ;
320 [label="entropy = 0.0\nsamples = 1\nvalue = [0, 1]", fillcolor="#399de5"] ;
318 -> 320 ;
321 [label="word_freq_meeting <= 0.445\nentropy = 0.671\nsamples = 108\nvalue = [19, 89]", fillcolor="#63b2eb"] ;
317 -> 321 ;
322 [label="word_freq_will <= 0.54\nentropy = 0.573\nsamples = 103\nvalue = [14, 89]", fillcolor="#58ace9"] ;
321 -> 322 ;
323 [label="capital_run_length_average <= 4.421\nentropy = 0.394\nsamples = 90\nvalue = [7, 83]", fillcolor="#4aa5e7"] ;
322 -> 323 ;
324 [label="word_freq_email <= 0.275\nentropy = 0.599\nsamples = 48\nvalue = [7, 41]", fillcolor="#5baee9"] ;
323 -> 324 ;
325 [label="word_freq_re <= 1.255\nentropy = 0.439\nsamples = 44\nvalue = [4, 40]", fillcolor="#4da7e8"] ;
324 -> 325 ;
326 [label="word_freq_make <= 0.68\nentropy = 0.276\nsamples = 42\nvalue = [2, 40]", fillcolor="#43a2e6"] ;
325 -> 326 ;
327 [label="char_freq_%28 <= 0.518\nentropy = 0.169\nsamples = 40\nvalue = [1, 39]", fillcolor="#3ea0e6"] ;
326 -> 327 ;
328 [label="entropy = 0.0\nsamples = 38\nvalue = [0, 38]", fillcolor="#399de5"] ;
327 -> 328 ;
329 [label="capital_run_length_average <= 3.416\nentropy = 1.0\nsamples = 2\nvalue = [1, 1]", fillcolor="#ffffff"] ;
327 -> 329 ;
330 [label="entropy = 0.0\nsamples = 1\nvalue = [1, 0]", fillcolor="#e58139"] ;
329 -> 330 ;
331 [label="entropy = 0.0\nsamples = 1\nvalue = [0, 1]", fillcolor="#399de5"] ;
329 -> 331 ;
332 [label="capital_run_length_longest <= 25.0\nentropy = 1.0\nsamples = 2\nvalue = [1, 1]", fillcolor="#ffffff"] ;
326 -> 332 ;
333 [label="entropy = 0.0\nsamples = 1\nvalue = [0, 1]", fillcolor="#399de5"] ;
332 -> 333 ;
334 [label="entropy = 0.0\nsamples = 1\nvalue = [1, 0]", fillcolor="#e58139"] ;
332 -> 334 ;
335 [label="entropy = 0.0\nsamples = 2\nvalue = [2, 0]", fillcolor="#e58139"] ;
325 -> 335 ;
336 [label="capital_run_length_longest <= 40.5\nentropy = 0.811\nsamples = 4\nvalue = [3, 1]", fillcolor="#eeab7b"] ;
324 -> 336 ;
337 [label="entropy = 0.0\nsamples = 1\nvalue = [0, 1]", fillcolor="#399de5"] ;
336 -> 337 ;
338 [label="entropy = 0.0\nsamples = 3\nvalue = [3, 0]", fillcolor="#e58139"] ;
336 -> 338 ;
339 [label="entropy = 0.0\nsamples = 42\nvalue = [0, 42]", fillcolor="#399de5"] ;
323 -> 339 ;
340 [label="word_freq_you <= 1.625\nentropy = 0.996\nsamples = 13\nvalue = [7, 6]", fillcolor="#fbede3"] ;
322 -> 340 ;
341 [label="entropy = 0.0\nsamples = 6\nvalue = [6, 0]", fillcolor="#e58139"] ;
340 -> 341 ;
342 [label="word_freq_people <= 0.305\nentropy = 0.592\nsamples = 7\nvalue = [1, 6]", fillcolor="#5aade9"] ;
340 -> 342 ;
343 [label="entropy = 0.0\nsamples = 6\nvalue = [0, 6]", fillcolor="#399de5"] ;
342 -> 343 ;
344 [label="entropy = 0.0\nsamples = 1\nvalue = [1, 0]", fillcolor="#e58139"] ;
342 -> 344 ;
345 [label="entropy = 0.0\nsamples = 5\nvalue = [5, 0]", fillcolor="#e58139"] ;
321 -> 345 ;
346 [label="word_freq_original <= 0.43\nentropy = 0.109\nsamples = 69\nvalue = [1, 68]", fillcolor="#3c9ee5"] ;
316 -> 346 ;
347 [label="entropy = 0.0\nsamples = 67\nvalue = [0, 67]", fillcolor="#399de5"] ;
346 -> 347 ;
348 [label="char_freq_%21 <= 0.62\nentropy = 1.0\nsamples = 2\nvalue = [1, 1]", fillcolor="#ffffff"] ;
346 -> 348 ;
349 [label="entropy = 0.0\nsamples = 1\nvalue = [0, 1]", fillcolor="#399de5"] ;
348 -> 349 ;
350 [label="entropy = 0.0\nsamples = 1\nvalue = [1, 0]", fillcolor="#e58139"] ;
348 -> 350 ;
351 [label="entropy = 0.0\nsamples = 8\nvalue = [8, 0]", fillcolor="#e58139"] ;
315 -> 351 ;
352 [label="word_freq_free <= 0.74\nentropy = 0.544\nsamples = 24\nvalue = [21, 3]", fillcolor="#e99355"] ;
314 -> 352 ;
353 [label="entropy = 0.0\nsamples = 21\nvalue = [21, 0]", fillcolor="#e58139"] ;
352 -> 353 ;
354 [label="entropy = 0.0\nsamples = 3\nvalue = [0, 3]", fillcolor="#399de5"] ;
352 -> 354 ;
355 [label="word_freq_edu <= 0.115\nentropy = 0.189\nsamples = 173\nvalue = [5, 168]", fillcolor="#3fa0e6"] ;
233 -> 355 ;
356 [label="word_freq_hp <= 0.23\nentropy = 0.127\nsamples = 171\nvalue = [3, 168]", fillcolor="#3d9fe5"] ;
355 -> 356 ;
357 [label="word_freq_remove <= 2.9\nentropy = 0.052\nsamples = 169\nvalue = [1, 168]", fillcolor="#3a9ee5"] ;
356 -> 357 ;
358 [label="entropy = 0.0\nsamples = 166\nvalue = [0, 166]", fillcolor="#399de5"] ;
357 -> 358 ;
359 [label="word_freq_remove <= 3.575\nentropy = 0.918\nsamples = 3\nvalue = [1, 2]", fillcolor="#9ccef2"] ;
357 -> 359 ;
360 [label="entropy = 0.0\nsamples = 1\nvalue = [1, 0]", fillcolor="#e58139"] ;
359 -> 360 ;
361 [label="entropy = 0.0\nsamples = 2\nvalue = [0, 2]", fillcolor="#399de5"] ;
359 -> 361 ;
362 [label="entropy = 0.0\nsamples = 2\nvalue = [2, 0]", fillcolor="#e58139"] ;
356 -> 362 ;
363 [label="entropy = 0.0\nsamples = 2\nvalue = [2, 0]", fillcolor="#e58139"] ;
355 -> 363 ;
364 [label="word_freq_your <= 0.395\nentropy = 0.256\nsamples = 790\nvalue = [34, 756]", fillcolor="#42a1e6"] ;
232 -> 364 ;
365 [label="capital_run_length_average <= 2.225\nentropy = 0.746\nsamples = 99\nvalue = [21, 78]", fillcolor="#6eb7ec"] ;
364 -> 365 ;
366 [label="word_freq_free <= 0.095\nentropy = 0.881\nsamples = 20\nvalue = [14, 6]", fillcolor="#f0b78e"] ;
365 -> 366 ;
367 [label="word_freq_you <= 5.08\nentropy = 0.371\nsamples = 14\nvalue = [13, 1]", fillcolor="#e78b48"] ;
366 -> 367 ;
368 [label="entropy = 0.0\nsamples = 13\nvalue = [13, 0]", fillcolor="#e58139"] ;
367 -> 368 ;
369 [label="entropy = 0.0\nsamples = 1\nvalue = [0, 1]", fillcolor="#399de5"] ;
367 -> 369 ;
370 [label="char_freq_%28 <= 0.323\nentropy = 0.65\nsamples = 6\nvalue = [1, 5]", fillcolor="#61b1ea"] ;
366 -> 370 ;
371 [label="entropy = 0.0\nsamples = 5\nvalue = [0, 5]", fillcolor="#399de5"] ;
370 -> 371 ;
372 [label="entropy = 0.0\nsamples = 1\nvalue = [1, 0]", fillcolor="#e58139"] ;
370 -> 372 ;
373 [label="word_freq_project <= 0.245\nentropy = 0.432\nsamples = 79\nvalue = [7, 72]", fillcolor="#4ca7e8"] ;
365 -> 373 ;
374 [label="word_freq_email <= 0.4\nentropy = 0.242\nsamples = 75\nvalue = [3, 72]", fillcolor="#41a1e6"] ;
373 -> 374 ;
375 [label="entropy = 0.0\nsamples = 59\nvalue = [0, 59]", fillcolor="#399de5"] ;
374 -> 375 ;
376 [label="capital_run_length_longest <= 61.5\nentropy = 0.696\nsamples = 16\nvalue = [3, 13]", fillcolor="#67b4eb"] ;
374 -> 376 ;
377 [label="entropy = 0.0\nsamples = 13\nvalue = [0, 13]", fillcolor="#399de5"] ;
376 -> 377 ;
378 [label="entropy = 0.0\nsamples = 3\nvalue = [3, 0]", fillcolor="#e58139"] ;
376 -> 378 ;
379 [label="entropy = 0.0\nsamples = 4\nvalue = [4, 0]", fillcolor="#e58139"] ;
373 -> 379 ;
380 [label="word_freq_george <= 0.21\nentropy = 0.135\nsamples = 691\nvalue = [13, 678]", fillcolor="#3d9fe5"] ;
364 -> 380 ;
381 [label="capital_run_length_longest <= 9.5\nentropy = 0.11\nsamples = 688\nvalue = [10, 678]", fillcolor="#3c9ee5"] ;
380 -> 381 ;
382 [label="capital_run_length_total <= 82.5\nentropy = 0.702\nsamples = 21\nvalue = [4, 17]", fillcolor="#68b4eb"] ;
381 -> 382 ;
383 [label="entropy = 0.0\nsamples = 14\nvalue = [0, 14]", fillcolor="#399de5"] ;
382 -> 383 ;
384 [label="word_freq_will <= 1.1\nentropy = 0.985\nsamples = 7\nvalue = [4, 3]", fillcolor="#f8e0ce"] ;
382 -> 384 ;
385 [label="entropy = 0.0\nsamples = 4\nvalue = [4, 0]", fillcolor="#e58139"] ;
384 -> 385 ;
386 [label="entropy = 0.0\nsamples = 3\nvalue = [0, 3]", fillcolor="#399de5"] ;
384 -> 386 ;
387 [label="word_freq_edu <= 0.2\nentropy = 0.074\nsamples = 667\nvalue = [6, 661]", fillcolor="#3b9ee5"] ;
381 -> 387 ;
388 [label="word_freq_your <= 2.155\nentropy = 0.053\nsamples = 663\nvalue = [4, 659]", fillcolor="#3a9ee5"] ;
387 -> 388 ;
389 [label="entropy = 0.0\nsamples = 484\nvalue = [0, 484]", fillcolor="#399de5"] ;
388 -> 389 ;
390 [label="capital_run_length_total <= 27.5\nentropy = 0.154\nsamples = 179\nvalue = [4, 175]", fillcolor="#3e9fe6"] ;
388 -> 390 ;
391 [label="entropy = 0.0\nsamples = 1\nvalue = [1, 0]", fillcolor="#e58139"] ;
390 -> 391 ;
392 [label="word_freq_your <= 2.17\nentropy = 0.123\nsamples = 178\nvalue = [3, 175]", fillcolor="#3c9fe5"] ;
390 -> 392 ;
393 [label="entropy = 0.0\nsamples = 1\nvalue = [1, 0]", fillcolor="#e58139"] ;
392 -> 393 ;
394 [label="word_freq_meeting <= 0.13\nentropy = 0.089\nsamples = 177\nvalue = [2, 175]", fillcolor="#3b9ee5"] ;
392 -> 394 ;
395 [label="word_freq_business <= 1.65\nentropy = 0.051\nsamples = 176\nvalue = [1, 175]", fillcolor="#3a9ee5"] ;
394 -> 395 ;
396 [label="entropy = 0.0\nsamples = 164\nvalue = [0, 164]", fillcolor="#399de5"] ;
395 -> 396 ;
397 [label="char_freq_%24 <= 0.053\nentropy = 0.414\nsamples = 12\nvalue = [1, 11]", fillcolor="#4ba6e7"] ;
395 -> 397 ;
398 [label="entropy = 0.0\nsamples = 1\nvalue = [1, 0]", fillcolor="#e58139"] ;
397 -> 398 ;
399 [label="entropy = 0.0\nsamples = 11\nvalue = [0, 11]", fillcolor="#399de5"] ;
397 -> 399 ;
400 [label="entropy = 0.0\nsamples = 1\nvalue = [1, 0]", fillcolor="#e58139"] ;
394 -> 400 ;
401 [label="word_freq_000 <= 0.195\nentropy = 1.0\nsamples = 4\nvalue = [2, 2]", fillcolor="#ffffff"] ;
387 -> 401 ;
402 [label="entropy = 0.0\nsamples = 2\nvalue = [0, 2]", fillcolor="#399de5"] ;
401 -> 402 ;
403 [label="entropy = 0.0\nsamples = 2\nvalue = [2, 0]", fillcolor="#e58139"] ;
401 -> 403 ;
404 [label="entropy = 0.0\nsamples = 3\nvalue = [3, 0]", fillcolor="#e58139"] ;
380 -> 404 ;
}