digraph Tree {
node [shape=box, style="filled, rounded", color="black", fontname=helvetica] ;
edge [fontname=helvetica] ;
0 [label="char_freq_%24 <= -0.083\nentropy = 0.967\nsamples = 3910\nvalue = [2369, 1541]", fillcolor="#f6d3ba"] ;
1 [label="word_freq_remove <= -0.126\nentropy = 0.789\nsamples = 2962\nvalue = [2261, 701]", fillcolor="#eda876"] ;
0 -> 1 [labeldistance=2.5, labelangle=45, headlabel="True"] ;
2 [label="char_freq_%21 <= -0.096\nentropy = 0.639\nsamples = 2667\nvalue = [2235, 432]", fillcolor="#ea995f"] ;
1 -> 2 ;
3 [label="word_freq_hp <= -0.314\nentropy = 0.408\nsamples = 2142\nvalue = [1967, 175]", fillcolor="#e78c4b"] ;
2 -> 3 ;
4 [label="capital_run_length_longest <= -0.214\nentropy = 0.537\nsamples = 1387\nvalue = [1217, 170]", fillcolor="#e99355"] ;
3 -> 4 ;
5 [label="word_freq_free <= 0.716\nentropy = 0.28\nsamples = 888\nvalue = [845, 43]", fillcolor="#e68743"] ;
4 -> 5 ;
6 [label="word_freq_internet <= -0.175\nentropy = 0.225\nsamples = 854\nvalue = [823, 31]", fillcolor="#e68640"] ;
5 -> 6 ;
7 [label="word_freq_george <= -0.191\nentropy = 0.182\nsamples = 833\nvalue = [810, 23]", fillcolor="#e6853f"] ;
6 -> 7 ;
8 [label="capital_run_length_average <= -0.115\nentropy = 0.237\nsamples = 593\nvalue = [570, 23]", fillcolor="#e68641"] ;
7 -> 8 ;
9 [label="word_freq_receive <= 1.117\nentropy = 0.33\nsamples = 363\nvalue = [341, 22]", fillcolor="#e78946"] ;
8 -> 9 ;
10 [label="word_freq_edu <= -0.148\nentropy = 0.309\nsamples = 361\nvalue = [341, 20]", fillcolor="#e78845"] ;
9 -> 10 ;
11 [label="word_freq_you <= -0.424\nentropy = 0.363\nsamples = 289\nvalue = [269, 20]", fillcolor="#e78a48"] ;
10 -> 11 ;
12 [label="word_freq_credit <= 20.314\nentropy = 0.202\nsamples = 159\nvalue = [154, 5]", fillcolor="#e6853f"] ;
11 -> 12 ;
13 [label="capital_run_length_total <= -0.438\nentropy = 0.17\nsamples = 158\nvalue = [154, 4]", fillcolor="#e6843e"] ;
12 -> 13 ;
14 [label="word_freq_our <= 9.901\nentropy = 0.07\nsamples = 119\nvalue = [118, 1]", fillcolor="#e5823b"] ;
13 -> 14 ;
15 [label="entropy = 0.0\nsamples = 116\nvalue = [116, 0]", fillcolor="#e58139"] ;
14 -> 15 ;
16 [label="word_freq_our <= 11.448\nentropy = 0.918\nsamples = 3\nvalue = [2, 1]", fillcolor="#f2c09c"] ;
14 -> 16 ;
17 [label="entropy = 0.0\nsamples = 1\nvalue = [0, 1]", fillcolor="#399de5"] ;
16 -> 17 ;
18 [label="entropy = 0.0\nsamples = 2\nvalue = [2, 0]", fillcolor="#e58139"] ;
16 -> 18 ;
19 [label="capital_run_length_total <= -0.435\nentropy = 0.391\nsamples = 39\nvalue = [36, 3]", fillcolor="#e78c49"] ;
13 -> 19 ;
20 [label="entropy = 0.0\nsamples = 2\nvalue = [0, 2]", fillcolor="#399de5"] ;
19 -> 20 ;
21 [label="capital_run_length_average <= -0.13\nentropy = 0.179\nsamples = 37\nvalue = [36, 1]", fillcolor="#e6843e"] ;
19 -> 21 ;
22 [label="capital_run_length_total <= -0.419\nentropy = 1.0\nsamples = 2\nvalue = [1, 1]", fillcolor="#ffffff"] ;
21 -> 22 ;
23 [label="entropy = 0.0\nsamples = 1\nvalue = [1, 0]", fillcolor="#e58139"] ;
22 -> 23 ;
24 [label="entropy = 0.0\nsamples = 1\nvalue = [0, 1]", fillcolor="#399de5"] ;
22 -> 24 ;
25 [label="entropy = 0.0\nsamples = 35\nvalue = [35, 0]", fillcolor="#e58139"] ;
21 -> 25 ;
26 [label="entropy = 0.0\nsamples = 1\nvalue = [0, 1]", fillcolor="#399de5"] ;
12 -> 26 ;
27 [label="capital_run_length_average <= -0.115\nentropy = 0.516\nsamples = 130\nvalue = [115, 15]", fillcolor="#e89153"] ;
11 -> 27 ;
28 [label="word_freq_technology <= 0.466\nentropy = 0.474\nsamples = 128\nvalue = [115, 13]", fillcolor="#e88f4f"] ;
27 -> 28 ;
29 [label="word_freq_you <= 5.713\nentropy = 0.43\nsamples = 125\nvalue = [114, 11]", fillcolor="#e88d4c"] ;
28 -> 29 ;
30 [label="word_freq_will <= -0.043\nentropy = 0.38\nsamples = 122\nvalue = [113, 9]", fillcolor="#e78b49"] ;
29 -> 30 ;
31 [label="char_freq_%21 <= -0.209\nentropy = 0.499\nsamples = 82\nvalue = [73, 9]", fillcolor="#e89151"] ;
30 -> 31 ;
32 [label="word_freq_email <= 0.434\nentropy = 0.395\nsamples = 77\nvalue = [71, 6]", fillcolor="#e78c4a"] ;
31 -> 32 ;
33 [label="capital_run_length_average <= -0.129\nentropy = 0.306\nsamples = 73\nvalue = [69, 4]", fillcolor="#e78844"] ;
32 -> 33 ;
34 [label="capital_run_length_average <= -0.129\nentropy = 0.485\nsamples = 38\nvalue = [34, 4]", fillcolor="#e89050"] ;
33 -> 34 ;
35 [label="word_freq_you <= 1.683\nentropy = 0.406\nsamples = 37\nvalue = [34, 3]", fillcolor="#e78c4a"] ;
34 -> 35 ;
36 [label="entropy = 0.0\nsamples = 16\nvalue = [16, 0]", fillcolor="#e58139"] ;
35 -> 36 ;
37 [label="word_freq_you <= 2.784\nentropy = 0.592\nsamples = 21\nvalue = [18, 3]", fillcolor="#e9965a"] ;
35 -> 37 ;
38 [label="capital_run_length_total <= -0.463\nentropy = 0.918\nsamples = 9\nvalue = [6, 3]", fillcolor="#f2c09c"] ;
37 -> 38 ;
39 [label="entropy = 0.0\nsamples = 3\nvalue = [3, 0]", fillcolor="#e58139"] ;
38 -> 39 ;
40 [label="word_freq_meeting <= 0.447\nentropy = 1.0\nsamples = 6\nvalue = [3, 3]", fillcolor="#ffffff"] ;
38 -> 40 ;
41 [label="word_freq_you <= 1.968\nentropy = 0.971\nsamples = 5\nvalue = [2, 3]", fillcolor="#bddef6"] ;
40 -> 41 ;
42 [label="entropy = 0.0\nsamples = 2\nvalue = [0, 2]", fillcolor="#399de5"] ;
41 -> 42 ;
43 [label="capital_run_length_total <= -0.451\nentropy = 0.918\nsamples = 3\nvalue = [2, 1]", fillcolor="#f2c09c"] ;
41 -> 43 ;
44 [label="entropy = 0.0\nsamples = 2\nvalue = [2, 0]", fillcolor="#e58139"] ;
43 -> 44 ;
45 [label="entropy = 0.0\nsamples = 1\nvalue = [0, 1]", fillcolor="#399de5"] ;
43 -> 45 ;
46 [label="entropy = 0.0\nsamples = 1\nvalue = [1, 0]", fillcolor="#e58139"] ;
40 -> 46 ;
47 [label="entropy = 0.0\nsamples = 12\nvalue = [12, 0]", fillcolor="#e58139"] ;
37 -> 47 ;
48 [label="entropy = 0.0\nsamples = 1\nvalue = [0, 1]", fillcolor="#399de5"] ;
34 -> 48 ;
49 [label="entropy = 0.0\nsamples = 35\nvalue = [35, 0]", fillcolor="#e58139"] ;
33 -> 49 ;
50 [label="capital_run_length_total <= -0.442\nentropy = 1.0\nsamples = 4\nvalue = [2, 2]", fillcolor="#ffffff"] ;
32 -> 50 ;
51 [label="entropy = 0.0\nsamples = 2\nvalue = [2, 0]", fillcolor="#e58139"] ;
50 -> 51 ;
52 [label="entropy = 0.0\nsamples = 2\nvalue = [0, 2]", fillcolor="#399de5"] ;
50 -> 52 ;
53 [label="capital_run_length_total <= -0.411\nentropy = 0.971\nsamples = 5\nvalue = [2, 3]", fillcolor="#bddef6"] ;
31 -> 53 ;
54 [label="word_freq_your <= 0.916\nentropy = 0.918\nsamples = 3\nvalue = [2, 1]", fillcolor="#f2c09c"] ;
53 -> 54 ;
55 [label="entropy = 0.0\nsamples = 2\nvalue = [2, 0]", fillcolor="#e58139"] ;
54 -> 55 ;
56 [label="entropy = 0.0\nsamples = 1\nvalue = [0, 1]", fillcolor="#399de5"] ;
54 -> 56 ;
57 [label="entropy = 0.0\nsamples = 2\nvalue = [0, 2]", fillcolor="#399de5"] ;
53 -> 57 ;
58 [label="entropy = 0.0\nsamples = 40\nvalue = [40, 0]", fillcolor="#e58139"] ;
30 -> 58 ;
59 [label="word_freq_you <= 7.865\nentropy = 0.918\nsamples = 3\nvalue = [1, 2]", fillcolor="#9ccef2"] ;
29 -> 59 ;
60 [label="entropy = 0.0\nsamples = 2\nvalue = [0, 2]", fillcolor="#399de5"] ;
59 -> 60 ;
61 [label="entropy = 0.0\nsamples = 1\nvalue = [1, 0]", fillcolor="#e58139"] ;
59 -> 61 ;
62 [label="word_freq_will <= -0.379\nentropy = 0.918\nsamples = 3\nvalue = [1, 2]", fillcolor="#9ccef2"] ;
28 -> 62 ;
63 [label="entropy = 0.0\nsamples = 1\nvalue = [1, 0]", fillcolor="#e58139"] ;
62 -> 63 ;
64 [label="entropy = 0.0\nsamples = 2\nvalue = [0, 2]", fillcolor="#399de5"] ;
62 -> 64 ;
65 [label="entropy = 0.0\nsamples = 2\nvalue = [0, 2]", fillcolor="#399de5"] ;
27 -> 65 ;
66 [label="entropy = 0.0\nsamples = 72\nvalue = [72, 0]", fillcolor="#e58139"] ;
10 -> 66 ;
67 [label="entropy = 0.0\nsamples = 2\nvalue = [0, 2]", fillcolor="#399de5"] ;
9 -> 67 ;
68 [label="word_freq_your <= 3.098\nentropy = 0.04\nsamples = 230\nvalue = [229, 1]", fillcolor="#e5823a"] ;
8 -> 68 ;
69 [label="entropy = 0.0\nsamples = 228\nvalue = [228, 0]", fillcolor="#e58139"] ;
68 -> 69 ;
70 [label="word_freq_lab <= 2.952\nentropy = 1.0\nsamples = 2\nvalue = [1, 1]", fillcolor="#ffffff"] ;
68 -> 70 ;
71 [label="entropy = 0.0\nsamples = 1\nvalue = [0, 1]", fillcolor="#399de5"] ;
70 -> 71 ;
72 [label="entropy = 0.0\nsamples = 1\nvalue = [1, 0]", fillcolor="#e58139"] ;
70 -> 72 ;
73 [label="entropy = 0.0\nsamples = 240\nvalue = [240, 0]", fillcolor="#e58139"] ;
7 -> 73 ;
74 [label="word_freq_your <= -0.645\nentropy = 0.959\nsamples = 21\nvalue = [13, 8]", fillcolor="#f5cfb3"] ;
6 -> 74 ;
75 [label="entropy = 0.0\nsamples = 9\nvalue = [9, 0]", fillcolor="#e58139"] ;
74 -> 75 ;
76 [label="capital_run_length_longest <= -0.24\nentropy = 0.918\nsamples = 12\nvalue = [4, 8]", fillcolor="#9ccef2"] ;
74 -> 76 ;
77 [label="word_freq_your <= 1.287\nentropy = 0.985\nsamples = 7\nvalue = [4, 3]", fillcolor="#f8e0ce"] ;
76 -> 77 ;
78 [label="entropy = 0.0\nsamples = 3\nvalue = [3, 0]", fillcolor="#e58139"] ;
77 -> 78 ;
79 [label="word_freq_email <= 0.735\nentropy = 0.811\nsamples = 4\nvalue = [1, 3]", fillcolor="#7bbeee"] ;
77 -> 79 ;
80 [label="entropy = 0.0\nsamples = 3\nvalue = [0, 3]", fillcolor="#399de5"] ;
79 -> 80 ;
81 [label="entropy = 0.0\nsamples = 1\nvalue = [1, 0]", fillcolor="#e58139"] ;
79 -> 81 ;
82 [label="entropy = 0.0\nsamples = 5\nvalue = [0, 5]", fillcolor="#399de5"] ;
76 -> 82 ;
83 [label="word_freq_george <= -0.045\nentropy = 0.937\nsamples = 34\nvalue = [22, 12]", fillcolor="#f3c6a5"] ;
5 -> 83 ;
84 [label="word_freq_email <= -0.047\nentropy = 0.999\nsamples = 25\nvalue = [13, 12]", fillcolor="#fdf5f0"] ;
83 -> 84 ;
85 [label="word_freq_will <= 1.025\nentropy = 0.959\nsamples = 21\nvalue = [13, 8]", fillcolor="#f5cfb3"] ;
84 -> 85 ;
86 [label="word_freq_your <= -0.171\nentropy = 0.998\nsamples = 17\nvalue = [9, 8]", fillcolor="#fcf1e9"] ;
85 -> 86 ;
87 [label="capital_run_length_longest <= -0.25\nentropy = 0.94\nsamples = 14\nvalue = [9, 5]", fillcolor="#f3c7a7"] ;
86 -> 87 ;
88 [label="entropy = 0.0\nsamples = 4\nvalue = [4, 0]", fillcolor="#e58139"] ;
87 -> 88 ;
89 [label="char_freq_%28 <= -0.255\nentropy = 1.0\nsamples = 10\nvalue = [5, 5]", fillcolor="#ffffff"] ;
87 -> 89 ;
90 [label="capital_run_length_longest <= -0.237\nentropy = 0.954\nsamples = 8\nvalue = [5, 3]", fillcolor="#f5cdb0"] ;
89 -> 90 ;
91 [label="capital_run_length_average <= -0.115\nentropy = 1.0\nsamples = 6\nvalue = [3, 3]", fillcolor="#ffffff"] ;
90 -> 91 ;
92 [label="entropy = 0.0\nsamples = 2\nvalue = [0, 2]", fillcolor="#399de5"] ;
91 -> 92 ;
93 [label="word_freq_will <= 0.787\nentropy = 0.811\nsamples = 4\nvalue = [3, 1]", fillcolor="#eeab7b"] ;
91 -> 93 ;
94 [label="entropy = 0.0\nsamples = 3\nvalue = [3, 0]", fillcolor="#e58139"] ;
93 -> 94 ;
95 [label="entropy = 0.0\nsamples = 1\nvalue = [0, 1]", fillcolor="#399de5"] ;
93 -> 95 ;
96 [label="entropy = 0.0\nsamples = 2\nvalue = [2, 0]", fillcolor="#e58139"] ;
90 -> 96 ;
97 [label="entropy = 0.0\nsamples = 2\nvalue = [0, 2]", fillcolor="#399de5"] ;
89 -> 97 ;
98 [label="entropy = 0.0\nsamples = 3\nvalue = [0, 3]", fillcolor="#399de5"] ;
86 -> 98 ;
99 [label="entropy = 0.0\nsamples = 4\nvalue = [4, 0]", fillcolor="#e58139"] ;
85 -> 99 ;
100 [label="entropy = 0.0\nsamples = 4\nvalue = [0, 4]", fillcolor="#399de5"] ;
84 -> 100 ;
101 [label="entropy = 0.0\nsamples = 9\nvalue = [9, 0]", fillcolor="#e58139"] ;
83 -> 101 ;
102 [label="word_freq_our <= 0.636\nentropy = 0.818\nsamples = 499\nvalue = [372, 127]", fillcolor="#eeac7d"] ;
4 -> 102 ;
103 [label="word_freq_1999 <= 0.397\nentropy = 0.725\nsamples = 456\nvalue = [364, 92]", fillcolor="#eca16b"] ;
102 -> 103 ;
104 [label="word_freq_money <= -0.19\nentropy = 0.821\nsamples = 355\nvalue = [264, 91]", fillcolor="#eeac7d"] ;
103 -> 104 ;
105 [label="word_freq_re <= 0.053\nentropy = 0.762\nsamples = 335\nvalue = [261, 74]", fillcolor="#eca571"] ;
104 -> 105 ;
106 [label="word_freq_george <= -0.217\nentropy = 0.85\nsamples = 268\nvalue = [194, 74]", fillcolor="#efb185"] ;
105 -> 106 ;
107 [label="capital_run_length_longest <= 0.397\nentropy = 0.914\nsamples = 225\nvalue = [151, 74]", fillcolor="#f2bf9a"] ;
106 -> 107 ;
108 [label="word_freq_all <= 0.217\nentropy = 0.874\nsamples = 214\nvalue = [151, 63]", fillcolor="#f0b68c"] ;
107 -> 108 ;
109 [label="word_freq_will <= 1.228\nentropy = 0.929\nsamples = 180\nvalue = [118, 62]", fillcolor="#f3c3a1"] ;
108 -> 109 ;
110 [label="capital_run_length_longest <= -0.05\nentropy = 0.967\nsamples = 155\nvalue = [94, 61]", fillcolor="#f6d3b9"] ;
109 -> 110 ;
111 [label="capital_run_length_longest <= -0.132\nentropy = 1.0\nsamples = 107\nvalue = [53, 54]", fillcolor="#fbfdff"] ;
110 -> 111 ;
112 [label="capital_run_length_average <= -0.101\nentropy = 0.951\nsamples = 81\nvalue = [51, 30]", fillcolor="#f4cbad"] ;
111 -> 112 ;
113 [label="char_freq_%21 <= -0.258\nentropy = 0.529\nsamples = 25\nvalue = [22, 3]", fillcolor="#e99254"] ;
112 -> 113 ;
114 [label="capital_run_length_longest <= -0.163\nentropy = 0.258\nsamples = 23\nvalue = [22, 1]", fillcolor="#e68742"] ;
113 -> 114 ;
115 [label="entropy = 0.0\nsamples = 21\nvalue = [21, 0]", fillcolor="#e58139"] ;
114 -> 115 ;
116 [label="word_freq_your <= 0.783\nentropy = 1.0\nsamples = 2\nvalue = [1, 1]", fillcolor="#ffffff"] ;
114 -> 116 ;
117 [label="entropy = 0.0\nsamples = 1\nvalue = [1, 0]", fillcolor="#e58139"] ;
116 -> 117 ;
118 [label="entropy = 0.0\nsamples = 1\nvalue = [0, 1]", fillcolor="#399de5"] ;
116 -> 118 ;
119 [label="entropy = 0.0\nsamples = 2\nvalue = [0, 2]", fillcolor="#399de5"] ;
113 -> 119 ;
120 [label="word_freq_you <= 1.272\nentropy = 0.999\nsamples = 56\nvalue = [29, 27]", fillcolor="#fdf6f1"] ;
112 -> 120 ;
121 [label="capital_run_length_total <= -0.34\nentropy = 0.976\nsamples = 49\nvalue = [29, 20]", fillcolor="#f7d8c2"] ;
120 -> 121 ;
122 [label="word_freq_over <= 3.083\nentropy = 0.722\nsamples = 30\nvalue = [24, 6]", fillcolor="#eca06a"] ;
121 -> 122 ;
123 [label="char_freq_%28 <= 1.309\nentropy = 0.592\nsamples = 28\nvalue = [24, 4]", fillcolor="#e9965a"] ;
122 -> 123 ;
124 [label="word_freq_make <= 4.8\nentropy = 0.391\nsamples = 26\nvalue = [24, 2]", fillcolor="#e78c49"] ;
123 -> 124 ;
125 [label="capital_run_length_total <= -0.411\nentropy = 0.242\nsamples = 25\nvalue = [24, 1]", fillcolor="#e68641"] ;
124 -> 125 ;
126 [label="capital_run_length_total <= -0.414\nentropy = 0.544\nsamples = 8\nvalue = [7, 1]", fillcolor="#e99355"] ;
125 -> 126 ;
127 [label="entropy = 0.0\nsamples = 7\nvalue = [7, 0]", fillcolor="#e58139"] ;
126 -> 127 ;
128 [label="entropy = 0.0\nsamples = 1\nvalue = [0, 1]", fillcolor="#399de5"] ;
126 -> 128 ;
129 [label="entropy = 0.0\nsamples = 17\nvalue = [17, 0]", fillcolor="#e58139"] ;
125 -> 129 ;
130 [label="entropy = 0.0\nsamples = 1\nvalue = [0, 1]", fillcolor="#399de5"] ;
124 -> 130 ;
131 [label="entropy = 0.0\nsamples = 2\nvalue = [0, 2]", fillcolor="#399de5"] ;
123 -> 131 ;
132 [label="entropy = 0.0\nsamples = 2\nvalue = [0, 2]", fillcolor="#399de5"] ;
122 -> 132 ;
133 [label="capital_run_length_longest <= -0.152\nentropy = 0.831\nsamples = 19\nvalue = [5, 14]", fillcolor="#80c0ee"] ;
121 -> 133 ;
134 [label="char_freq_%23 <= 0.008\nentropy = 0.567\nsamples = 15\nvalue = [2, 13]", fillcolor="#57ace9"] ;
133 -> 134 ;
135 [label="entropy = 0.0\nsamples = 12\nvalue = [0, 12]", fillcolor="#399de5"] ;
134 -> 135 ;
136 [label="char_freq_%21 <= -0.243\nentropy = 0.918\nsamples = 3\nvalue = [2, 1]", fillcolor="#f2c09c"] ;
134 -> 136 ;
137 [label="entropy = 0.0\nsamples = 2\nvalue = [2, 0]", fillcolor="#e58139"] ;
136 -> 137 ;
138 [label="entropy = 0.0\nsamples = 1\nvalue = [0, 1]", fillcolor="#399de5"] ;
136 -> 138 ;
139 [label="word_freq_free <= 1.049\nentropy = 0.811\nsamples = 4\nvalue = [3, 1]", fillcolor="#eeab7b"] ;
133 -> 139 ;
140 [label="entropy = 0.0\nsamples = 3\nvalue = [3, 0]", fillcolor="#e58139"] ;
139 -> 140 ;
141 [label="entropy = 0.0\nsamples = 1\nvalue = [0, 1]", fillcolor="#399de5"] ;
139 -> 141 ;
142 [label="entropy = 0.0\nsamples = 7\nvalue = [0, 7]", fillcolor="#399de5"] ;
120 -> 142 ;
143 [label="capital_run_length_average <= 0.38\nentropy = 0.391\nsamples = 26\nvalue = [2, 24]", fillcolor="#49a5e7"] ;
111 -> 143 ;
144 [label="word_freq_data <= 2.542\nentropy = 0.242\nsamples = 25\nvalue = [1, 24]", fillcolor="#41a1e6"] ;
143 -> 144 ;
145 [label="entropy = 0.0\nsamples = 24\nvalue = [0, 24]", fillcolor="#399de5"] ;
144 -> 145 ;
146 [label="entropy = 0.0\nsamples = 1\nvalue = [1, 0]", fillcolor="#e58139"] ;
144 -> 146 ;
147 [label="entropy = 0.0\nsamples = 1\nvalue = [1, 0]", fillcolor="#e58139"] ;
143 -> 147 ;
148 [label="capital_run_length_longest <= -0.019\nentropy = 0.599\nsamples = 48\nvalue = [41, 7]", fillcolor="#e9975b"] ;
110 -> 148 ;
149 [label="entropy = 0.0\nsamples = 27\nvalue = [27, 0]", fillcolor="#e58139"] ;
148 -> 149 ;
150 [label="capital_run_length_total <= 0.274\nentropy = 0.918\nsamples = 21\nvalue = [14, 7]", fillcolor="#f2c09c"] ;
148 -> 150 ;
151 [label="word_freq_edu <= 0.088\nentropy = 0.672\nsamples = 17\nvalue = [14, 3]", fillcolor="#eb9c63"] ;
150 -> 151 ;
152 [label="char_freq_%28 <= -0.278\nentropy = 0.918\nsamples = 9\nvalue = [6, 3]", fillcolor="#f2c09c"] ;
151 -> 152 ;
153 [label="word_freq_font <= 4.313\nentropy = 0.592\nsamples = 7\nvalue = [6, 1]", fillcolor="#e9965a"] ;
152 -> 153 ;
154 [label="entropy = 0.0\nsamples = 6\nvalue = [6, 0]", fillcolor="#e58139"] ;
153 -> 154 ;
155 [label="entropy = 0.0\nsamples = 1\nvalue = [0, 1]", fillcolor="#399de5"] ;
153 -> 155 ;
156 [label="entropy = 0.0\nsamples = 2\nvalue = [0, 2]", fillcolor="#399de5"] ;
152 -> 156 ;
157 [label="entropy = 0.0\nsamples = 8\nvalue = [8, 0]", fillcolor="#e58139"] ;
151 -> 157 ;
158 [label="entropy = 0.0\nsamples = 4\nvalue = [0, 4]", fillcolor="#399de5"] ;
150 -> 158 ;
159 [label="word_freq_you <= 2.187\nentropy = 0.242\nsamples = 25\nvalue = [24, 1]", fillcolor="#e68641"] ;
109 -> 159 ;
160 [label="entropy = 0.0\nsamples = 24\nvalue = [24, 0]", fillcolor="#e58139"] ;
159 -> 160 ;
161 [label="entropy = 0.0\nsamples = 1\nvalue = [0, 1]", fillcolor="#399de5"] ;
159 -> 161 ;
162 [label="word_freq_pm <= 0.774\nentropy = 0.191\nsamples = 34\nvalue = [33, 1]", fillcolor="#e6853f"] ;
108 -> 162 ;
163 [label="entropy = 0.0\nsamples = 32\nvalue = [32, 0]", fillcolor="#e58139"] ;
162 -> 163 ;
164 [label="word_freq_will <= 1.077\nentropy = 1.0\nsamples = 2\nvalue = [1, 1]", fillcolor="#ffffff"] ;
162 -> 164 ;
165 [label="entropy = 0.0\nsamples = 1\nvalue = [0, 1]", fillcolor="#399de5"] ;
164 -> 165 ;
166 [label="entropy = 0.0\nsamples = 1\nvalue = [1, 0]", fillcolor="#e58139"] ;
164 -> 166 ;
167 [label="entropy = 0.0\nsamples = 11\nvalue = [0, 11]", fillcolor="#399de5"] ;
107 -> 167 ;
168 [label="entropy = 0.0\nsamples = 43\nvalue = [43, 0]", fillcolor="#e58139"] ;
106 -> 168 ;
169 [label="entropy = 0.0\nsamples = 67\nvalue = [67, 0]", fillcolor="#e58139"] ;
105 -> 169 ;
170 [label="word_freq_edu <= 0.05\nentropy = 0.61\nsamples = 20\nvalue = [3, 17]", fillcolor="#5caeea"] ;
104 -> 170 ;
171 [label="entropy = 0.0\nsamples = 17\nvalue = [0, 17]", fillcolor="#399de5"] ;
170 -> 171 ;
172 [label="entropy = 0.0\nsamples = 3\nvalue = [3, 0]", fillcolor="#e58139"] ;
170 -> 172 ;
173 [label="word_freq_addresses <= 0.428\nentropy = 0.08\nsamples = 101\nvalue = [100, 1]", fillcolor="#e5823b"] ;
103 -> 173 ;
174 [label="entropy = 0.0\nsamples = 100\nvalue = [100, 0]", fillcolor="#e58139"] ;
173 -> 174 ;
175 [label="entropy = 0.0\nsamples = 1\nvalue = [0, 1]", fillcolor="#399de5"] ;
173 -> 175 ;
176 [label="word_freq_george <= -0.17\nentropy = 0.693\nsamples = 43\nvalue = [8, 35]", fillcolor="#66b3eb"] ;
102 -> 176 ;
177 [label="char_freq_%21 <= -0.156\nentropy = 0.398\nsamples = 38\nvalue = [3, 35]", fillcolor="#4aa5e7"] ;
176 -> 177 ;
178 [label="char_freq_%3B <= 0.15\nentropy = 0.187\nsamples = 35\nvalue = [1, 34]", fillcolor="#3fa0e6"] ;
177 -> 178 ;
179 [label="entropy = 0.0\nsamples = 34\nvalue = [0, 34]", fillcolor="#399de5"] ;
178 -> 179 ;
180 [label="entropy = 0.0\nsamples = 1\nvalue = [1, 0]", fillcolor="#e58139"] ;
178 -> 180 ;
181 [label="word_freq_all <= 0.435\nentropy = 0.918\nsamples = 3\nvalue = [2, 1]", fillcolor="#f2c09c"] ;
177 -> 181 ;
182 [label="entropy = 0.0\nsamples = 1\nvalue = [0, 1]", fillcolor="#399de5"] ;
181 -> 182 ;
183 [label="entropy = 0.0\nsamples = 2\nvalue = [2, 0]", fillcolor="#e58139"] ;
181 -> 183 ;
184 [label="entropy = 0.0\nsamples = 5\nvalue = [5, 0]", fillcolor="#e58139"] ;
176 -> 184 ;
185 [label="word_freq_free <= 2.478\nentropy = 0.057\nsamples = 755\nvalue = [750, 5]", fillcolor="#e5823a"] ;
3 -> 185 ;
186 [label="word_freq_receive <= 5.236\nentropy = 0.048\nsamples = 754\nvalue = [750, 4]", fillcolor="#e5823a"] ;
185 -> 186 ;
187 [label="word_freq_000 <= -0.247\nentropy = 0.037\nsamples = 753\nvalue = [750, 3]", fillcolor="#e5823a"] ;
186 -> 187 ;
188 [label="word_freq_project <= 0.492\nentropy = 0.015\nsamples = 727\nvalue = [726, 1]", fillcolor="#e58139"] ;
187 -> 188 ;
189 [label="entropy = 0.0\nsamples = 674\nvalue = [674, 0]", fillcolor="#e58139"] ;
188 -> 189 ;
190 [label="word_freq_project <= 0.508\nentropy = 0.135\nsamples = 53\nvalue = [52, 1]", fillcolor="#e6833d"] ;
188 -> 190 ;
191 [label="entropy = 0.0\nsamples = 1\nvalue = [0, 1]", fillcolor="#399de5"] ;
190 -> 191 ;
192 [label="entropy = 0.0\nsamples = 52\nvalue = [52, 0]", fillcolor="#e58139"] ;
190 -> 192 ;
193 [label="char_freq_%3B <= 0.47\nentropy = 0.391\nsamples = 26\nvalue = [24, 2]", fillcolor="#e78c49"] ;
187 -> 193 ;
194 [label="entropy = 0.0\nsamples = 22\nvalue = [22, 0]", fillcolor="#e58139"] ;
193 -> 194 ;
195 [label="word_freq_our <= -0.39\nentropy = 1.0\nsamples = 4\nvalue = [2, 2]", fillcolor="#ffffff"] ;
193 -> 195 ;
196 [label="char_freq_%28 <= -0.122\nentropy = 0.918\nsamples = 3\nvalue = [2, 1]", fillcolor="#f2c09c"] ;
195 -> 196 ;
197 [label="entropy = 0.0\nsamples = 1\nvalue = [1, 0]", fillcolor="#e58139"] ;
196 -> 197 ;
198 [label="entropy = 1.0\nsamples = 2\nvalue = [1, 1]", fillcolor="#ffffff"] ;
196 -> 198 ;
199 [label="entropy = 0.0\nsamples = 1\nvalue = [0, 1]", fillcolor="#399de5"] ;
195 -> 199 ;
200 [label="entropy = 0.0\nsamples = 1\nvalue = [0, 1]", fillcolor="#399de5"] ;
186 -> 200 ;
201 [label="entropy = 0.0\nsamples = 1\nvalue = [0, 1]", fillcolor="#399de5"] ;
185 -> 201 ;
202 [label="capital_run_length_average <= -0.061\nentropy = 1.0\nsamples = 525\nvalue = [268, 257]", fillcolor="#fefaf7"] ;
2 -> 202 ;
203 [label="word_freq_free <= -0.253\nentropy = 0.904\nsamples = 363\nvalue = [247, 116]", fillcolor="#f1bc96"] ;
202 -> 203 ;
204 [label="word_freq_business <= 0.197\nentropy = 0.725\nsamples = 283\nvalue = [226, 57]", fillcolor="#eca16b"] ;
203 -> 204 ;
205 [label="word_freq_re <= -0.046\nentropy = 0.623\nsamples = 264\nvalue = [223, 41]", fillcolor="#ea985d"] ;
204 -> 205 ;
206 [label="char_freq_%21 <= 0.66\nentropy = 0.767\nsamples = 183\nvalue = [142, 41]", fillcolor="#eda572"] ;
205 -> 206 ;
207 [label="capital_run_length_longest <= -0.152\nentropy = 0.549\nsamples = 134\nvalue = [117, 17]", fillcolor="#e99356"] ;
206 -> 207 ;
208 [label="capital_run_length_longest <= -0.224\nentropy = 0.4\nsamples = 126\nvalue = [116, 10]", fillcolor="#e78c4a"] ;
207 -> 208 ;
209 [label="word_freq_receive <= 0.795\nentropy = 0.099\nsamples = 78\nvalue = [77, 1]", fillcolor="#e5833c"] ;
208 -> 209 ;
210 [label="entropy = 0.0\nsamples = 77\nvalue = [77, 0]", fillcolor="#e58139"] ;
209 -> 210 ;
211 [label="entropy = 0.0\nsamples = 1\nvalue = [0, 1]", fillcolor="#399de5"] ;
209 -> 211 ;
212 [label="word_freq_people <= -0.113\nentropy = 0.696\nsamples = 48\nvalue = [39, 9]", fillcolor="#eb9e67"] ;
208 -> 212 ;
213 [label="word_freq_internet <= -0.063\nentropy = 0.567\nsamples = 45\nvalue = [39, 6]", fillcolor="#e99457"] ;
212 -> 213 ;
214 [label="char_freq_%28 <= -0.307\nentropy = 0.446\nsamples = 43\nvalue = [39, 4]", fillcolor="#e88e4d"] ;
213 -> 214 ;
215 [label="word_freq_your <= 0.771\nentropy = 0.667\nsamples = 23\nvalue = [19, 4]", fillcolor="#ea9c63"] ;
214 -> 215 ;
216 [label="char_freq_%21 <= 0.32\nentropy = 0.469\nsamples = 20\nvalue = [18, 2]", fillcolor="#e88f4f"] ;
215 -> 216 ;
217 [label="entropy = 0.0\nsamples = 16\nvalue = [16, 0]", fillcolor="#e58139"] ;
216 -> 217 ;
218 [label="word_freq_will <= 1.24\nentropy = 1.0\nsamples = 4\nvalue = [2, 2]", fillcolor="#ffffff"] ;
216 -> 218 ;
219 [label="entropy = 0.0\nsamples = 2\nvalue = [0, 2]", fillcolor="#399de5"] ;
218 -> 219 ;
220 [label="entropy = 0.0\nsamples = 2\nvalue = [2, 0]", fillcolor="#e58139"] ;
218 -> 220 ;
221 [label="capital_run_length_longest <= -0.198\nentropy = 0.918\nsamples = 3\nvalue = [1, 2]", fillcolor="#9ccef2"] ;
215 -> 221 ;
222 [label="entropy = 0.0\nsamples = 2\nvalue = [0, 2]", fillcolor="#399de5"] ;
221 -> 222 ;
223 [label="entropy = 0.0\nsamples = 1\nvalue = [1, 0]", fillcolor="#e58139"] ;
221 -> 223 ;
224 [label="entropy = 0.0\nsamples = 20\nvalue = [20, 0]", fillcolor="#e58139"] ;
214 -> 224 ;
225 [label="entropy = 0.0\nsamples = 2\nvalue = [0, 2]", fillcolor="#399de5"] ;
213 -> 225 ;
226 [label="entropy = 0.0\nsamples = 3\nvalue = [0, 3]", fillcolor="#399de5"] ;
212 -> 226 ;
227 [label="word_freq_will <= 0.683\nentropy = 0.544\nsamples = 8\nvalue = [1, 7]", fillcolor="#55abe9"] ;
207 -> 227 ;
228 [label="entropy = 0.0\nsamples = 7\nvalue = [0, 7]", fillcolor="#399de5"] ;
227 -> 228 ;
229 [label="entropy = 0.0\nsamples = 1\nvalue = [1, 0]", fillcolor="#e58139"] ;
227 -> 229 ;
230 [label="word_freq_you <= -0.567\nentropy = 1.0\nsamples = 49\nvalue = [25, 24]", fillcolor="#fefaf7"] ;
206 -> 230 ;
231 [label="capital_run_length_total <= -0.463\nentropy = 0.65\nsamples = 24\nvalue = [20, 4]", fillcolor="#ea9a61"] ;
230 -> 231 ;
232 [label="entropy = 0.0\nsamples = 2\nvalue = [0, 2]", fillcolor="#399de5"] ;
231 -> 232 ;
233 [label="word_freq_money <= 4.487\nentropy = 0.439\nsamples = 22\nvalue = [20, 2]", fillcolor="#e88e4d"] ;
231 -> 233 ;
234 [label="char_freq_%21 <= 1.812\nentropy = 0.276\nsamples = 21\nvalue = [20, 1]", fillcolor="#e68743"] ;
233 -> 234 ;
235 [label="entropy = 0.0\nsamples = 15\nvalue = [15, 0]", fillcolor="#e58139"] ;
234 -> 235 ;
236 [label="char_freq_%21 <= 1.848\nentropy = 0.65\nsamples = 6\nvalue = [5, 1]", fillcolor="#ea9a61"] ;
234 -> 236 ;
237 [label="entropy = 0.0\nsamples = 1\nvalue = [0, 1]", fillcolor="#399de5"] ;
236 -> 237 ;
238 [label="entropy = 0.0\nsamples = 5\nvalue = [5, 0]", fillcolor="#e58139"] ;
236 -> 238 ;
239 [label="entropy = 0.0\nsamples = 1\nvalue = [0, 1]", fillcolor="#399de5"] ;
233 -> 239 ;
240 [label="capital_run_length_average <= -0.124\nentropy = 0.722\nsamples = 25\nvalue = [5, 20]", fillcolor="#6ab6ec"] ;
230 -> 240 ;
241 [label="entropy = 0.0\nsamples = 3\nvalue = [3, 0]", fillcolor="#e58139"] ;
240 -> 241 ;
242 [label="word_freq_mail <= 2.211\nentropy = 0.439\nsamples = 22\nvalue = [2, 20]", fillcolor="#4da7e8"] ;
240 -> 242 ;
243 [label="word_freq_george <= 0.143\nentropy = 0.276\nsamples = 21\nvalue = [1, 20]", fillcolor="#43a2e6"] ;
242 -> 243 ;
244 [label="entropy = 0.0\nsamples = 20\nvalue = [0, 20]", fillcolor="#399de5"] ;
243 -> 244 ;
245 [label="entropy = 0.0\nsamples = 1\nvalue = [1, 0]", fillcolor="#e58139"] ;
243 -> 245 ;
246 [label="entropy = 0.0\nsamples = 1\nvalue = [1, 0]", fillcolor="#e58139"] ;
242 -> 246 ;
247 [label="entropy = 0.0\nsamples = 81\nvalue = [81, 0]", fillcolor="#e58139"] ;
205 -> 247 ;
248 [label="capital_run_length_average <= -0.087\nentropy = 0.629\nsamples = 19\nvalue = [3, 16]", fillcolor="#5eafea"] ;
204 -> 248 ;
249 [label="char_freq_%3B <= 0.519\nentropy = 0.323\nsamples = 17\nvalue = [1, 16]", fillcolor="#45a3e7"] ;
248 -> 249 ;
250 [label="entropy = 0.0\nsamples = 16\nvalue = [0, 16]", fillcolor="#399de5"] ;
249 -> 250 ;
251 [label="entropy = 0.0\nsamples = 1\nvalue = [1, 0]", fillcolor="#e58139"] ;
249 -> 251 ;
252 [label="entropy = 0.0\nsamples = 2\nvalue = [2, 0]", fillcolor="#e58139"] ;
248 -> 252 ;
253 [label="char_freq_%21 <= 0.387\nentropy = 0.83\nsamples = 80\nvalue = [21, 59]", fillcolor="#7fc0ee"] ;
203 -> 253 ;
254 [label="word_freq_business <= -0.175\nentropy = 0.996\nsamples = 41\nvalue = [19, 22]", fillcolor="#e4f2fb"] ;
253 -> 254 ;
255 [label="word_freq_our <= -0.219\nentropy = 0.918\nsamples = 27\nvalue = [18, 9]", fillcolor="#f2c09c"] ;
254 -> 255 ;
256 [label="word_freq_all <= 0.772\nentropy = 0.65\nsamples = 18\nvalue = [15, 3]", fillcolor="#ea9a61"] ;
255 -> 256 ;
257 [label="entropy = 0.0\nsamples = 12\nvalue = [12, 0]", fillcolor="#e58139"] ;
256 -> 257 ;
258 [label="word_freq_all <= 1.129\nentropy = 1.0\nsamples = 6\nvalue = [3, 3]", fillcolor="#ffffff"] ;
256 -> 258 ;
259 [label="entropy = 0.0\nsamples = 2\nvalue = [0, 2]", fillcolor="#399de5"] ;
258 -> 259 ;
260 [label="capital_run_length_longest <= -0.25\nentropy = 0.811\nsamples = 4\nvalue = [3, 1]", fillcolor="#eeab7b"] ;
258 -> 260 ;
261 [label="entropy = 0.0\nsamples = 1\nvalue = [0, 1]", fillcolor="#399de5"] ;
260 -> 261 ;
262 [label="entropy = 0.0\nsamples = 3\nvalue = [3, 0]", fillcolor="#e58139"] ;
260 -> 262 ;
263 [label="word_freq_receive <= 0.199\nentropy = 0.918\nsamples = 9\nvalue = [3, 6]", fillcolor="#9ccef2"] ;
255 -> 263 ;
264 [label="entropy = 0.0\nsamples = 5\nvalue = [0, 5]", fillcolor="#399de5"] ;
263 -> 264 ;
265 [label="capital_run_length_longest <= -0.147\nentropy = 0.811\nsamples = 4\nvalue = [3, 1]", fillcolor="#eeab7b"] ;
263 -> 265 ;
266 [label="entropy = 0.0\nsamples = 3\nvalue = [3, 0]", fillcolor="#e58139"] ;
265 -> 266 ;
267 [label="entropy = 0.0\nsamples = 1\nvalue = [0, 1]", fillcolor="#399de5"] ;
265 -> 267 ;
268 [label="word_freq_edu <= 0.099\nentropy = 0.371\nsamples = 14\nvalue = [1, 13]", fillcolor="#48a5e7"] ;
254 -> 268 ;
269 [label="entropy = 0.0\nsamples = 13\nvalue = [0, 13]", fillcolor="#399de5"] ;
268 -> 269 ;
270 [label="entropy = 0.0\nsamples = 1\nvalue = [1, 0]", fillcolor="#e58139"] ;
268 -> 270 ;
271 [label="word_freq_edu <= -0.044\nentropy = 0.292\nsamples = 39\nvalue = [2, 37]", fillcolor="#44a2e6"] ;
253 -> 271 ;
272 [label="capital_run_length_total <= -0.4\nentropy = 0.176\nsamples = 38\nvalue = [1, 37]", fillcolor="#3ea0e6"] ;
271 -> 272 ;
273 [label="capital_run_length_longest <= -0.198\nentropy = 0.592\nsamples = 7\nvalue = [1, 6]", fillcolor="#5aade9"] ;
272 -> 273 ;
274 [label="entropy = 0.0\nsamples = 6\nvalue = [0, 6]", fillcolor="#399de5"] ;
273 -> 274 ;
275 [label="entropy = 0.0\nsamples = 1\nvalue = [1, 0]", fillcolor="#e58139"] ;
273 -> 275 ;
276 [label="entropy = 0.0\nsamples = 31\nvalue = [0, 31]", fillcolor="#399de5"] ;
272 -> 276 ;
277 [label="entropy = 0.0\nsamples = 1\nvalue = [1, 0]", fillcolor="#e58139"] ;
271 -> 277 ;
278 [label="word_freq_hp <= -0.254\nentropy = 0.556\nsamples = 162\nvalue = [21, 141]", fillcolor="#56ace9"] ;
202 -> 278 ;
279 [label="word_freq_edu <= 0.275\nentropy = 0.419\nsamples = 153\nvalue = [13, 140]", fillcolor="#4ba6e7"] ;
278 -> 279 ;
280 [label="word_freq_will <= 2.122\nentropy = 0.329\nsamples = 149\nvalue = [9, 140]", fillcolor="#46a3e7"] ;
279 -> 280 ;
281 [label="word_freq_mail <= 6.159\nentropy = 0.278\nsamples = 146\nvalue = [7, 139]", fillcolor="#43a2e6"] ;
280 -> 281 ;
282 [label="word_freq_email <= 0.179\nentropy = 0.249\nsamples = 145\nvalue = [6, 139]", fillcolor="#42a1e6"] ;
281 -> 282 ;
283 [label="word_freq_your <= 0.462\nentropy = 0.124\nsamples = 118\nvalue = [2, 116]", fillcolor="#3c9fe5"] ;
282 -> 283 ;
284 [label="entropy = 0.0\nsamples = 78\nvalue = [0, 78]", fillcolor="#399de5"] ;
283 -> 284 ;
285 [label="word_freq_your <= 0.687\nentropy = 0.286\nsamples = 40\nvalue = [2, 38]", fillcolor="#43a2e6"] ;
283 -> 285 ;
286 [label="word_freq_receive <= 0.646\nentropy = 0.971\nsamples = 5\nvalue = [2, 3]", fillcolor="#bddef6"] ;
285 -> 286 ;
287 [label="entropy = 0.0\nsamples = 2\nvalue = [2, 0]", fillcolor="#e58139"] ;
286 -> 287 ;
288 [label="entropy = 0.0\nsamples = 3\nvalue = [0, 3]", fillcolor="#399de5"] ;
286 -> 288 ;
289 [label="entropy = 0.0\nsamples = 35\nvalue = [0, 35]", fillcolor="#399de5"] ;
285 -> 289 ;
290 [label="char_freq_%21 <= 0.251\nentropy = 0.605\nsamples = 27\nvalue = [4, 23]", fillcolor="#5baeea"] ;
282 -> 290 ;
291 [label="capital_run_length_longest <= 0.302\nentropy = 0.811\nsamples = 4\nvalue = [3, 1]", fillcolor="#eeab7b"] ;
290 -> 291 ;
292 [label="entropy = 0.0\nsamples = 3\nvalue = [3, 0]", fillcolor="#e58139"] ;
291 -> 292 ;
293 [label="entropy = 0.0\nsamples = 1\nvalue = [0, 1]", fillcolor="#399de5"] ;
291 -> 293 ;
294 [label="word_freq_you <= -0.266\nentropy = 0.258\nsamples = 23\nvalue = [1, 22]", fillcolor="#42a1e6"] ;
290 -> 294 ;
295 [label="entropy = 0.0\nsamples = 1\nvalue = [1, 0]", fillcolor="#e58139"] ;
294 -> 295 ;
296 [label="entropy = 0.0\nsamples = 22\nvalue = [0, 22]", fillcolor="#399de5"] ;
294 -> 296 ;
297 [label="entropy = 0.0\nsamples = 1\nvalue = [1, 0]", fillcolor="#e58139"] ;
281 -> 297 ;
298 [label="word_freq_you <= 0.545\nentropy = 0.918\nsamples = 3\nvalue = [2, 1]", fillcolor="#f2c09c"] ;
280 -> 298 ;
299 [label="entropy = 0.0\nsamples = 2\nvalue = [2, 0]", fillcolor="#e58139"] ;
298 -> 299 ;
300 [label="entropy = 0.0\nsamples = 1\nvalue = [0, 1]", fillcolor="#399de5"] ;
298 -> 300 ;
301 [label="entropy = 0.0\nsamples = 4\nvalue = [4, 0]", fillcolor="#e58139"] ;
279 -> 301 ;
302 [label="word_freq_mail <= 1.071\nentropy = 0.503\nsamples = 9\nvalue = [8, 1]", fillcolor="#e89152"] ;
278 -> 302 ;
303 [label="entropy = 0.0\nsamples = 8\nvalue = [8, 0]", fillcolor="#e58139"] ;
302 -> 303 ;
304 [label="entropy = 0.0\nsamples = 1\nvalue = [0, 1]", fillcolor="#399de5"] ;
302 -> 304 ;
305 [label="word_freq_george <= -0.183\nentropy = 0.43\nsamples = 295\nvalue = [26, 269]", fillcolor="#4ca6e8"] ;
1 -> 305 ;
306 [label="word_freq_edu <= -0.071\nentropy = 0.312\nsamples = 285\nvalue = [16, 269]", fillcolor="#45a3e7"] ;
305 -> 306 ;
307 [label="word_freq_hp <= -0.149\nentropy = 0.256\nsamples = 279\nvalue = [12, 267]", fillcolor="#42a1e6"] ;
306 -> 307 ;
308 [label="word_freq_your <= -0.391\nentropy = 0.191\nsamples = 272\nvalue = [8, 264]", fillcolor="#3fa0e6"] ;
307 -> 308 ;
309 [label="word_freq_free <= -0.168\nentropy = 0.464\nsamples = 61\nvalue = [6, 55]", fillcolor="#4fa8e8"] ;
308 -> 309 ;
310 [label="word_freq_your <= -0.579\nentropy = 0.661\nsamples = 35\nvalue = [6, 29]", fillcolor="#62b1ea"] ;
309 -> 310 ;
311 [label="capital_run_length_total <= -0.392\nentropy = 0.459\nsamples = 31\nvalue = [3, 28]", fillcolor="#4ea8e8"] ;
310 -> 311 ;
312 [label="word_freq_you <= -0.688\nentropy = 0.954\nsamples = 8\nvalue = [3, 5]", fillcolor="#b0d8f5"] ;
311 -> 312 ;
313 [label="entropy = 0.0\nsamples = 3\nvalue = [0, 3]", fillcolor="#399de5"] ;
312 -> 313 ;
314 [label="word_freq_receive <= 1.192\nentropy = 0.971\nsamples = 5\nvalue = [3, 2]", fillcolor="#f6d5bd"] ;
312 -> 314 ;
315 [label="entropy = 0.0\nsamples = 3\nvalue = [3, 0]", fillcolor="#e58139"] ;
314 -> 315 ;
316 [label="entropy = 0.0\nsamples = 2\nvalue = [0, 2]", fillcolor="#399de5"] ;
314 -> 316 ;
317 [label="entropy = 0.0\nsamples = 23\nvalue = [0, 23]", fillcolor="#399de5"] ;
311 -> 317 ;
318 [label="word_freq_you <= -0.503\nentropy = 0.811\nsamples = 4\nvalue = [3, 1]", fillcolor="#eeab7b"] ;
310 -> 318 ;
319 [label="entropy = 0.0\nsamples = 1\nvalue = [0, 1]", fillcolor="#399de5"] ;
318 -> 319 ;
320 [label="entropy = 0.0\nsamples = 3\nvalue = [3, 0]", fillcolor="#e58139"] ;
318 -> 320 ;
321 [label="entropy = 0.0\nsamples = 26\nvalue = [0, 26]", fillcolor="#399de5"] ;
309 -> 321 ;
322 [label="word_freq_mail <= 0.621\nentropy = 0.077\nsamples = 211\nvalue = [2, 209]", fillcolor="#3b9ee5"] ;
308 -> 322 ;
323 [label="entropy = 0.0\nsamples = 171\nvalue = [0, 171]", fillcolor="#399de5"] ;
322 -> 323 ;
324 [label="word_freq_mail <= 0.676\nentropy = 0.286\nsamples = 40\nvalue = [2, 38]", fillcolor="#43a2e6"] ;
322 -> 324 ;
325 [label="entropy = 0.0\nsamples = 1\nvalue = [1, 0]", fillcolor="#e58139"] ;
324 -> 325 ;
326 [label="word_freq_email <= 2.561\nentropy = 0.172\nsamples = 39\nvalue = [1, 38]", fillcolor="#3ea0e6"] ;
324 -> 326 ;
327 [label="entropy = 0.0\nsamples = 37\nvalue = [0, 37]", fillcolor="#399de5"] ;
326 -> 327 ;
328 [label="word_freq_make <= 0.214\nentropy = 1.0\nsamples = 2\nvalue = [1, 1]", fillcolor="#ffffff"] ;
326 -> 328 ;
329 [label="entropy = 0.0\nsamples = 1\nvalue = [1, 0]", fillcolor="#e58139"] ;
328 -> 329 ;
330 [label="entropy = 0.0\nsamples = 1\nvalue = [0, 1]", fillcolor="#399de5"] ;
328 -> 330 ;
331 [label="word_freq_hpl <= -0.108\nentropy = 0.985\nsamples = 7\nvalue = [4, 3]", fillcolor="#f8e0ce"] ;
307 -> 331 ;
332 [label="entropy = 0.0\nsamples = 3\nvalue = [3, 0]", fillcolor="#e58139"] ;
331 -> 332 ;
333 [label="capital_run_length_longest <= -0.17\nentropy = 0.811\nsamples = 4\nvalue = [1, 3]", fillcolor="#7bbeee"] ;
331 -> 333 ;
334 [label="entropy = 1.0\nsamples = 2\nvalue = [1, 1]", fillcolor="#ffffff"] ;
333 -> 334 ;
335 [label="entropy = 0.0\nsamples = 2\nvalue = [0, 2]", fillcolor="#399de5"] ;
333 -> 335 ;
336 [label="word_freq_over <= 0.198\nentropy = 0.918\nsamples = 6\nvalue = [4, 2]", fillcolor="#f2c09c"] ;
306 -> 336 ;
337 [label="entropy = 0.0\nsamples = 4\nvalue = [4, 0]", fillcolor="#e58139"] ;
336 -> 337 ;
338 [label="entropy = 0.0\nsamples = 2\nvalue = [0, 2]", fillcolor="#399de5"] ;
336 -> 338 ;
339 [label="entropy = 0.0\nsamples = 10\nvalue = [10, 0]", fillcolor="#e58139"] ;
305 -> 339 ;
340 [label="word_freq_hp <= -0.089\nentropy = 0.512\nsamples = 948\nvalue = [108, 840]", fillcolor="#52aae8"] ;
0 -> 340 [labeldistance=2.5, labelangle=-45, headlabel="False"] ;
341 [label="word_freq_edu <= 0.022\nentropy = 0.339\nsamples = 890\nvalue = [56, 834]", fillcolor="#46a4e7"] ;
340 -> 341 ;
342 [label="capital_run_length_longest <= -0.229\nentropy = 0.269\nsamples = 869\nvalue = [40, 829]", fillcolor="#43a2e6"] ;
341 -> 342 ;
343 [label="word_freq_you <= 0.703\nentropy = 0.99\nsamples = 25\nvalue = [14, 11]", fillcolor="#f9e4d5"] ;
342 -> 343 ;
344 [label="word_freq_internet <= 0.373\nentropy = 0.371\nsamples = 14\nvalue = [13, 1]", fillcolor="#e78b48"] ;
343 -> 344 ;
345 [label="entropy = 0.0\nsamples = 13\nvalue = [13, 0]", fillcolor="#e58139"] ;
344 -> 345 ;
346 [label="entropy = 0.0\nsamples = 1\nvalue = [0, 1]", fillcolor="#399de5"] ;
344 -> 346 ;
347 [label="word_freq_re <= 0.804\nentropy = 0.439\nsamples = 11\nvalue = [1, 10]", fillcolor="#4da7e8"] ;
343 -> 347 ;
348 [label="entropy = 0.0\nsamples = 10\nvalue = [0, 10]", fillcolor="#399de5"] ;
347 -> 348 ;
349 [label="entropy = 0.0\nsamples = 1\nvalue = [1, 0]", fillcolor="#e58139"] ;
347 -> 349 ;
350 [label="char_freq_%21 <= -0.155\nentropy = 0.198\nsamples = 844\nvalue = [26, 818]", fillcolor="#3fa0e6"] ;
342 -> 350 ;
351 [label="word_freq_george <= -0.204\nentropy = 0.461\nsamples = 226\nvalue = [22, 204]", fillcolor="#4ea8e8"] ;
350 -> 351 ;
352 [label="word_freq_our <= -0.026\nentropy = 0.36\nsamples = 219\nvalue = [15, 204]", fillcolor="#48a4e7"] ;
351 -> 352 ;
353 [label="capital_run_length_average <= -0.061\nentropy = 0.592\nsamples = 105\nvalue = [15, 90]", fillcolor="#5aade9"] ;
352 -> 353 ;
354 [label="word_freq_000 <= 0.295\nentropy = 0.851\nsamples = 47\nvalue = [13, 34]", fillcolor="#85c2ef"] ;
353 -> 354 ;
355 [label="char_freq_%28 <= -0.002\nentropy = 0.981\nsamples = 31\nvalue = [13, 18]", fillcolor="#c8e4f8"] ;
354 -> 355 ;
356 [label="word_freq_address <= 0.091\nentropy = 0.89\nsamples = 26\nvalue = [8, 18]", fillcolor="#91c9f1"] ;
355 -> 356 ;
357 [label="char_freq_%24 <= 0.328\nentropy = 0.755\nsamples = 23\nvalue = [5, 18]", fillcolor="#70b8ec"] ;
356 -> 357 ;
358 [label="capital_run_length_total <= 0.129\nentropy = 0.918\nsamples = 15\nvalue = [5, 10]", fillcolor="#9ccef2"] ;
357 -> 358 ;
359 [label="char_freq_%28 <= -0.296\nentropy = 0.954\nsamples = 8\nvalue = [5, 3]", fillcolor="#f5cdb0"] ;
358 -> 359 ;
360 [label="entropy = 0.0\nsamples = 4\nvalue = [4, 0]", fillcolor="#e58139"] ;
359 -> 360 ;
361 [label="word_freq_money <= 1.052\nentropy = 0.811\nsamples = 4\nvalue = [1, 3]", fillcolor="#7bbeee"] ;
359 -> 361 ;
362 [label="entropy = 0.0\nsamples = 2\nvalue = [0, 2]", fillcolor="#399de5"] ;
361 -> 362 ;
363 [label="entropy = 1.0\nsamples = 2\nvalue = [1, 1]", fillcolor="#ffffff"] ;
361 -> 363 ;
364 [label="entropy = 0.0\nsamples = 7\nvalue = [0, 7]", fillcolor="#399de5"] ;
358 -> 364 ;
365 [label="entropy = 0.0\nsamples = 8\nvalue = [0, 8]", fillcolor="#399de5"] ;
357 -> 365 ;
366 [label="entropy = 0.0\nsamples = 3\nvalue = [3, 0]", fillcolor="#e58139"] ;
356 -> 366 ;
367 [label="entropy = 0.0\nsamples = 5\nvalue = [5, 0]", fillcolor="#e58139"] ;
355 -> 367 ;
368 [label="entropy = 0.0\nsamples = 16\nvalue = [0, 16]", fillcolor="#399de5"] ;
354 -> 368 ;
369 [label="char_freq_%28 <= 1.676\nentropy = 0.216\nsamples = 58\nvalue = [2, 56]", fillcolor="#40a0e6"] ;
353 -> 369 ;
370 [label="entropy = 0.0\nsamples = 56\nvalue = [0, 56]", fillcolor="#399de5"] ;
369 -> 370 ;
371 [label="entropy = 0.0\nsamples = 2\nvalue = [2, 0]", fillcolor="#e58139"] ;
369 -> 371 ;
372 [label="entropy = 0.0\nsamples = 114\nvalue = [0, 114]", fillcolor="#399de5"] ;
352 -> 372 ;
373 [label="entropy = 0.0\nsamples = 7\nvalue = [7, 0]", fillcolor="#e58139"] ;
351 -> 373 ;
374 [label="word_freq_receive <= 1.762\nentropy = 0.056\nsamples = 618\nvalue = [4, 614]", fillcolor="#3a9ee5"] ;
350 -> 374 ;
375 [label="word_freq_meeting <= 0.075\nentropy = 0.018\nsamples = 579\nvalue = [1, 578]", fillcolor="#399de5"] ;
374 -> 375 ;
376 [label="entropy = 0.0\nsamples = 577\nvalue = [0, 577]", fillcolor="#399de5"] ;
375 -> 376 ;
377 [label="word_freq_meeting <= 0.18\nentropy = 1.0\nsamples = 2\nvalue = [1, 1]", fillcolor="#ffffff"] ;
375 -> 377 ;
378 [label="entropy = 0.0\nsamples = 1\nvalue = [1, 0]", fillcolor="#e58139"] ;
377 -> 378 ;
379 [label="entropy = 0.0\nsamples = 1\nvalue = [0, 1]", fillcolor="#399de5"] ;
377 -> 379 ;
380 [label="word_freq_will <= -0.228\nentropy = 0.391\nsamples = 39\nvalue = [3, 36]", fillcolor="#49a5e7"] ;
374 -> 380 ;
381 [label="word_freq_000 <= 0.181\nentropy = 0.75\nsamples = 14\nvalue = [3, 11]", fillcolor="#6fb8ec"] ;
380 -> 381 ;
382 [label="word_freq_will <= -0.31\nentropy = 0.414\nsamples = 12\nvalue = [1, 11]", fillcolor="#4ba6e7"] ;
381 -> 382 ;
383 [label="entropy = 0.0\nsamples = 11\nvalue = [0, 11]", fillcolor="#399de5"] ;
382 -> 383 ;
384 [label="entropy = 0.0\nsamples = 1\nvalue = [1, 0]", fillcolor="#e58139"] ;
382 -> 384 ;
385 [label="entropy = 0.0\nsamples = 2\nvalue = [2, 0]", fillcolor="#e58139"] ;
381 -> 385 ;
386 [label="entropy = 0.0\nsamples = 25\nvalue = [0, 25]", fillcolor="#399de5"] ;
380 -> 386 ;
387 [label="word_freq_edu <= 0.34\nentropy = 0.792\nsamples = 21\nvalue = [16, 5]", fillcolor="#eda877"] ;
341 -> 387 ;
388 [label="char_freq_%24 <= 0.955\nentropy = 0.991\nsamples = 9\nvalue = [4, 5]", fillcolor="#d7ebfa"] ;
387 -> 388 ;
389 [label="word_freq_technology <= 0.665\nentropy = 0.722\nsamples = 5\nvalue = [4, 1]", fillcolor="#eca06a"] ;
388 -> 389 ;
390 [label="entropy = 0.0\nsamples = 4\nvalue = [4, 0]", fillcolor="#e58139"] ;
389 -> 390 ;
391 [label="entropy = 0.0\nsamples = 1\nvalue = [0, 1]", fillcolor="#399de5"] ;
389 -> 391 ;
392 [label="entropy = 0.0\nsamples = 4\nvalue = [0, 4]", fillcolor="#399de5"] ;
388 -> 392 ;
393 [label="entropy = 0.0\nsamples = 12\nvalue = [12, 0]", fillcolor="#e58139"] ;
387 -> 393 ;
394 [label="word_freq_remove <= -0.1\nentropy = 0.48\nsamples = 58\nvalue = [52, 6]", fillcolor="#e89050"] ;
340 -> 394 ;
395 [label="word_freq_email <= 0.189\nentropy = 0.135\nsamples = 53\nvalue = [52, 1]", fillcolor="#e6833d"] ;
394 -> 395 ;
396 [label="entropy = 0.0\nsamples = 52\nvalue = [52, 0]", fillcolor="#e58139"] ;
395 -> 396 ;
397 [label="entropy = 0.0\nsamples = 1\nvalue = [0, 1]", fillcolor="#399de5"] ;
395 -> 397 ;
398 [label="entropy = 0.0\nsamples = 5\nvalue = [0, 5]", fillcolor="#399de5"] ;
394 -> 398 ;
}